{"learner":{"attributes":{},"feature_names":["average dispersal","weekly remating chance","mosquito reproduction chance","animal biting rate","viability fitness","female fecundity fitness","germline resistance rate","drive conversion efficiency","embryo resistance rate","functional resistance proportion","low-density growth rate","seasonal population change"],"feature_types":["float","float","float","float","float","float","float","float","float","float","float","float"],"gradient_booster":{"model":{"gbtree_model_param":{"num_parallel_tree":"1","num_trees":"100"},"iteration_indptr":[0,1,2,3,4,5,6,7,8,9,10,11,12,13,14,15,16,17,18,19,20,21,22,23,24,25,26,27,28,29,30,31,32,33,34,35,36,37,38,39,40,41,42,43,44,45,46,47,48,49,50,51,52,53,54,55,56,57,58,59,60,61,62,63,64,65,66,67,68,69,70,71,72,73,74,75,76,77,78,79,80,81,82,83,84,85,86,87,88,89,90,91,92,93,94,95,96,97,98,99,100],"tree_info":[0,0,0,0,0,0,0,0,0,0,0,0,0,0,0,0,0,0,0,0,0,0,0,0,0,0,0,0,0,0,0,0,0,0,0,0,0,0,0,0,0,0,0,0,0,0,0,0,0,0,0,0,0,0,0,0,0,0,0,0,0,0,0,0,0,0,0,0,0,0,0,0,0,0,0,0,0,0,0,0,0,0,0,0,0,0,0,0,0,0,0,0,0,0,0,0,0,0,0,0],"trees":[{"base_weights":[-1.5404167E-8,-3.4755513E-1,1.5678044E-2,-5.2709097E-1,-2.5462234E-1,-1.6942933E-1,2.9656649E-2,-1.3173294E-1,-4.2404166E-1,-4.0166095E-1,-1.4344686E-1,-8.7191075E-2,-3.3692878E-1,-3.4862686E-2,3.825032E-2,-5.1097214E-1,-3.128644E-1,-2.0478114E-1,-4.6793616E-1,-2.1414189E-1,-5.743863E-2,-3.1261873E-1,-4.1011006E-2,-5.0908995E-1,-2.2566211E-1,-1.7955615E-1,-3.530459E-4,-8.152834E-4,4.298601E-2,-6.2016513E-2,-1.1657869E-1,-4.441542E-2,-9.182439E-2,-6.435668E-2,-2.5634248E-2,-1.0677468E-1,-7.6287605E-2,-1.9812414E-2,-5.1647216E-2,-3.557613E-2,-5.7709166E-3,-1.17073014E-1,-5.131883E-2,-4.6580113E-2,-1.1645629E-3,-7.070836E-2,-1.2720838E-1,-7.258103E-2,-2.877814E-2,-2.5969489E-2,-7.6826155E-2,-9.322743E-3,2.1800157E-3,-1.1014857E-2,4.5790304E-3,6.126554E-3,9.047681E-3],"categories":[],"categories_nodes":[],"categories_segments":[],"categories_sizes":[],"default_left":[0,0,0,0,0,0,0,0,0,0,0,0,0,0,0,0,0,0,0,0,0,0,0,0,0,0,0,0,0,0,0,0,0,0,0,0,0,0,0,0,0,0,0,0,0,0,0,0,0,0,0,0,0,0,0,0,0],"id":0,"left_children":[1,3,5,7,9,11,13,-1,15,17,19,21,23,25,27,29,31,33,35,37,39,41,43,45,47,49,51,53,55,-1,-1,-1,-1,-1,-1,-1,-1,-1,-1,-1,-1,-1,-1,-1,-1,-1,-1,-1,-1,-1,-1,-1,-1,-1,-1,-1,-1],"loss_changes":[5.3274776E1,6.9067574E0,2.4211487E1,1.6595764E0,4.5195675E0,9.020706E0,4.824564E0,0E0,6.423044E-1,1.4699669E0,9.6663713E-1,4.588517E0,4.022772E0,5.108102E0,1.4202995E0,4.6942616E-1,4.1589403E-1,2.455895E-1,3.0396652E-1,4.2096138E-1,2.4962868E-1,9.9583673E-1,2.4834704E0,1.4338932E0,1.4403815E0,1.9534416E0,4.3102527E-1,1.0703462E0,1.8912792E-1,0E0,0E0,0E0,0E0,0E0,0E0,0E0,0E0,0E0,0E0,0E0,0E0,0E0,0E0,0E0,0E0,0E0,0E0,0E0,0E0,0E0,0E0,0E0,0E0,0E0,0E0,0E0,0E0],"parents":[2147483647,0,0,1,1,2,2,3,3,4,4,5,5,6,6,8,8,9,9,10,10,11,11,12,12,13,13,14,14,15,15,16,16,17,17,18,18,19,19,20,20,21,21,22,22,23,23,24,24,25,25,26,26,27,27,28,28],"right_children":[2,4,6,8,10,12,14,-1,16,18,20,22,24,26,28,30,32,34,36,38,40,42,44,46,48,50,52,54,56,-1,-1,-1,-1,-1,-1,-1,-1,-1,-1,-1,-1,-1,-1,-1,-1,-1,-1,-1,-1,-1,-1,-1,-1,-1,-1,-1,-1],"split_conditions":[4.3E-2,1.7E-2,4.7529705E-2,2.561601E-1,2.470294E-1,9.62E-1,1.59E-1,-1.3173294E-1,9E-3,9.13E-1,4.8042527E-1,1.4214215E-1,3.83E-1,1.5959975E-1,1.15447156E-1,8.92E-1,9.46E-1,3.1E-2,1.3058162E-1,7.14E-1,3.51E-1,1.93E-1,1.9E-1,4.07E-1,1.9762352E-2,9.79E-1,6.6E-2,4.03E-1,1.9937462E-1,-6.2016513E-2,-1.1657869E-1,-4.441542E-2,-9.182439E-2,-6.435668E-2,-2.5634248E-2,-1.0677468E-1,-7.6287605E-2,-1.9812414E-2,-5.1647216E-2,-3.557613E-2,-5.7709166E-3,-1.17073014E-1,-5.131883E-2,-4.6580113E-2,-1.1645629E-3,-7.070836E-2,-1.2720838E-1,-7.258103E-2,-2.877814E-2,-2.5969489E-2,-7.6826155E-2,-9.322743E-3,2.1800157E-3,-1.1014857E-2,4.5790304E-3,6.126554E-3,9.047681E-3],"split_indices":[9,9,8,8,8,7,9,0,9,7,8,6,9,8,8,7,7,9,8,5,2,9,9,1,8,7,9,9,8,0,0,0,0,0,0,0,0,0,0,0,0,0,0,0,0,0,0,0,0,0,0,0,0,0,0,0,0],"split_type":[0,0,0,0,0,0,0,0,0,0,0,0,0,0,0,0,0,0,0,0,0,0,0,0,0,0,0,0,0,0,0,0,0,0,0,0,0,0,0,0,0,0,0,0,0,0,0,0,0,0,0,0,0,0,0,0,0],"sum_hessian":[9.775E3,4.21E2,9.354E3,1.42E2,2.79E2,6.56E2,8.698E3,6E1,8.2E1,1.19E2,1.6E2,4.41E2,2.15E2,1.022E3,7.676E3,4.4E1,3.8E1,3.1E1,8.8E1,8.7E1,7.3E1,7.4E1,3.67E2,8.3E1,1.32E2,1.96E2,8.26E2,8.3E2,6.846E3,1.3E1,3.1E1,2.5E1,1.3E1,1.1E1,2E1,4.7E1,4.1E1,2.5E1,6.2E1,1.3E1,6E1,1.1E1,6.3E1,5.6E1,3.11E2,3.9E1,4.4E1,4.8E1,8.4E1,1.59E2,3.7E1,1.61E2,6.65E2,2.52E2,5.78E2,1.058E3,5.788E3],"tree_param":{"num_deleted":"0","num_feature":"12","num_nodes":"57","size_leaf_vector":"1"}},{"base_weights":[-1.4824286E-4,-1.2897532E-1,1.3829949E-2,-8.382343E-2,-2.9017043E-1,-1.1528473E-1,1.7874015E-2,-2.078377E-1,-4.1001633E-2,-4.6237448E-1,-2.0566308E-1,-3.1707242E-1,-8.260616E-2,-2.2134507E-2,2.3855956E-2,-9.9503115E-2,-3.220917E-1,-2.2222137E-1,-1.7073931E-2,-3.6090642E-1,-6.124034E-1,-3.0356625E-1,-1.1159576E-1,-3.5967118E-1,-1.6608861E-1,-4.8988976E-2,-1.4125322E-1,-1.0581667E-1,-9.886564E-3,-7.620091E-4,2.7480828E-2,-6.2227096E-2,-1.1699163E-2,-7.992756E-2,-3.235614E-2,-7.7306226E-2,-3.1195123E-2,1.2836679E-3,-1.1003739E-2,1.8658191E-3,-7.778146E-2,-4.653906E-2,-1.2687002E-1,-3.6717154E-2,-8.577817E-2,1.36279315E-2,-2.7506102E-2,4.648334E-3,-7.494279E-2,4.4935765E-3,-3.7907153E-2,-4.021969E-2,-8.014888E-3,-3.857932E-2,-1.1926731E-2,-1.0317079E-2,-3.6246758E-2,1.2870155E-3,-1.06014265E-2,-1.2159521E-2,9.580194E-4,3.7272782E-3,5.917325E-3],"categories":[],"categories_nodes":[],"categories_segments":[],"categories_sizes":[],"default_left":[0,0,0,0,0,0,0,0,0,0,0,0,0,0,0,0,0,0,0,0,0,0,0,0,0,0,0,0,0,0,0,0,0,0,0,0,0,0,0,0,0,0,0,0,0,0,0,0,0,0,0,0,0,0,0,0,0,0,0,0,0,0,0],"id":1,"left_children":[1,3,5,7,9,11,13,15,17,19,21,23,25,27,29,31,33,35,37,39,41,43,45,47,49,51,53,55,57,59,61,-1,-1,-1,-1,-1,-1,-1,-1,-1,-1,-1,-1,-1,-1,-1,-1,-1,-1,-1,-1,-1,-1,-1,-1,-1,-1,-1,-1,-1,-1,-1,-1],"loss_changes":[1.7606104E1,6.940974E0,4.6074095E0,3.9690537E0,2.9463825E0,1.7410359E0,2.047505E0,2.3444614E0,2.4157898E0,8.141537E-1,1.2738705E0,1.7823625E-1,4.5047963E-1,1.1397059E0,6.640334E-1,8.4964705E-1,1.0914755E0,6.472242E-1,4.4070897E-1,4.4940567E-1,6.905651E-2,9.5878077E-1,3.5431433E-1,1.6999078E-1,4.8469603E-2,1.9398302E-1,3.42566E-1,5.714264E-1,6.844332E-1,3.1894898E-1,1.2024784E-1,0E0,0E0,0E0,0E0,0E0,0E0,0E0,0E0,0E0,0E0,0E0,0E0,0E0,0E0,0E0,0E0,0E0,0E0,0E0,0E0,0E0,0E0,0E0,0E0,0E0,0E0,0E0,0E0,0E0,0E0,0E0,0E0],"parents":[2147483647,0,0,1,1,2,2,3,3,4,4,5,5,6,6,7,7,8,8,9,9,10,10,11,11,12,12,13,13,14,14,15,15,16,16,17,17,18,18,19,19,20,20,21,21,22,22,23,23,24,24,25,25,26,26,27,27,28,28,29,29,30,30],"right_children":[2,4,6,8,10,12,14,16,18,20,22,24,26,28,30,32,34,36,38,40,42,44,46,48,50,52,54,56,58,60,62,-1,-1,-1,-1,-1,-1,-1,-1,-1,-1,-1,-1,-1,-1,-1,-1,-1,-1,-1,-1,-1,-1,-1,-1,-1,-1,-1,-1,-1,-1,-1,-1],"split_conditions":[6.5916196E-2,9.76E-1,1.6666667E-1,2.3563564E-1,3.888889E-1,1.4909318E-1,1.4358975E-1,9.31E-1,2.2222222E-1,7.26E-1,2.9393371E-2,5.77E-1,9.52E-1,2.777778E-1,2.777778E-1,2.777778E-1,4.4777986E-2,1.6666667E-1,9.4E-1,9.79E-1,3.893894E-2,5.22E-1,6.21E-1,5.65E-1,8.2E-1,8.13E-1,4.3089432E-1,9.52E-1,9.68E-1,1.8711695E-1,2.470294E-1,-6.2227096E-2,-1.1699163E-2,-7.992756E-2,-3.235614E-2,-7.7306226E-2,-3.1195123E-2,1.2836679E-3,-1.1003739E-2,1.8658191E-3,-7.778146E-2,-4.653906E-2,-1.2687002E-1,-3.6717154E-2,-8.577817E-2,1.36279315E-2,-2.7506102E-2,4.648334E-3,-7.494279E-2,4.4935765E-3,-3.7907153E-2,-4.021969E-2,-8.014888E-3,-3.857932E-2,-1.1926731E-2,-1.0317079E-2,-3.6246758E-2,1.2870155E-3,-1.06014265E-2,-1.2159521E-2,9.580194E-4,3.7272782E-3,5.917325E-3],"split_indices":[8,7,10,6,10,8,8,7,10,1,8,2,7,10,10,10,8,10,7,7,6,1,5,5,7,4,8,7,7,8,8,0,0,0,0,0,0,0,0,0,0,0,0,0,0,0,0,0,0,0,0,0,0,0,0,0,0,0,0,0,0,0,0],"split_type":[0,0,0,0,0,0,0,0,0,0,0,0,0,0,0,0,0,0,0,0,0,0,0,0,0,0,0,0,0,0,0,0,0,0,0,0,0,0,0,0,0,0,0,0,0,0,0,0,0,0,0,0,0,0,0,0,0,0,0,0,0,0,0],"sum_hessian":[9.775E3,9.56E2,8.819E3,7.48E2,2.08E2,2.67E2,8.552E3,1.91E2,5.57E2,6.7E1,1.41E2,3.6E1,2.31E2,1.112E3,7.44E3,9.9E1,9.2E1,6.4E1,4.93E2,4.2E1,2.5E1,6.8E1,7.3E1,2.7E1,9E0,1.48E2,8.3E1,1.41E2,9.71E2,9.55E2,6.485E3,1.5E1,8.4E1,6.1E1,3.1E1,1.7E1,4.7E1,3.05E2,1.88E2,3E0,3.9E1,2E0,2.3E1,3.6E1,3.2E1,9E0,6.4E1,1E0,2.6E1,1E0,8E0,7E0,1.41E2,5E1,3.3E1,8.3E1,5.8E1,7.05E2,2.66E2,8E1,8.75E2,1.249E3,5.236E3],"tree_param":{"num_deleted":"0","num_feature":"12","num_nodes":"63","size_leaf_vector":"1"}},{"base_weights":[-2.1576507E-4,-2.7872553E-1,1.2347714E-2,-4.4915265E-1,-2.141871E-1,-1.04931735E-1,2.1757351E-2,-5.002743E-1,-3.180096E-1,-3.001294E-1,-9.4203554E-2,-2.6908255E-1,-6.846167E-2,-3.941966E-2,2.7714955E-2,-5.5671644E-1,-3.8576543E-1,-6.480308E-2,-3.397226E-1,-3.851666E-1,-2.3793243E-1,-2.1207601E-1,-3.94594E-2,-4.2631343E-1,-1.7951584E-1,-1.8632194E-1,-2.7438276E-2,-1.6376129E-1,-1.0263733E-2,-6.16917E-2,3.0478656E-2,-5.6290578E-2,-1.1475829E-1,-9.1828965E-2,-3.2706153E-2,1.0716152E-2,-2.4424924E-2,-7.275566E-2,-2.741322E-2,-8.76103E-2,-5.6527924E-2,-5.3133663E-2,-1.7515082E-2,-6.1637104E-2,-2.7647702E-2,-2.6264716E-2,-1.9194995E-3,-8.899962E-2,-3.2790303E-3,-8.262319E-2,-1.9499559E-2,-7.3179595E-2,-2.4072122E-2,-2.8454691E-2,-3.0922148E-4,-6.534404E-2,-2.5146171E-2,-3.9625898E-2,1.5041763E-3,-4.9721386E-2,-5.173871E-3,3.4957756E-3,6.7348913E-3],"categories":[],"categories_nodes":[],"categories_segments":[],"categories_sizes":[],"default_left":[0,0,0,0,0,0,0,0,0,0,0,0,0,0,0,0,0,0,0,0,0,0,0,0,0,0,0,0,0,0,0,0,0,0,0,0,0,0,0,0,0,0,0,0,0,0,0,0,0,0,0,0,0,0,0,0,0,0,0,0,0,0,0],"id":2,"left_children":[1,3,5,7,9,11,13,15,17,19,21,23,25,27,29,31,33,35,37,39,41,43,45,47,49,51,53,55,57,59,61,-1,-1,-1,-1,-1,-1,-1,-1,-1,-1,-1,-1,-1,-1,-1,-1,-1,-1,-1,-1,-1,-1,-1,-1,-1,-1,-1,-1,-1,-1,-1,-1],"loss_changes":[3.421017E1,4.545418E0,1.032606E1,6.118965E-1,3.1477184E0,4.1422586E0,3.1577525E0,3.0875015E-1,1.7041063E-1,8.550987E-1,8.304993E-1,1.6978846E0,2.7508538E0,2.7861714E0,1.952188E0,8.2912445E-2,4.1413927E-1,3.368731E-2,1.0613966E-1,2.7742672E-1,4.1878366E-1,2.4835277E-1,2.4563117E-1,3.37368E-1,1.5307951E0,1.6971865E0,1.2604727E0,8.6374116E-1,2.0863488E0,1.5804595E0,3.175187E-1,0E0,0E0,0E0,0E0,0E0,0E0,0E0,0E0,0E0,0E0,0E0,0E0,0E0,0E0,0E0,0E0,0E0,0E0,0E0,0E0,0E0,0E0,0E0,0E0,0E0,0E0,0E0,0E0,0E0,0E0,0E0,0E0],"parents":[2147483647,0,0,1,1,2,2,3,3,4,4,5,5,6,6,7,7,8,8,9,9,10,10,11,11,12,12,13,13,14,14,15,15,16,16,17,17,18,18,19,19,20,20,21,21,22,22,23,23,24,24,25,25,26,26,27,27,28,28,29,29,30,30],"right_children":[2,4,6,8,10,12,14,16,18,20,22,24,26,28,30,32,34,36,38,40,42,44,46,48,50,52,54,56,58,60,62,-1,-1,-1,-1,-1,-1,-1,-1,-1,-1,-1,-1,-1,-1,-1,-1,-1,-1,-1,-1,-1,-1,-1,-1,-1,-1,-1,-1,-1,-1,-1,-1],"split_conditions":[4.3E-2,1.4E-2,5.0281424E-2,4.6954346E-1,3.7385866E-1,2.1E-1,1.31E-1,9E-3,1.19E-1,1.3058162E-1,3.888889E-1,3.888889E-1,2.3563564E-1,1.5959975E-1,1.6666667E-1,5.81E-1,7.83984E-1,3.37E-1,8.934334E-1,6.6256255E-1,8.1691694E-1,4.6954346E-1,3.51E-1,4.7529705E-2,1.5465465E-1,3.3333334E-1,2.777778E-1,1.8288289E-1,2.2222222E-1,1.4909318E-1,2.99E-1,-5.6290578E-2,-1.1475829E-1,-9.1828965E-2,-3.2706153E-2,1.0716152E-2,-2.4424924E-2,-7.275566E-2,-2.741322E-2,-8.76103E-2,-5.6527924E-2,-5.3133663E-2,-1.7515082E-2,-6.1637104E-2,-2.7647702E-2,-2.6264716E-2,-1.9194995E-3,-8.899962E-2,-3.2790303E-3,-8.262319E-2,-1.9499559E-2,-7.3179595E-2,-2.4072122E-2,-2.8454691E-2,-3.0922148E-4,-6.534404E-2,-2.5146171E-2,-3.9625898E-2,1.5041763E-3,-4.9721386E-2,-5.173871E-3,3.4957756E-3,6.7348913E-3],"split_indices":[9,9,8,8,8,9,9,9,1,8,10,10,6,8,10,5,6,2,8,6,6,8,2,8,6,10,10,6,10,8,9,0,0,0,0,0,0,0,0,0,0,0,0,0,0,0,0,0,0,0,0,0,0,0,0,0,0,0,0,0,0,0,0],"split_type":[0,0,0,0,0,0,0,0,0,0,0,0,0,0,0,0,0,0,0,0,0,0,0,0,0,0,0,0,0,0,0,0,0,0,0,0,0,0,0,0,0,0,0,0,0,0,0,0,0,0,0,0,0,0,0,0,0,0,0,0,0,0,0],"sum_hessian":[9.775E3,4.21E2,9.354E3,1.14E2,3.07E2,6.94E2,8.66E3,8E1,3.4E1,1.78E2,1.29E2,1.25E2,5.69E2,7.68E2,7.892E3,5.1E1,2.9E1,3E0,3.1E1,7.3E1,1.05E2,4E1,8.9E1,4.4E1,8.1E1,1.46E2,4.23E2,1.45E2,6.23E2,2.36E2,7.656E3,4E0,4.7E1,2.1E1,8E0,1E0,2E0,2.7E1,4E0,4.6E1,2.7E1,8.8E1,1.7E1,1.6E1,2.4E1,2.1E1,6.8E1,4.2E1,2E0,2E1,6.1E1,3.8E1,1.08E2,7.7E1,3.46E2,2.6E1,1.19E2,5.3E1,5.7E2,3.7E1,1.99E2,1.512E3,6.144E3],"tree_param":{"num_deleted":"0","num_feature":"12","num_nodes":"63","size_leaf_vector":"1"}},{"base_weights":[-2.9899125E-4,-2.7346855E-1,8.140379E-3,-3.7992373E-1,-2.0255694E-1,-9.257621E-2,1.5244186E-2,-4.7871682E-1,-3.3989456E-1,-3.0544978E-1,-1.3769865E-1,-5.888198E-2,-2.8714302E-1,-6.162027E-2,2.0964997E-2,-2.3398532E-1,-1.03356235E-1,-7.476931E-2,-3.5533723E-1,-1.4383063E-1,-3.3751404E-1,-2.2858949E-1,-9.283328E-2,-1.4059553E-1,-8.741223E-3,-1.966548E-1,-3.7335613E-1,-2.0328037E-1,-2.6797408E-2,-5.7320915E-2,2.3389239E-2,-1.65029E-2,-5.781842E-2,3.4991174E-3,-3.4573212E-2,-7.35403E-2,-2.790008E-2,2.561319E-3,-3.4694873E-2,-7.0124894E-2,-1.5884494E-2,-3.01714E-2,-7.090236E-2,-3.4615602E-2,-3.2572125E-3,-5.9876192E-2,-1.272717E-2,-3.98E-2,1.4800739E-3,-4.4552125E-2,1.3437248E-2,-3.8420875E-3,-8.519954E-2,-2.6627967E-2,-6.6408284E-2,-4.2134587E-2,-1.9380385E-3,-3.2900646E-2,-2.334112E-3,-4.631726E-3,5.0587794E-3],"categories":[],"categories_nodes":[],"categories_segments":[],"categories_sizes":[],"default_left":[0,0,0,0,0,0,0,0,0,0,0,0,0,0,0,0,0,0,0,0,0,0,0,0,0,0,0,0,0,0,0,0,0,0,0,0,0,0,0,0,0,0,0,0,0,0,0,0,0,0,0,0,0,0,0,0,0,0,0,0,0],"id":3,"left_children":[1,3,5,7,9,11,13,15,17,19,21,23,25,27,29,31,-1,33,35,37,39,41,43,45,47,49,51,53,55,57,59,-1,-1,-1,-1,-1,-1,-1,-1,-1,-1,-1,-1,-1,-1,-1,-1,-1,-1,-1,-1,-1,-1,-1,-1,-1,-1,-1,-1,-1,-1],"loss_changes":[2.2539612E1,2.1348724E0,6.7869406E0,2.960205E-1,1.1458149E0,4.0804543E0,3.8972735E0,1.6786242E-1,3.2553768E-1,3.0384445E-1,4.3142056E-1,2.1866646E0,6.4429426E-1,3.0234208E0,1.5664895E0,2.622813E-2,0E0,5.7329718E-2,1.6486645E-1,6.25847E-2,1.6163921E-1,2.9889655E-1,4.6401215E-1,2.4616241E0,1.0210711E0,3.3869243E-1,8.4938526E-1,1.0485883E0,1.551884E0,1.2115222E0,7.098479E-1,0E0,0E0,0E0,0E0,0E0,0E0,0E0,0E0,0E0,0E0,0E0,0E0,0E0,0E0,0E0,0E0,0E0,0E0,0E0,0E0,0E0,0E0,0E0,0E0,0E0,0E0,0E0,0E0,0E0,0E0],"parents":[2147483647,0,0,1,1,2,2,3,3,4,4,5,5,6,6,7,7,8,8,9,9,10,10,11,11,12,12,13,13,14,14,15,15,17,17,18,18,19,19,20,20,21,21,22,22,23,23,24,24,25,25,26,26,27,27,28,28,29,29,30,30],"right_children":[2,4,6,8,10,12,14,16,18,20,22,24,26,28,30,32,-1,34,36,38,40,42,44,46,48,50,52,54,56,58,60,-1,-1,-1,-1,-1,-1,-1,-1,-1,-1,-1,-1,-1,-1,-1,-1,-1,-1,-1,-1,-1,-1,-1,-1,-1,-1,-1,-1,-1,-1],"split_conditions":[3.1E-2,2.470294E-1,4.4777986E-2,9E-3,1.4E-2,9.86E-1,1.02E-1,5.1575756E-1,8.59E-1,3.8181818E-1,3.888889E-1,4.4444445E-1,5.16E-1,1.5372108E-1,1.6666667E-1,4.83E-1,-1.03356235E-1,1.0306442E-1,1E0,8.06E-1,7.54E-1,8.3151513E-1,4.5E-1,3.48E-1,9.7E-2,7.28E-1,5.0060606E-1,9.61E-1,2.2222222E-1,2.137586E-1,2.5454545E-1,-1.65029E-2,-5.781842E-2,3.4991174E-3,-3.4573212E-2,-7.35403E-2,-2.790008E-2,2.561319E-3,-3.4694873E-2,-7.0124894E-2,-1.5884494E-2,-3.01714E-2,-7.090236E-2,-3.4615602E-2,-3.2572125E-3,-5.9876192E-2,-1.272717E-2,-3.98E-2,1.4800739E-3,-4.4552125E-2,1.3437248E-2,-3.8420875E-3,-8.519954E-2,-2.6627967E-2,-6.6408284E-2,-4.2134587E-2,-1.9380385E-3,-3.2900646E-2,-2.334112E-3,-4.631726E-3,5.0587794E-3],"split_indices":[9,8,8,9,9,7,9,0,7,0,10,10,1,8,10,1,0,8,10,7,2,0,2,9,9,9,0,7,10,8,0,0,0,0,0,0,0,0,0,0,0,0,0,0,0,0,0,0,0,0,0,0,0,0,0,0,0,0,0,0,0],"split_type":[0,0,0,0,0,0,0,0,0,0,0,0,0,0,0,0,0,0,0,0,0,0,0,0,0,0,0,0,0,0,0,0,0,0,0,0,0,0,0,0,0,0,0,0,0,0,0,0,0,0,0,0,0,0,0,0,0,0,0,0,0],"sum_hessian":[9.775E3,2.92E2,9.483E3,1.15E2,1.77E2,6.24E2,8.859E3,3E1,8.5E1,6.7E1,1.1E2,5.33E2,9.1E1,6.13E2,8.246E3,5E0,2.5E1,5E0,8E1,1.2E1,5.5E1,3.5E1,7.5E1,2.02E2,3.31E2,4.6E1,4.5E1,1.2E2,4.93E2,2.47E2,7.999E3,2E0,3E0,3E0,2E0,7.5E1,5E0,2E0,1E1,5.2E1,3E0,2.3E1,1.2E1,3.6E1,3.9E1,6.5E1,1.37E2,2.5E1,3.06E2,4.2E1,4E0,6E0,3.9E1,7.9E1,4.1E1,4.1E1,4.52E2,7.3E1,1.74E2,3.14E2,7.685E3],"tree_param":{"num_deleted":"0","num_feature":"12","num_nodes":"61","size_leaf_vector":"1"}},{"base_weights":[-3.38435E-4,-1.485132E-1,1.0075198E-2,-2.3318379E-1,-9.027357E-2,-1.2220815E-1,1.3703972E-2,-3.1482357E-1,-1.7797036E-1,-2.272131E-1,-5.1500335E-2,-2.751012E-1,-7.936679E-2,-2.3259668E-2,1.8014057E-2,-3.2460362E-1,-1.0098225E-1,-2.4287225E-1,-1.262348E-1,-2.780722E-1,-1.6139947E-1,-1.0776918E-1,-2.4768429E-2,1.8999685E-2,-3.072522E-1,-1.3101286E-1,-5.424644E-3,-1.473269E-1,-2.3447578E-3,1.3082506E-3,2.1469448E-2,-7.552604E-2,-5.5063277E-2,1.3871665E-2,-4.0698424E-2,-3.75366E-2,-7.2016366E-2,-4.6261796E-3,-3.1072525E-2,-1.4554629E-2,-5.9178364E-2,-4.9726054E-2,-2.2684338E-2,-1.4465595E-2,-4.2215824E-2,-1.1361528E-2,2.6657204E-3,-6.925264E-2,-2.820169E-2,-3.4599554E-2,-8.719061E-3,-5.1134743E-2,3.6641743E-3,-5.6244727E-2,-2.2182325E-2,-7.5274566E-3,3.884506E-3,-1.0007731E-2,1.4052627E-3,4.3766415E-3,-4.5016836E-3],"categories":[],"categories_nodes":[],"categories_segments":[],"categories_sizes":[],"default_left":[0,0,0,0,0,0,0,0,0,0,0,0,0,0,0,0,0,0,0,0,0,0,0,0,0,0,0,0,0,0,0,0,0,0,0,0,0,0,0,0,0,0,0,0,0,0,0,0,0,0,0,0,0,0,0,0,0,0,0,0,0],"id":4,"left_children":[1,3,5,7,9,11,13,15,17,19,21,23,25,27,29,31,33,35,37,39,41,43,45,-1,47,49,51,53,55,57,59,-1,-1,-1,-1,-1,-1,-1,-1,-1,-1,-1,-1,-1,-1,-1,-1,-1,-1,-1,-1,-1,-1,-1,-1,-1,-1,-1,-1,-1,-1],"loss_changes":[1.5086231E1,3.1447697E0,4.386716E0,1.1204586E0,2.0165613E0,1.5764024E0,1.4170611E0,1.8472385E-1,4.9986315E-1,2.3628569E-1,4.4707847E-1,6.598382E-1,7.325028E-1,2.410275E0,4.5969415E-1,1.5477085E-1,1.18883416E-1,3.7875986E-1,2.666936E-1,1.4675117E-1,1.350205E-1,3.3623028E-1,2.4975935E-1,0E0,2.689557E-1,4.0719295E-1,4.800676E-1,6.2217784E-1,6.122362E-1,4.014157E-1,1.20569706E-1,0E0,0E0,0E0,0E0,0E0,0E0,0E0,0E0,0E0,0E0,0E0,0E0,0E0,0E0,0E0,0E0,0E0,0E0,0E0,0E0,0E0,0E0,0E0,0E0,0E0,0E0,0E0,0E0,0E0,0E0],"parents":[2147483647,0,0,1,1,2,2,3,3,4,4,5,5,6,6,7,7,8,8,9,9,10,10,11,11,12,12,13,13,14,14,15,15,16,16,17,17,18,18,19,19,20,20,21,21,22,22,24,24,25,25,26,26,27,27,28,28,29,29,30,30],"right_children":[2,4,6,8,10,12,14,16,18,20,22,24,26,28,30,32,34,36,38,40,42,44,46,-1,48,50,52,54,56,58,60,-1,-1,-1,-1,-1,-1,-1,-1,-1,-1,-1,-1,-1,-1,-1,-1,-1,-1,-1,-1,-1,-1,-1,-1,-1,-1,-1,-1,-1,-1],"split_conditions":[6.6E-2,2.4427767E-1,1.9762352E-2,2.8E-2,1.7E-2,1.6286287E-1,8.76798E-2,9.53E-1,4.5575577E-1,9E-3,3.1E-2,8.32E-1,5.8E-1,1.93E-1,2.29E-1,1.4E-2,9.82E-1,6.03E-1,2.42E-1,8.34E-1,3.44E-1,8.88E-1,4.7754848E-1,1.8999685E-2,8.63E-1,6.898899E-1,2.99E-1,1.943944E-1,4.81E-1,1.4108817E-1,9.858662E-1,-7.552604E-2,-5.5063277E-2,1.3871665E-2,-4.0698424E-2,-3.75366E-2,-7.2016366E-2,-4.6261796E-3,-3.1072525E-2,-1.4554629E-2,-5.9178364E-2,-4.9726054E-2,-2.2684338E-2,-1.4465595E-2,-4.2215824E-2,-1.1361528E-2,2.6657204E-3,-6.925264E-2,-2.820169E-2,-3.4599554E-2,-8.719061E-3,-5.1134743E-2,3.6641743E-3,-5.6244727E-2,-2.2182325E-2,-7.5274566E-3,3.884506E-3,-1.0007731E-2,1.4052627E-3,4.3766415E-3,-4.5016836E-3],"split_indices":[9,8,8,9,9,6,8,3,6,9,9,4,9,9,9,9,3,1,1,4,2,5,8,0,9,6,2,6,9,8,8,0,0,0,0,0,0,0,0,0,0,0,0,0,0,0,0,0,0,0,0,0,0,0,0,0,0,0,0,0,0],"split_type":[0,0,0,0,0,0,0,0,0,0,0,0,0,0,0,0,0,0,0,0,0,0,0,0,0,0,0,0,0,0,0,0,0,0,0,0,0,0,0,0,0,0,0,0,0,0,0,0,0,0,0,0,0,0,0,0,0,0,0,0,0],"sum_hessian":[9.775E3,6.41E2,9.134E3,2.6E2,3.81E2,2.43E2,8.891E3,1.03E2,1.57E2,8.3E1,2.98E2,5.2E1,1.91E2,9.28E2,7.963E3,9.8E1,5E0,6.8E1,8.9E1,4.5E1,3.8E1,9.5E1,2.03E2,4E0,4.8E1,1.12E2,7.9E1,1.33E2,7.95E2,1.365E3,6.598E3,4.4E1,5.4E1,2E0,3E0,4.8E1,2E1,2E1,6.9E1,4E0,4.1E1,1.2E1,2.6E1,7.2E1,2.3E1,1.1E2,9.3E1,3.8E1,1E1,7.5E1,3.7E1,6E0,7.3E1,2.7E1,1.06E2,3.03E2,4.92E2,1.36E2,1.229E3,6.537E3,6.1E1],"tree_param":{"num_deleted":"0","num_feature":"12","num_nodes":"61","size_leaf_vector":"1"}},{"base_weights":[-3.4994647E-4,-1.1556913E-1,8.358077E-3,-2.2422293E-1,-8.18857E-2,-1.0802886E-1,1.1055584E-2,-1.4890252E-1,-3.034282E-1,-2.1122114E-1,-5.682824E-2,1.9523803E-3,-1.696998E-1,-6.88959E-2,1.36172045E-2,-1.8546414E-1,-3.577315E-2,-7.90211E-2,-3.1771606E-1,-8.102465E-2,-2.336035E-1,-1.6304791E-1,-3.2180853E-2,-2.1883225E-1,2.7898332E-2,-2.650244E-1,-1.0442601E-1,-1.8544047E-1,-1.7814862E-2,-8.820111E-3,1.6643723E-2,-2.8065765E-2,-5.305059E-2,-3.135638E-2,6.229945E-3,-2.1192295E-2,5.5680755E-3,-4.269189E-2,-7.114294E-2,-1.980627E-2,1.5306241E-2,-6.198823E-2,-3.9218616E-2,-6.6656815E-3,-4.367737E-2,1.6222146E-5,-1.6575761E-2,-1.4955669E-2,-6.883832E-2,-4.241743E-2,7.6768124E-3,-6.0582634E-2,5.4464545E-3,-4.624134E-3,-3.8736273E-2,-4.9467973E-2,-7.568825E-3,-2.6171533E-2,3.2890288E-3,2.42598E-3,-2.0409064E-2,-3.6335792E-3,3.7609877E-3],"categories":[],"categories_nodes":[],"categories_segments":[],"categories_sizes":[],"default_left":[0,0,0,0,0,0,0,0,0,0,0,0,0,0,0,0,0,0,0,0,0,0,0,0,0,0,0,0,0,0,0,0,0,0,0,0,0,0,0,0,0,0,0,0,0,0,0,0,0,0,0,0,0,0,0,0,0,0,0,0,0,0,0],"id":5,"left_children":[1,3,5,7,9,11,13,15,17,19,21,23,25,27,29,31,33,35,37,39,41,43,45,47,49,51,53,55,57,59,61,-1,-1,-1,-1,-1,-1,-1,-1,-1,-1,-1,-1,-1,-1,-1,-1,-1,-1,-1,-1,-1,-1,-1,-1,-1,-1,-1,-1,-1,-1,-1,-1],"loss_changes":[9.809533E0,2.495943E0,2.8550415E0,9.2127514E-1,1.6926665E0,1.3975565E0,1.8206338E0,3.4494185E-1,2.2498512E-1,2.2877169E-1,1.1519254E0,4.3574008E-1,7.936547E-1,1.6397845E0,5.8482563E-1,1.932602E-1,1.8304528E-1,2.022333E-2,2.1326685E-1,4.7297843E-2,1.453917E-1,5.8854055E-1,5.888282E-1,1.1872992E-1,1.7925748E-1,5.9513116E-1,5.760768E-1,7.5807405E-1,7.496114E-1,2.0011806E0,5.711522E-1,0E0,0E0,0E0,0E0,0E0,0E0,0E0,0E0,0E0,0E0,0E0,0E0,0E0,0E0,0E0,0E0,0E0,0E0,0E0,0E0,0E0,0E0,0E0,0E0,0E0,0E0,0E0,0E0,0E0,0E0,0E0,0E0],"parents":[2147483647,0,0,1,1,2,2,3,3,4,4,5,5,6,6,7,7,8,8,9,9,10,10,11,11,12,12,13,13,14,14,15,15,16,16,17,17,18,18,19,19,20,20,21,21,22,22,23,23,24,24,25,25,26,26,27,27,28,28,29,29,30,30],"right_children":[2,4,6,8,10,12,14,16,18,20,22,24,26,28,30,32,34,36,38,40,42,44,46,48,50,52,54,56,58,60,62,-1,-1,-1,-1,-1,-1,-1,-1,-1,-1,-1,-1,-1,-1,-1,-1,-1,-1,-1,-1,-1,-1,-1,-1,-1,-1,-1,-1,-1,-1,-1,-1],"split_conditions":[7.1E-2,1.3646029E-1,1.7510945E-2,9.39E-1,1.4E-2,9.3E-1,1.6666667E-1,7.2782785E-1,3.430303E-1,3.8181818E-1,2.777778E-1,8.448449E-2,4.4444445E-1,3.17E-1,9.505941E-2,7.781818E-1,2.1E-2,4.6586588E-1,7E-1,3.6363637E-1,5E-3,9.05E-1,9.46E-1,6.74E-1,1.6666667E-1,8.63E-1,5.19E-1,4.620388E-1,1.5709819E-1,9.79E-1,2.7272728E-1,-2.8065765E-2,-5.305059E-2,-3.135638E-2,6.229945E-3,-2.1192295E-2,5.5680755E-3,-4.269189E-2,-7.114294E-2,-1.980627E-2,1.5306241E-2,-6.198823E-2,-3.9218616E-2,-6.6656815E-3,-4.367737E-2,1.6222146E-5,-1.6575761E-2,-1.4955669E-2,-6.883832E-2,-4.241743E-2,7.6768124E-3,-6.0582634E-2,5.4464545E-3,-4.624134E-3,-3.8736273E-2,-4.9467973E-2,-7.568825E-3,-2.6171533E-2,3.2890288E-3,2.42598E-3,-2.0409064E-2,-3.6335792E-3,3.7609877E-3],"split_indices":[9,8,8,7,9,7,10,6,0,0,10,6,10,9,8,0,9,6,5,0,9,7,7,5,10,9,1,8,8,7,0,0,0,0,0,0,0,0,0,0,0,0,0,0,0,0,0,0,0,0,0,0,0,0,0,0,0,0,0,0,0,0,0],"split_type":[0,0,0,0,0,0,0,0,0,0,0,0,0,0,0,0,0,0,0,0,0,0,0,0,0,0,0,0,0,0,0,0,0,0,0,0,0,0,0,0,0,0,0,0,0,0,0,0,0,0,0,0,0,0,0,0,0,0,0,0,0,0,0],"sum_hessian":[9.775E3,6.86E2,9.089E3,1.61E2,5.25E2,2.05E2,8.884E3,8.4E1,7.7E1,8.4E1,4.41E2,7.4E1,1.31E2,2.75E2,8.609E3,6.3E1,2.1E1,5E0,7.2E1,1.3E1,7.1E1,8.2E1,3.59E2,7E0,6.7E1,5.2E1,7.9E1,8.3E1,1.92E2,1.023E3,7.586E3,4.2E1,2.1E1,7E0,1.4E1,4E0,1E0,2.1E1,5.1E1,1.2E1,1E0,2.1E1,5E1,2.5E1,5.7E1,2.2E2,1.39E2,4E0,3E0,2E0,6.5E1,4.6E1,6E0,4.2E1,3.7E1,5.8E1,2.5E1,4.4E1,1.48E2,8.36E2,1.87E2,4.43E2,7.143E3],"tree_param":{"num_deleted":"0","num_feature":"12","num_nodes":"63","size_leaf_vector":"1"}},{"base_weights":[-3.5393087E-4,-1.4856552E-1,4.2249756E-3,-6.795103E-2,-1.72627E-1,-3.8744148E-2,8.61877E-3,-1.8188523E-1,-4.5557346E-2,2.6022332E-2,-1.8295954E-1,-1.08742885E-1,-6.915108E-3,-2.8283898E-2,1.173825E-2,-9.623929E-3,-2.0626429E-1,-8.344283E-2,-1.0983881E-2,5.1818393E-2,-2.5773434E-2,-2.491367E-1,-1.5906765E-1,-3.9957672E-2,-1.5034351E-1,-3.1383954E-2,9.7781075E-3,9.899648E-3,-6.0709327E-2,1.4372588E-2,-9.397692E-3,-4.7383025E-2,-1.3198184E-2,-2.360679E-2,-5.497033E-3,-3.663554E-2,1.320326E-3,-2.7244887E-3,1.3574881E-2,-2.1592526E-2,-5.2844E-2,-3.868673E-2,-2.0616911E-2,-3.0537471E-2,-5.028313E-3,-4.5934897E-2,-2.5344938E-2,-2.055357E-3,-1.2524219E-2,2.4088786E-3,-2.1310363E-2,-2.9097462E-2,3.4431175E-3,-7.779445E-3,-2.4024593E-2,-6.980926E-3,3.0808493E-3,-5.0437516E-3,2.0906508E-3],"categories":[],"categories_nodes":[],"categories_segments":[],"categories_sizes":[],"default_left":[0,0,0,0,0,0,0,0,0,0,0,0,0,0,0,0,0,0,0,0,0,0,0,0,0,0,0,0,0,0,0,0,0,0,0,0,0,0,0,0,0,0,0,0,0,0,0,0,0,0,0,0,0,0,0,0,0,0,0],"id":6,"left_children":[1,3,5,7,9,11,13,15,17,19,21,23,25,27,29,-1,31,33,35,37,-1,39,41,43,45,47,49,51,53,55,57,-1,-1,-1,-1,-1,-1,-1,-1,-1,-1,-1,-1,-1,-1,-1,-1,-1,-1,-1,-1,-1,-1,-1,-1,-1,-1,-1,-1],"loss_changes":[6.6350803E0,5.5660343E-1,1.7908894E0,1.6776082E-1,4.6658564E-1,1.9598817E0,9.9091494E-1,2.5946558E-2,7.636359E-2,5.462416E-2,2.9872513E-1,7.809069E-1,2.4783587E-1,8.313782E-1,4.419496E-1,0E0,2.3061216E-2,5.0953686E-2,9.8108985E-2,1.248252E-2,0E0,8.858943E-2,2.8788614E-1,1.7153378E-1,2.912979E-1,1.6155106E-1,9.645623E-2,3.537763E-1,4.6575236E-1,3.5924542E-1,2.766392E-1,0E0,0E0,0E0,0E0,0E0,0E0,0E0,0E0,0E0,0E0,0E0,0E0,0E0,0E0,0E0,0E0,0E0,0E0,0E0,0E0,0E0,0E0,0E0,0E0,0E0,0E0,0E0,0E0],"parents":[2147483647,0,0,1,1,2,2,3,3,4,4,5,5,6,6,7,7,8,8,9,9,10,10,11,11,12,12,13,13,14,14,16,16,17,17,18,18,19,19,21,21,22,22,23,23,24,24,25,25,26,26,27,27,28,28,29,29,30,30],"right_children":[2,4,6,8,10,12,14,16,18,20,22,24,26,28,30,-1,32,34,36,38,-1,40,42,44,46,48,50,52,54,56,58,-1,-1,-1,-1,-1,-1,-1,-1,-1,-1,-1,-1,-1,-1,-1,-1,-1,-1,-1,-1,-1,-1,-1,-1,-1,-1,-1,-1],"split_conditions":[3.1E-2,9.01E-1,2.2222222E-1,5E-3,8.36E-1,3.17E-1,1.08E-1,2.2222222E-1,5.555556E-1,6.82E-1,9E-3,9.14E-1,5.91E-1,9.31E-1,9.86E-1,-9.623929E-3,8.333333E-1,6.8060607E-1,2.76E-1,3.75E-1,-2.5773434E-2,4.939394E-1,6.666667E-1,2.8666666E-1,9.7E-2,9.48E-1,9.7939396E-1,2.5030303E-1,9.57E-1,2.260606E-1,5.71E-1,-4.7383025E-2,-1.3198184E-2,-2.360679E-2,-5.497033E-3,-3.663554E-2,1.320326E-3,-2.7244887E-3,1.3574881E-2,-2.1592526E-2,-5.2844E-2,-3.868673E-2,-2.0616911E-2,-3.0537471E-2,-5.028313E-3,-4.5934897E-2,-2.5344938E-2,-2.055357E-3,-1.2524219E-2,2.4088786E-3,-2.1310363E-2,-2.9097462E-2,3.4431175E-3,-7.779445E-3,-2.4024593E-2,-6.980926E-3,3.0808493E-3,-5.0437516E-3,2.0906508E-3],"split_indices":[9,7,10,9,4,9,9,10,10,1,9,7,9,7,7,0,10,0,2,11,0,0,10,0,9,7,0,0,4,0,9,0,0,0,0,0,0,0,0,0,0,0,0,0,0,0,0,0,0,0,0,0,0,0,0,0,0,0,0],"split_type":[0,0,0,0,0,0,0,0,0,0,0,0,0,0,0,0,0,0,0,0,0,0,0,0,0,0,0,0,0,0,0,0,0,0,0,0,0,0,0,0,0,0,0,0,0,0,0,0,0,0,0,0,0,0,0,0,0,0,0],"sum_hessian":[9.775E3,2.92E2,9.483E3,6.8E1,2.24E2,8.79E2,8.604E3,1E1,5.8E1,1.1E1,2.13E2,2.74E2,6.05E2,6.7E2,7.934E3,2E0,8E0,2.7E1,3.1E1,1E1,1E0,5.4E1,1.59E2,1.04E2,1.7E2,2.45E2,3.6E2,3.08E2,3.62E2,7.055E3,8.79E2,6E0,2E0,1.6E1,1.1E1,2E0,2.9E1,2E0,8E0,6E0,4.8E1,9.7E1,6.2E1,1.1E1,9.3E1,3.7E1,1.33E2,1.47E2,9.8E1,3.54E2,6E0,1.3E1,2.95E2,2.66E2,9.6E1,1.44E2,6.911E3,4.89E2,3.9E2],"tree_param":{"num_deleted":"0","num_feature":"12","num_nodes":"59","size_leaf_vector":"1"}},{"base_weights":[-3.3305178E-4,-1.06362246E-1,3.895972E-3,-7.242121E-2,-1.5302928E-1,-1.9695055E-2,8.472885E-3,-1.9491628E-1,-5.269872E-2,-2.0614596E-1,-1.23978026E-1,-9.0023E-3,-7.406018E-2,-5.1377723E-3,1.1051484E-2,-6.5595105E-2,-2.3142293E-1,-1.7195457E-1,-3.844249E-2,-2.1112798E-1,5.790174E-3,-5.4917247E-3,-1.3514523E-1,-1.0960939E-1,-5.1568975E-3,-3.1037793E-2,-1.1261038E-1,-2.4824709E-2,3.966828E-3,-5.2723154E-2,1.1535002E-2,-2.980177E-2,-2.591144E-3,-9.077412E-3,-4.7563214E-2,-4.165352E-2,-4.2723916E-3,-1.2353668E-2,1.3768014E-3,-3.306927E-2,-4.9219843E-2,9.435474E-3,-2.8822413E-2,-3.1457584E-2,-1.6871497E-2,-2.8128088E-2,-9.315148E-3,-1.2374149E-2,3.1792544E-4,-1.5002652E-2,-2.6990445E-3,-9.583337E-3,-3.0045146E-2,-6.28714E-4,-9.981181E-3,2.2155638E-3,-6.6416274E-4,-4.0135134E-2,-4.7941976E-3,2.787263E-3,-3.5296762E-4],"categories":[],"categories_nodes":[],"categories_segments":[],"categories_sizes":[],"default_left":[0,0,0,0,0,0,0,0,0,0,0,0,0,0,0,0,0,0,0,0,0,0,0,0,0,0,0,0,0,0,0,0,0,0,0,0,0,0,0,0,0,0,0,0,0,0,0,0,0,0,0,0,0,0,0,0,0,0,0,0,0],"id":7,"left_children":[1,3,5,7,9,11,13,15,17,19,21,23,25,27,29,31,33,35,37,39,-1,41,43,45,47,49,51,53,55,57,59,-1,-1,-1,-1,-1,-1,-1,-1,-1,-1,-1,-1,-1,-1,-1,-1,-1,-1,-1,-1,-1,-1,-1,-1,-1,-1,-1,-1,-1,-1],"loss_changes":[4.3839726E0,5.8289003E-1,1.0153393E0,5.1881194E-1,2.1671009E-1,8.875795E-1,2.764411E-1,1.2645233E-1,3.1641608E-1,6.9360256E-2,1.3686657E-1,4.9386063E-1,4.1279364E-1,2.2504677E-1,2.0477456E-1,3.3196263E-2,1.656127E-2,1.0492045E-1,1.812199E-1,4.4163704E-2,0E0,7.98089E-2,9.35663E-2,8.538163E-2,4.7148788E-1,9.1560796E-2,3.140205E-1,2.1572725E-1,4.455219E-2,2.0788738E-1,2.0991492E-1,0E0,0E0,0E0,0E0,0E0,0E0,0E0,0E0,0E0,0E0,0E0,0E0,0E0,0E0,0E0,0E0,0E0,0E0,0E0,0E0,0E0,0E0,0E0,0E0,0E0,0E0,0E0,0E0,0E0,0E0],"parents":[2147483647,0,0,1,1,2,2,3,3,4,4,5,5,6,6,7,7,8,8,9,9,10,10,11,11,12,12,13,13,14,14,15,15,16,16,17,17,18,18,19,19,21,21,22,22,23,23,24,24,25,25,26,26,27,27,28,28,29,29,30,30],"right_children":[2,4,6,8,10,12,14,16,18,20,22,24,26,28,30,32,34,36,38,40,-1,42,44,46,48,50,52,54,56,58,60,-1,-1,-1,-1,-1,-1,-1,-1,-1,-1,-1,-1,-1,-1,-1,-1,-1,-1,-1,-1,-1,-1,-1,-1,-1,-1,-1,-1,-1,-1],"split_conditions":[3.9E-2,9.44E-1,1.97E-1,5E-3,1.7E-2,9.78E-1,1.5865865E-1,6.28E-1,1.5075076E-1,9.4545454E-1,8.48E-1,2.5878787E-1,4.75E-1,4.34E-1,2.1030302E-1,1.35E-1,2.3212121E-1,9.7939396E-1,7.3953956E-1,9.68E-1,5.790174E-3,7.41E-1,6.664665E-1,7.56E-1,1.15615614E-1,2.23E-1,7.35E-1,9.4E-1,5.16E-1,8.14E-1,9.8E-1,-2.980177E-2,-2.591144E-3,-9.077412E-3,-4.7563214E-2,-4.165352E-2,-4.2723916E-3,-1.2353668E-2,1.3768014E-3,-3.306927E-2,-4.9219843E-2,9.435474E-3,-2.8822413E-2,-3.1457584E-2,-1.6871497E-2,-2.8128088E-2,-9.315148E-3,-1.2374149E-2,3.1792544E-4,-1.5002652E-2,-2.6990445E-3,-9.583337E-3,-3.0045146E-2,-6.28714E-4,-9.981181E-3,2.2155638E-3,-6.6416274E-4,-4.0135134E-2,-4.7941976E-3,2.787263E-3,-3.5296762E-4],"split_indices":[9,7,9,9,9,7,6,5,6,0,4,0,1,9,0,3,0,0,6,7,0,3,6,1,6,3,5,7,1,4,7,0,0,0,0,0,0,0,0,0,0,0,0,0,0,0,0,0,0,0,0,0,0,0,0,0,0,0,0,0,0],"split_type":[0,0,0,0,0,0,0,0,0,0,0,0,0,0,0,0,0,0,0,0,0,0,0,0,0,0,0,0,0,0,0,0,0,0,0,0,0,0,0,0,0,0,0,0,0,0,0,0,0,0,0,0,0,0,0,0,0,0,0,0,0],"sum_hessian":[9.775E3,3.74E2,9.401E3,2.18E2,1.56E2,1.527E3,7.874E3,2.9E1,1.89E2,5.3E1,1.03E2,1.277E3,2.5E2,1.254E3,6.62E3,7E0,2.2E1,1.9E1,1.7E2,5.2E1,1E0,9E0,9.4E1,4.6E1,1.231E3,1.19E2,1.31E2,3.96E2,8.58E2,4.9E1,6.571E3,2E0,5E0,1E0,2.1E1,1.5E1,4E0,1.12E2,5.8E1,2.5E1,2.7E1,7E0,2E0,6.4E1,3E1,3E1,1.6E1,1.3E2,1.101E3,3.3E1,8.6E1,4.9E1,8.2E1,2.13E2,1.83E2,4.34E2,4.24E2,7E0,4.2E1,5.566E3,1.005E3],"tree_param":{"num_deleted":"0","num_feature":"12","num_nodes":"61","size_leaf_vector":"1"}},{"base_weights":[-3.1233873E-4,-7.422387E-2,3.005301E-3,-2.7413433E-4,-1.2255214E-1,-1.3527187E-2,9.556672E-3,-5.6266714E-2,6.582645E-3,-5.8795314E-2,-1.7831708E-1,-7.641652E-2,-3.7913627E-3,-1.33089E-2,1.0630239E-2,2.510645E-2,-4.4507425E-2,-1.677293E-1,-1.8967414E-2,-2.649919E-1,-1.0107284E-1,-4.5230314E-2,-1.5053566E-1,-5.7876933E-2,-1.3334388E-3,-6.4448126E-2,9.158327E-3,6.2910174E-3,1.3274523E-2,7.1060765E-3,-1.4507689E-2,-1.7971242E-2,5.197678E-3,-4.5734774E-2,-6.1184145E-3,-2.572817E-2,3.7929544E-3,-6.016568E-2,-3.0065356E-2,-1.360696E-2,-6.0481813E-2,-1.8010508E-2,-3.5987948E-3,-5.583146E-2,-2.1795832E-2,-1.8224431E-2,-3.0437903E-3,-3.8682034E-3,1.0753515E-3,-2.3714228E-2,-6.721267E-3,2.79105E-3,-3.8061306E-2,-6.5275875E-4,2.2615388E-3,6.8510734E-3,2.5471256E-3],"categories":[],"categories_nodes":[],"categories_segments":[],"categories_sizes":[],"default_left":[0,0,0,0,0,0,0,0,0,0,0,0,0,0,0,0,0,0,0,0,0,0,0,0,0,0,0,0,0,0,0,0,0,0,0,0,0,0,0,0,0,0,0,0,0,0,0,0,0,0,0,0,0,0,0,0,0],"id":8,"left_children":[1,3,5,7,9,11,13,-1,15,17,19,21,23,25,27,29,31,33,35,37,39,41,43,45,47,49,51,53,55,-1,-1,-1,-1,-1,-1,-1,-1,-1,-1,-1,-1,-1,-1,-1,-1,-1,-1,-1,-1,-1,-1,-1,-1,-1,-1,-1,-1],"loss_changes":[2.397414E0,1.500989E0,1.0135901E0,3.2368806E-1,8.925867E-1,1.6259247E0,1.6466045E-1,0E0,1.5632415E-1,5.1745206E-1,8.7705946E-1,8.1608367E-1,3.0581364E-1,3.464262E-1,7.3373854E-2,1.2573639E-1,1.4299881E-1,2.60453E-1,3.7269327E-1,2.1365643E-1,4.650038E-1,3.0601948E-1,5.308094E-1,1.4043063E-1,2.6618132E-1,1.4958626E-1,2.0358743E-1,1.16323315E-1,4.4529736E-2,0E0,0E0,0E0,0E0,0E0,0E0,0E0,0E0,0E0,0E0,0E0,0E0,0E0,0E0,0E0,0E0,0E0,0E0,0E0,0E0,0E0,0E0,0E0,0E0,0E0,0E0,0E0,0E0],"parents":[2147483647,0,0,1,1,2,2,3,3,4,4,5,5,6,6,8,8,9,9,10,10,11,11,12,12,13,13,14,14,15,15,16,16,17,17,18,18,19,19,20,20,21,21,22,22,23,23,24,24,25,25,26,26,27,27,28,28],"right_children":[2,4,6,8,10,12,14,-1,16,18,20,22,24,26,28,30,32,34,36,38,40,42,44,46,48,50,52,54,56,-1,-1,-1,-1,-1,-1,-1,-1,-1,-1,-1,-1,-1,-1,-1,-1,-1,-1,-1,-1,-1,-1,-1,-1,-1,-1,-1,-1],"split_conditions":[2.9393371E-2,9.31E-1,3.888889E-1,1.6616616E-2,6.8242425E-1,1.0994372E-1,2.6363635E-1,-5.6266714E-2,9.18E-1,3.3333334E-1,4.957958E-1,9.66E-1,2.5030303E-1,4.88E-1,4.06E-1,9.66E-1,5.7217216E-1,5.797798E-1,1.6286287E-1,7.777778E-1,9.96E-1,3.48E-1,3.5545546E-1,7.89E-1,2.641651E-1,8.6E-1,9.858662E-1,2.470294E-1,4.4777986E-2,7.1060765E-3,-1.4507689E-2,-1.7971242E-2,5.197678E-3,-4.5734774E-2,-6.1184145E-3,-2.572817E-2,3.7929544E-3,-6.016568E-2,-3.0065356E-2,-1.360696E-2,-6.0481813E-2,-1.8010508E-2,-3.5987948E-3,-5.583146E-2,-2.1795832E-2,-1.8224431E-2,-3.0437903E-3,-3.8682034E-3,1.0753515E-3,-2.3714228E-2,-6.721267E-3,2.79105E-3,-3.8061306E-2,-6.5275875E-4,2.2615388E-3,6.8510734E-3,2.5471256E-3],"split_indices":[8,7,10,6,0,8,0,0,7,10,6,7,0,2,2,5,6,6,6,10,7,3,6,5,8,4,8,8,8,0,0,0,0,0,0,0,0,0,0,0,0,0,0,0,0,0,0,0,0,0,0,0,0,0,0,0,0],"split_type":[0,0,0,0,0,0,0,0,0,0,0,0,0,0,0,0,0,0,0,0,0,0,0,0,0,0,0,0,0,0,0,0,0,0,0,0,0,0,0,0,0,0,0,0,0,0,0,0,0,0,0,0,0,0,0,0,0],"sum_hessian":[9.775E3,4.19E2,9.356E3,1.66E2,2.53E2,2.655E3,6.701E3,3E0,1.63E2,1.19E2,1.34E2,3.55E2,2.3E3,3E2,6.401E3,1.2E2,4.3E1,3.1E1,8.8E1,6.2E1,7.2E1,2.51E2,1.04E2,9.9E1,2.201E3,9.1E1,2.09E2,2.425E3,3.976E3,1.09E2,1.1E1,2.6E1,1.7E1,2.1E1,1E1,2.2E1,6.6E1,4.6E1,1.6E1,6.3E1,9E0,9.4E1,1.57E2,2.4E1,8E1,5.5E1,4.4E1,5.97E2,1.604E3,3.2E1,5.9E1,2.05E2,4E0,8.35E2,1.59E3,9.8E1,3.878E3],"tree_param":{"num_deleted":"0","num_feature":"12","num_nodes":"57","size_leaf_vector":"1"}},{"base_weights":[-3.002561E-4,-6.3121244E-2,4.447634E-3,-1.1695078E-1,-2.6688393E-2,-7.073517E-2,6.1902576E-3,-5.4080743E-2,-1.4002588E-1,-1.0720995E-1,-8.395753E-3,-4.8741415E-2,-2.621687E-1,-4.451018E-2,7.814779E-3,-1.5865932E-1,-1.8889816E-2,-1.8678732E-1,-1.0229086E-1,-1.6963848E-1,-4.678332E-2,-8.287021E-2,1.1514329E-2,-1.2348962E-1,7.6006176E-3,-2.7686974E-1,3.1852187E-3,-1.4656185E-1,-1.608801E-2,-7.5387475E-3,9.21257E-3,-3.4414947E-3,-3.9046533E-2,-1.181353E-2,1.0942488E-2,-3.86067E-2,1.132288E-2,-3.2339115E-2,-8.8345995E-3,-7.282175E-3,-3.9902247E-2,-1.5485262E-3,-2.5454447E-2,-3.167316E-2,-1.0848432E-2,-1.8353174E-2,4.2405133E-3,-3.3686787E-3,-4.1212477E-2,-2.4098027E-2,5.958931E-3,-5.711728E-2,-1.1125344E-2,-3.802625E-2,-6.867416E-3,-2.0533867E-2,1.8221292E-3,4.948595E-3,-8.482215E-3,-1.0251325E-3,2.1477952E-3],"categories":[],"categories_nodes":[],"categories_segments":[],"categories_sizes":[],"default_left":[0,0,0,0,0,0,0,0,0,0,0,0,0,0,0,0,0,0,0,0,0,0,0,0,0,0,0,0,0,0,0,0,0,0,0,0,0,0,0,0,0,0,0,0,0,0,0,0,0,0,0,0,0,0,0,0,0,0,0,0,0],"id":9,"left_children":[1,3,5,7,9,11,13,15,17,19,21,23,25,27,29,31,33,35,37,39,41,43,45,47,49,51,-1,53,55,57,59,-1,-1,-1,-1,-1,-1,-1,-1,-1,-1,-1,-1,-1,-1,-1,-1,-1,-1,-1,-1,-1,-1,-1,-1,-1,-1,-1,-1,-1,-1],"loss_changes":[2.9161403E0,1.3441978E0,1.1913673E0,3.942802E-1,6.044832E-1,8.5455203E-1,7.321516E-1,2.7669948E-1,3.373313E-1,2.7876198E-1,4.991724E-1,7.842712E-1,9.026337E-2,7.981882E-1,1.8484896E-1,9.493446E-2,1.7474812E-1,1.4623785E-1,3.8643956E-1,1.3999104E-1,1.247083E-1,1.4486161E-1,2.681061E-1,7.010151E-1,3.0777502E-1,2.268362E-2,0E0,2.8684533E-1,4.743714E-1,8.1045556E-1,1.7277884E-1,0E0,0E0,0E0,0E0,0E0,0E0,0E0,0E0,0E0,0E0,0E0,0E0,0E0,0E0,0E0,0E0,0E0,0E0,0E0,0E0,0E0,0E0,0E0,0E0,0E0,0E0,0E0,0E0,0E0,0E0],"parents":[2147483647,0,0,1,1,2,2,3,3,4,4,5,5,6,6,7,7,8,8,9,9,10,10,11,11,12,12,13,13,14,14,15,15,16,16,17,17,18,18,19,19,20,20,21,21,22,22,23,23,24,24,25,25,27,27,28,28,29,29,30,30],"right_children":[2,4,6,8,10,12,14,16,18,20,22,24,26,28,30,32,34,36,38,40,42,44,46,48,50,52,-1,54,56,58,60,-1,-1,-1,-1,-1,-1,-1,-1,-1,-1,-1,-1,-1,-1,-1,-1,-1,-1,-1,-1,-1,-1,-1,-1,-1,-1,-1,-1,-1,-1],"split_conditions":[7.1E-2,2.4427767E-1,1.7510945E-2,9.12E-1,2.777778E-1,9.93E-1,1.6666667E-1,1.4E-2,1.0306442E-1,4.5403376E-1,1.7E-2,3.5545546E-1,9.72E-1,2.29E-1,7.1419634E-2,5.2060604E-1,7E-1,9.7939396E-1,4.4754755E-1,7.07E-1,7.760761E-1,5E-3,3.242424E-1,4.38E-1,2.05E-1,9.6966964E-1,3.1852187E-3,4.620388E-1,1.5709819E-1,9.42E-1,3.181818E-1,-3.4414947E-3,-3.9046533E-2,-1.181353E-2,1.0942488E-2,-3.86067E-2,1.132288E-2,-3.2339115E-2,-8.8345995E-3,-7.282175E-3,-3.9902247E-2,-1.5485262E-3,-2.5454447E-2,-3.167316E-2,-1.0848432E-2,-1.8353174E-2,4.2405133E-3,-3.3686787E-3,-4.1212477E-2,-2.4098027E-2,5.958931E-3,-5.711728E-2,-1.1125344E-2,-3.802625E-2,-6.867416E-3,-2.0533867E-2,1.8221292E-3,4.948595E-3,-8.482215E-3,-1.0251325E-3,2.1477952E-3],"split_indices":[9,8,8,7,10,7,10,9,8,8,9,6,3,9,8,0,0,0,6,5,6,9,0,1,9,6,0,8,8,7,0,0,0,0,0,0,0,0,0,0,0,0,0,0,0,0,0,0,0,0,0,0,0,0,0,0,0,0,0,0,0],"split_type":[0,0,0,0,0,0,0,0,0,0,0,0,0,0,0,0,0,0,0,0,0,0,0,0,0,0,0,0,0,0,0,0,0,0,0,0,0,0,0,0,0,0,0,0,0,0,0,0,0,0,0,0,0,0,0,0,0,0,0,0,0],"sum_hessian":[9.775E3,6.86E2,9.089E3,2.76E2,4.1E2,2.05E2,8.884E3,7.5E1,2.01E2,7.5E1,3.35E2,1.85E2,2E1,2.75E2,8.609E3,1.8E1,5.7E1,8.8E1,1.13E2,3.6E1,3.9E1,7E1,2.65E2,7.9E1,1.06E2,1.9E1,1E0,5.9E1,2.16E2,7.18E2,7.891E3,4E0,1.4E1,3.7E1,2E1,8.6E1,2E0,5.5E1,5.8E1,7E0,2.9E1,2.7E1,1.2E1,1.8E1,5.2E1,2.2E1,2.43E2,3.5E1,4.4E1,1.5E1,9.1E1,1.8E1,1E0,4.2E1,1.7E1,4.8E1,1.68E2,3.73E2,3.45E2,7.59E2,7.132E3],"tree_param":{"num_deleted":"0","num_feature":"12","num_nodes":"61","size_leaf_vector":"1"}},{"base_weights":[-2.8484676E-4,-8.171739E-2,2.2309714E-3,-1.07775256E-1,-3.111456E-2,-6.983851E-2,3.6248753E-3,-7.437314E-2,-1.428918E-1,-1.0644428E-2,-9.291798E-2,-1.0808281E-2,-1.1802679E-1,-4.0269807E-2,5.011236E-3,-1.1135112E-1,-3.1223482E-2,-1.5507273E-1,2.8913012E-2,-8.960125E-2,5.310696E-3,-1.0980385E-1,-3.4137429E-3,-1.9299397E-1,3.5283735E-3,-1.8707134E-1,-6.599408E-2,-8.928871E-2,9.030709E-3,-2.2914659E-3,9.693246E-3,-1.579809E-2,-3.33611E-2,4.089892E-4,-1.4126733E-2,-3.7425414E-2,-2.216462E-2,2.29316E-2,-2.4726594E-2,-2.6726458E-2,-3.1919319E-3,-2.6673872E-2,2.8344279E-3,-3.7418653E-3,-2.6027462E-2,-9.679733E-3,8.541819E-3,-5.1318556E-3,-4.426581E-2,5.191284E-3,-1.6720166E-2,-1.3215564E-2,-4.665323E-2,-5.0268807E-2,-7.1251146E-3,-3.0573104E-2,-8.0259135E-3,-3.2003686E-2,4.86608E-3,-7.999186E-3,1.3931299E-3,3.0335533E-3,1.3855728E-3],"categories":[],"categories_nodes":[],"categories_segments":[],"categories_sizes":[],"default_left":[0,0,0,0,0,0,0,0,0,0,0,0,0,0,0,0,0,0,0,0,0,0,0,0,0,0,0,0,0,0,0,0,0,0,0,0,0,0,0,0,0,0,0,0,0,0,0,0,0,0,0,0,0,0,0,0,0,0,0,0,0,0,0],"id":10,"left_children":[1,3,5,7,9,11,13,15,17,19,21,23,25,27,29,31,33,35,37,39,41,43,45,47,49,51,53,55,57,59,61,-1,-1,-1,-1,-1,-1,-1,-1,-1,-1,-1,-1,-1,-1,-1,-1,-1,-1,-1,-1,-1,-1,-1,-1,-1,-1,-1,-1,-1,-1,-1,-1],"loss_changes":[2.0029862E0,3.8299692E-1,9.529962E-1,2.1575522E-1,1.2678847E-1,5.107462E-1,5.664469E-1,1.5767753E-1,1.9910872E-1,9.747782E-2,3.7409067E-2,2.1485949E-1,3.433193E-1,6.8955374E-1,3.084622E-1,8.372921E-2,6.307796E-2,1.02662325E-1,1.05735876E-1,4.0019967E-2,8.176898E-2,3.6462843E-2,1.2441224E-2,2.276951E-2,1.526386E-1,2.193358E-1,3.1751618E-1,4.4079494E-1,3.737484E-1,1.2306255E0,8.311474E-2,0E0,0E0,0E0,0E0,0E0,0E0,0E0,0E0,0E0,0E0,0E0,0E0,0E0,0E0,0E0,0E0,0E0,0E0,0E0,0E0,0E0,0E0,0E0,0E0,0E0,0E0,0E0,0E0,0E0,0E0,0E0,0E0],"parents":[2147483647,0,0,1,1,2,2,3,3,4,4,5,5,6,6,7,7,8,8,9,9,10,10,11,11,12,12,13,13,14,14,15,15,16,16,17,17,18,18,19,19,20,20,21,21,22,22,23,23,24,24,25,25,26,26,27,27,28,28,29,29,30,30],"right_children":[2,4,6,8,10,12,14,16,18,20,22,24,26,28,30,32,34,36,38,40,42,44,46,48,50,52,54,56,58,60,62,-1,-1,-1,-1,-1,-1,-1,-1,-1,-1,-1,-1,-1,-1,-1,-1,-1,-1,-1,-1,-1,-1,-1,-1,-1,-1,-1,-1,-1,-1,-1,-1],"split_conditions":[3.1E-2,4.459037E-1,1.438399E-2,6.921212E-1,9.52E-1,9.41E-1,1.6666667E-1,6.111111E-1,9.46E-1,2.2222222E-1,8.888889E-1,1.6666667E-1,4.4444445E-1,5.03E-1,4.03E-1,9.36E-1,7.64E-1,2.1E-2,7.5E-1,6.38E-1,2.5454545E-1,2.47E-1,5.406061E-1,5.1878786E-1,9.49E-1,9.57E-1,1.71E-1,2.7842402E-1,6.8292685E-2,1.4108817E-1,2.3452158E-1,-1.579809E-2,-3.33611E-2,4.089892E-4,-1.4126733E-2,-3.7425414E-2,-2.216462E-2,2.29316E-2,-2.4726594E-2,-2.6726458E-2,-3.1919319E-3,-2.6673872E-2,2.8344279E-3,-3.7418653E-3,-2.6027462E-2,-9.679733E-3,8.541819E-3,-5.1318556E-3,-4.426581E-2,5.191284E-3,-1.6720166E-2,-1.3215564E-2,-4.665323E-2,-5.0268807E-2,-7.1251146E-3,-3.0573104E-2,-8.0259135E-3,-3.2003686E-2,4.86608E-3,-7.999186E-3,1.3931299E-3,3.0335533E-3,1.3855728E-3],"split_indices":[9,8,8,0,7,7,10,10,3,10,10,10,10,9,9,4,5,9,11,3,0,3,0,0,5,7,9,8,8,8,8,0,0,0,0,0,0,0,0,0,0,0,0,0,0,0,0,0,0,0,0,0,0,0,0,0,0,0,0,0,0,0,0],"split_type":[0,0,0,0,0,0,0,0,0,0,0,0,0,0,0,0,0,0,0,0,0,0,0,0,0,0,0,0,0,0,0,0,0,0,0,0,0,0,0,0,0,0,0,0,0,0,0,0,0,0,0,0,0,0,0,0,0,0,0,0,0,0,0],"sum_hessian":[9.775E3,2.92E2,9.483E3,1.92E2,1E2,1.79E2,9.304E3,1E2,9.2E1,7.6E1,2.4E1,8.1E1,9.8E1,2.84E2,9.02E3,5.3E1,4.7E1,8.6E1,6E0,1.2E1,6.4E1,2E1,4E0,5E0,7.6E1,4.1E1,5.7E1,1.42E2,1.42E2,3.524E3,5.496E3,3.5E1,1.8E1,2.6E1,2.1E1,4.8E1,3.8E1,4E0,2E0,7E0,5E0,3E0,6.1E1,4E0,1.6E1,2E0,2E0,1E0,4E0,6.1E1,1.5E1,1.2E1,2.9E1,7E0,5E1,6.1E1,8.1E1,1.1E1,1.31E2,6.94E2,2.83E3,1.843E3,3.653E3],"tree_param":{"num_deleted":"0","num_feature":"12","num_nodes":"63","size_leaf_vector":"1"}},{"base_weights":[-2.7443032E-4,-4.3470744E-2,2.990272E-3,-8.194492E-2,-1.6960353E-2,-4.2777173E-2,4.2362567E-3,-4.9782507E-2,-1.1661604E-1,-4.94355E-2,4.84734E-3,-2.6933096E-2,-1.9927356E-1,-1.2257752E-4,9.206517E-3,-9.240689E-2,-3.0676877E-2,-1.6248156E-1,-8.362579E-2,-3.460576E-2,-1.2022975E-1,-3.4345515E-2,1.8313475E-2,-1.8814896E-1,-1.9961983E-2,-5.2991193E-2,-1.3341987E-1,-2.4751179E-2,3.869968E-3,1.5462103E-2,6.534089E-3,-6.4414586E-3,-2.4901975E-2,-8.243173E-3,1.6795315E-2,-1.9956514E-2,-3.712914E-2,-2.5408907E-2,-5.9465114E-3,-1.3278986E-2,-1.9417774E-3,-3.0403642E-2,4.3328623E-3,-1.9083058E-2,-1.5594534E-3,-9.369806E-3,5.4099313E-3,-4.7046598E-2,-3.113985E-3,-2.0828923E-2,-1.8333013E-3,-3.8726123E-3,-3.3140123E-2,-6.2708644E-4,-2.1538889E-2,-8.440409E-3,1.11263E-3,5.115693E-3,2.246238E-3,-1.0266925E-3,1.5101928E-3],"categories":[],"categories_nodes":[],"categories_segments":[],"categories_sizes":[],"default_left":[0,0,0,0,0,0,0,0,0,0,0,0,0,0,0,0,0,0,0,0,0,0,0,0,0,0,0,0,0,0,0,0,0,0,0,0,0,0,0,0,0,0,0,0,0,0,0,0,0,0,0,0,0,0,0,0,0,0,0,0,0],"id":11,"left_children":[1,3,5,7,9,11,13,15,17,19,21,23,25,27,29,31,33,35,37,39,41,43,45,47,49,-1,51,53,55,57,59,-1,-1,-1,-1,-1,-1,-1,-1,-1,-1,-1,-1,-1,-1,-1,-1,-1,-1,-1,-1,-1,-1,-1,-1,-1,-1,-1,-1,-1,-1],"loss_changes":[1.3787718E0,6.993265E-1,5.1854336E-1,3.064245E-1,2.8918853E-1,5.922023E-1,1.917323E-1,1.1687705E-1,1.8916988E-1,1.6801646E-1,1.2993418E-1,2.4349204E-1,5.980909E-2,4.6382388E-1,6.902626E-2,8.2956254E-2,1.2791932E-1,6.135595E-2,1.8342072E-1,1.0778414E-1,1.2959003E-1,1.0139765E-1,1.0544394E-1,6.9468886E-2,1.917092E-1,0E0,4.4655427E-2,1.1793778E0,3.168704E-1,5.265811E-2,3.4433767E-2,0E0,0E0,0E0,0E0,0E0,0E0,0E0,0E0,0E0,0E0,0E0,0E0,0E0,0E0,0E0,0E0,0E0,0E0,0E0,0E0,0E0,0E0,0E0,0E0,0E0,0E0,0E0,0E0,0E0,0E0],"parents":[2147483647,0,0,1,1,2,2,3,3,4,4,5,5,6,6,7,7,8,8,9,9,10,10,11,11,12,12,13,13,14,14,15,15,16,16,17,17,18,18,19,19,20,20,21,21,22,22,23,23,24,24,26,26,27,27,28,28,29,29,30,30],"right_children":[2,4,6,8,10,12,14,16,18,20,22,24,26,28,30,32,34,36,38,40,42,44,46,48,50,-1,52,54,56,58,60,-1,-1,-1,-1,-1,-1,-1,-1,-1,-1,-1,-1,-1,-1,-1,-1,-1,-1,-1,-1,-1,-1,-1,-1,-1,-1,-1,-1,-1,-1],"split_conditions":[7.1E-2,2.470294E-1,1.9762352E-2,9.41E-1,2.8E-2,9.93E-1,5.59E-1,2.1E-2,1.0581613E-1,8.8242424E-1,3.59E-1,1.08E-1,3.86E-1,1.0781739E-1,2.137586E-1,5.90303E-1,9.278788E-1,6.97E-1,4.45E-1,1.4E-2,5.4584116E-1,3.9124453E-1,3.5939395E-1,6.76E-1,3.15E-1,-5.2991193E-2,5.63E-1,9.79E-1,2.5030303E-1,7.02E-1,5.81E-1,-6.4414586E-3,-2.4901975E-2,-8.243173E-3,1.6795315E-2,-1.9956514E-2,-3.712914E-2,-2.5408907E-2,-5.9465114E-3,-1.3278986E-2,-1.9417774E-3,-3.0403642E-2,4.3328623E-3,-1.9083058E-2,-1.5594534E-3,-9.369806E-3,5.4099313E-3,-4.7046598E-2,-3.113985E-3,-2.0828923E-2,-1.8333013E-3,-3.8726123E-3,-3.3140123E-2,-6.2708644E-4,-2.1538889E-2,-8.440409E-3,1.11263E-3,5.115693E-3,2.246238E-3,-1.0266925E-3,1.5101928E-3],"split_indices":[9,8,8,7,9,7,9,9,8,0,2,9,3,8,8,0,0,5,2,9,8,8,0,3,2,0,3,7,0,5,5,0,0,0,0,0,0,0,0,0,0,0,0,0,0,0,0,0,0,0,0,0,0,0,0,0,0,0,0,0,0],"split_type":[0,0,0,0,0,0,0,0,0,0,0,0,0,0,0,0,0,0,0,0,0,0,0,0,0,0,0,0,0,0,0,0,0,0,0,0,0,0,0,0,0,0,0,0,0,0,0,0,0,0,0,0,0,0,0,0,0,0,0,0,0],"sum_hessian":[9.775E3,6.86E2,9.089E3,2.79E2,4.07E2,2.4E2,8.849E3,1.46E2,1.33E2,1.63E2,2.44E2,2.19E2,2.1E1,4.715E3,4.134E3,4.4E1,1.02E2,5.4E1,7.9E1,1.36E2,2.7E1,6.2E1,1.82E2,8E0,2.11E2,9E0,1.2E1,6.57E2,4.058E3,1.236E3,2.898E3,1.6E1,2.8E1,9.4E1,8E0,1.6E1,3.8E1,4.3E1,3.6E1,5.9E1,7.7E1,2.2E1,5E0,1.8E1,4.4E1,2.1E1,1.61E2,6E0,2E0,2.3E1,1.88E2,3E0,9E0,5.22E2,1.35E2,1.43E2,3.915E3,3.63E2,8.73E2,2.32E2,2.666E3],"tree_param":{"num_deleted":"0","num_feature":"12","num_nodes":"61","size_leaf_vector":"1"}},{"base_weights":[-2.565401E-4,-5.2513048E-2,7.846919E-4,-1.2793304E-1,-2.4124818E-2,-6.7654704E-3,3.535173E-3,-7.125985E-2,-2.0820013E-1,2.876595E-2,-4.48328E-2,-2.4871763E-2,9.029538E-3,-1.1905252E-2,5.039122E-3,-4.8171535E-2,-3.842953E-2,-9.794729E-2,-4.915429E-2,-5.8273833E-2,4.5839846E-2,-1.9873235E-2,-9.343331E-2,-4.9978737E-3,-4.4837456E-2,1.6972968E-2,-1.1819584E-2,-6.892506E-2,-4.4598063E-3,-2.1407902E-2,5.3347806E-3,7.83332E-3,-1.6742883E-2,-3.161029E-2,-2.6712597E-3,5.2959262E-3,-2.5691768E-2,1.3527486E-2,4.0127193E-3,-1.3996216E-2,-3.5968862E-4,-3.8779583E-3,-2.5600482E-2,1.2479393E-3,-3.5992146E-3,-3.8865746E-3,-1.3851126E-2,7.90996E-3,2.7575025E-3,1.9302939E-3,-8.355415E-3,-3.363348E-2,-1.0415653E-2,-8.033617E-3,1.6896491E-3,-4.8336156E-2,-1.6271707E-3,4.9310445E-4,1.5686544E-3],"categories":[],"categories_nodes":[],"categories_segments":[],"categories_sizes":[],"default_left":[0,0,0,0,0,0,0,0,0,0,0,0,0,0,0,0,0,0,0,0,0,0,0,0,0,0,0,0,0,0,0,0,0,0,0,0,0,0,0,0,0,0,0,0,0,0,0,0,0,0,0,0,0,0,0,0,0,0,0],"id":12,"left_children":[1,3,5,7,9,11,13,15,17,19,21,23,25,27,29,-1,31,33,-1,35,37,39,41,43,45,47,49,51,53,55,57,-1,-1,-1,-1,-1,-1,-1,-1,-1,-1,-1,-1,-1,-1,-1,-1,-1,-1,-1,-1,-1,-1,-1,-1,-1,-1,-1,-1],"loss_changes":[5.319646E-1,4.0585226E-1,1.9909233E-1,2.2171122E-1,1.5462619E-1,7.3235655E-1,1.6323826E-1,1.6891842E-1,6.291658E-2,6.2115602E-2,1.20661005E-1,4.7315347E-1,2.2675997E-1,2.6460424E-1,5.01889E-2,0E0,1.0166888E-1,3.3478916E-2,0E0,4.50405E-2,1.7746188E-2,6.1460987E-2,8.454502E-2,8.760713E-2,3.6775267E-1,7.0724934E-2,2.4353996E-1,1.1162007E-1,2.552305E-1,2.0560026E-1,4.5569688E-2,0E0,0E0,0E0,0E0,0E0,0E0,0E0,0E0,0E0,0E0,0E0,0E0,0E0,0E0,0E0,0E0,0E0,0E0,0E0,0E0,0E0,0E0,0E0,0E0,0E0,0E0,0E0,0E0],"parents":[2147483647,0,0,1,1,2,2,3,3,4,4,5,5,6,6,7,7,8,8,9,9,10,10,11,11,12,12,13,13,14,14,16,16,17,17,19,19,20,20,21,21,22,22,23,23,24,24,25,25,26,26,27,27,28,28,29,29,30,30],"right_children":[2,4,6,8,10,12,14,16,18,20,22,24,26,28,30,-1,32,34,-1,36,38,40,42,44,46,48,50,52,54,56,58,-1,-1,-1,-1,-1,-1,-1,-1,-1,-1,-1,-1,-1,-1,-1,-1,-1,-1,-1,-1,-1,-1,-1,-1,-1,-1,-1,-1],"split_conditions":[1.438399E-2,2.3563564E-1,1.8711695E-1,6.37E-1,2.93E-1,4.7407407E-1,3.018182E-1,1.6616616E-2,5.3333336E-1,1.95E-1,8.4424245E-1,7.87E-1,7.43E-1,3.66E-1,5.14E-1,-4.8171535E-2,2.22E-1,7.26E-1,-4.915429E-2,8.77E-1,7.94E-1,4.3503505E-1,3.61E-1,5.3E-1,4.95E-1,8.59E-1,7.660606E-1,2.2060606E-1,6.44E-1,3.4E-2,4E-1,7.83332E-3,-1.6742883E-2,-3.161029E-2,-2.6712597E-3,5.2959262E-3,-2.5691768E-2,1.3527486E-2,4.0127193E-3,-1.3996216E-2,-3.5968862E-4,-3.8779583E-3,-2.5600482E-2,1.2479393E-3,-3.5992146E-3,-3.8865746E-3,-1.3851126E-2,7.90996E-3,2.7575025E-3,1.9302939E-3,-8.355415E-3,-3.363348E-2,-1.0415653E-2,-8.033617E-3,1.6896491E-3,-4.8336156E-2,-1.6271707E-3,4.9310445E-4,1.5686544E-3],"split_indices":[8,6,8,1,1,6,0,6,0,3,0,5,1,2,5,0,1,1,0,4,5,6,3,1,1,4,0,0,5,1,8,0,0,0,0,0,0,0,0,0,0,0,0,0,0,0,0,0,0,0,0,0,0,0,0,0,0,0,0],"split_type":[0,0,0,0,0,0,0,0,0,0,0,0,0,0,0,0,0,0,0,0,0,0,0,0,0,0,0,0,0,0,0,0,0,0,0,0,0,0,0,0,0,0,0,0,0,0,0,0,0,0,0,0,0,0,0,0,0,0,0],"sum_hessian":[9.775E3,1.9E2,9.585E3,5.1E1,1.39E2,2.559E3,7.026E3,3.1E1,2E1,3.9E1,1E2,1.192E3,1.367E3,6.23E2,6.403E3,4E0,2.7E1,6E0,1.4E1,6E0,3.3E1,6.7E1,3.3E1,5.98E2,5.94E2,9.9E2,3.77E2,7.1E1,5.52E2,7E1,6.333E3,1E1,1.7E1,3E0,3E0,3E0,3E0,1.7E1,1.6E1,1.7E1,5E1,1.1E1,2.2E1,3.21E2,2.77E2,2.92E2,3.02E2,1.21E2,8.69E2,2.2E2,1.57E2,9E0,6.2E1,1.46E2,4.06E2,3E0,6.7E1,2.955E3,3.378E3],"tree_param":{"num_deleted":"0","num_feature":"12","num_nodes":"59","size_leaf_vector":"1"}},{"base_weights":[-2.3606517E-4,-3.1982593E-2,2.6008096E-3,-7.1916394E-2,-7.460923E-3,-1.7593551E-2,4.6772417E-3,-9.871484E-2,-2.4190146E-2,-6.6986054E-2,6.9162564E-4,-7.001622E-2,-8.0710294E-4,-4.8968177E-2,5.054962E-3,-7.868668E-2,-1.7939207E-1,-1.1413016E-1,-1.2135496E-2,4.8513886E-2,-9.39047E-2,-1.0046076E-1,6.5256776E-3,-1.4642584E-1,-3.769266E-2,-5.4554302E-2,4.99975E-3,2.1106496E-2,-1.0057116E-1,5.9549003E-3,-4.4900896E-3,-2.3219695E-2,-1.2552151E-2,-1.7948438E-3,-3.9835457E-2,9.68971E-3,-3.835411E-2,-1.2343499E-2,-7.1066104E-5,-1.51597215E-2,1.619125E-2,-3.320133E-2,-1.2651317E-2,2.1930565E-3,-2.4658848E-2,3.6680605E-3,-5.818909E-3,-3.7126094E-2,-1.174701E-2,3.4759908E-3,-1.3082E-2,-1.4496269E-2,5.2363663E-3,-1.211512E-2,1.6947065E-3,-4.0186334E-2,1.2103537E-2,-1.110608E-2,-4.2901967E-2,1.4682917E-3,-7.478914E-4,-1.9319605E-2,8.992091E-4],"categories":[],"categories_nodes":[],"categories_segments":[],"categories_sizes":[],"default_left":[0,0,0,0,0,0,0,0,0,0,0,0,0,0,0,0,0,0,0,0,0,0,0,0,0,0,0,0,0,0,0,0,0,0,0,0,0,0,0,0,0,0,0,0,0,0,0,0,0,0,0,0,0,0,0,0,0,0,0,0,0,0,0],"id":13,"left_children":[1,3,5,7,9,11,13,15,17,19,21,23,25,27,29,31,33,35,37,39,41,43,45,47,49,51,53,55,57,59,61,-1,-1,-1,-1,-1,-1,-1,-1,-1,-1,-1,-1,-1,-1,-1,-1,-1,-1,-1,-1,-1,-1,-1,-1,-1,-1,-1,-1,-1,-1,-1,-1],"loss_changes":[8.805188E-1,7.8481674E-1,3.7642398E-1,3.8770378E-1,2.4171655E-1,7.364955E-1,1.6516767E-1,3.009684E-1,1.1896067E-1,1.911017E-1,2.597219E-1,4.9585664E-1,1.9845757E-1,2.0823827E-1,6.945939E-2,8.685273E-2,1.263392E-1,1.7338574E-1,5.78024E-2,5.4532267E-2,9.777862E-2,6.2413797E-2,1.7560285E-1,1.9536996E-1,2.2094803E-1,9.163402E-2,1.3126734E-1,2.3092961E-1,1.5744036E-1,9.932196E-2,5.773372E-1,0E0,0E0,0E0,0E0,0E0,0E0,0E0,0E0,0E0,0E0,0E0,0E0,0E0,0E0,0E0,0E0,0E0,0E0,0E0,0E0,0E0,0E0,0E0,0E0,0E0,0E0,0E0,0E0,0E0,0E0,0E0,0E0],"parents":[2147483647,0,0,1,1,2,2,3,3,4,4,5,5,6,6,7,7,8,8,9,9,10,10,11,11,12,12,13,13,14,14,15,15,16,16,17,17,18,18,19,19,20,20,21,21,22,22,23,23,24,24,25,25,26,26,27,27,28,28,29,29,30,30],"right_children":[2,4,6,8,10,12,14,16,18,20,22,24,26,28,30,32,34,36,38,40,42,44,46,48,50,52,54,56,58,60,62,-1,-1,-1,-1,-1,-1,-1,-1,-1,-1,-1,-1,-1,-1,-1,-1,-1,-1,-1,-1,-1,-1,-1,-1,-1,-1,-1,-1,-1,-1,-1,-1],"split_conditions":[8.5E-2,4.4444445E-1,2.2222222E-1,4E-1,7.717323E-2,1.4909318E-1,5.50344E-3,9.79E-1,1.6666667E-1,9.02E-1,5E-3,3.17E-1,3.121212E-1,9.41E-1,9.89E-1,2.8E-2,8.57E-1,8.48E-1,3.9818183E-1,2.969697E-1,3.0950952E-1,4.3575758E-1,9.63E-1,5.4944944E-1,9.29E-1,7.86E-1,1.28E-1,4.6346348E-2,8.4181815E-1,7.707317E-1,5.5784866E-2,-2.3219695E-2,-1.2552151E-2,-1.7948438E-3,-3.9835457E-2,9.68971E-3,-3.835411E-2,-1.2343499E-2,-7.1066104E-5,-1.51597215E-2,1.619125E-2,-3.320133E-2,-1.2651317E-2,2.1930565E-3,-2.4658848E-2,3.6680605E-3,-5.818909E-3,-3.7126094E-2,-1.174701E-2,3.4759908E-3,-1.3082E-2,-1.4496269E-2,5.2363663E-3,-1.211512E-2,1.6947065E-3,-4.0186334E-2,1.2103537E-2,-1.110608E-2,-4.2901967E-2,1.4682917E-3,-7.478914E-4,-1.9319605E-2,8.992091E-4],"split_indices":[9,10,10,8,8,8,8,7,10,7,9,9,0,7,7,9,4,7,0,0,6,0,7,6,7,9,9,6,0,8,8,0,0,0,0,0,0,0,0,0,0,0,0,0,0,0,0,0,0,0,0,0,0,0,0,0,0,0,0,0,0,0,0],"split_type":[0,0,0,0,0,0,0,0,0,0,0,0,0,0,0,0,0,0,0,0,0,0,0,0,0,0,0,0,0,0,0,0,0,0,0,0,0,0,0,0,0,0,0,0,0,0,0,0,0,0,0,0,0,0,0,0,0,0,0,0,0,0,0],"sum_hessian":[9.775E3,8.01E2,8.974E3,3.04E2,4.97E2,8.36E2,8.138E3,1.94E2,1.1E2,5.9E1,4.38E2,2.02E2,6.34E2,5.6E1,8.082E3,1.57E2,3.7E1,1.2E1,9.8E1,1.1E1,4.8E1,2.3E1,4.15E2,5.9E1,1.43E2,6.1E1,5.73E2,2.4E1,3.2E1,7.386E3,6.96E2,4.5E1,1.12E2,4E0,3.3E1,4E0,8E0,1.8E1,8E1,2E0,9E0,1.3E1,3.5E1,4E0,1.9E1,3.12E2,1.03E2,4E1,1.9E1,4.8E1,9.5E1,5E1,1.1E1,2.8E1,5.45E2,3E0,2.1E1,2.4E1,8E0,6.462E3,9.24E2,6.1E1,6.35E2],"tree_param":{"num_deleted":"0","num_feature":"12","num_nodes":"63","size_leaf_vector":"1"}},{"base_weights":[-2.2627565E-4,-1.5902136E-2,2.6954992E-3,-4.8658294E-3,-3.5345867E-2,-6.8649463E-4,6.414575E-3,-3.2523043E-2,2.0370714E-3,-1.22704385E-2,-4.8892345E-2,-6.2038668E-2,-1.9941239E-4,1.5504146E-3,9.355108E-3,-1.6828015E-1,-2.6604632E-2,-4.4164345E-2,6.7578927E-3,-2.7471684E-2,6.6587413E-3,-3.9591238E-2,-8.488415E-2,-2.3290983E-1,-3.7989527E-2,3.475223E-3,-4.8469827E-3,-1.4044556E-2,5.073491E-3,-3.252273E-2,9.609554E-3,-3.9896935E-2,5.015147E-3,-8.806162E-3,-1.4708255E-3,-1.2415647E-2,2.0032162E-3,2.2794807E-3,-1.7741875E-3,9.120453E-4,-9.333039E-3,-1.7990438E-2,2.1757148E-3,-6.406714E-3,-1.767219E-2,-3.1744223E-2,-1.0970588E-2,-5.269281E-3,-8.526001E-2,-2.0839376E-2,-2.0861176E-3,-9.018634E-3,8.514219E-4,9.7259367E-4,-2.9623294E-3,-1.782257E-3,-1.07659465E-2,-1.8773725E-2,1.1456663E-3,-2.0777402E-2,5.7443813E-4,-6.759893E-5,2.0838263E-3],"categories":[],"categories_nodes":[],"categories_segments":[],"categories_sizes":[],"default_left":[0,0,0,0,0,0,0,0,0,0,0,0,0,0,0,0,0,0,0,0,0,0,0,0,0,0,0,0,0,0,0,0,0,0,0,0,0,0,0,0,0,0,0,0,0,0,0,0,0,0,0,0,0,0,0,0,0,0,0,0,0,0,0],"id":14,"left_children":[1,3,5,7,9,11,13,15,17,19,21,23,25,27,29,31,33,35,37,39,41,43,45,47,49,51,53,55,57,59,61,-1,-1,-1,-1,-1,-1,-1,-1,-1,-1,-1,-1,-1,-1,-1,-1,-1,-1,-1,-1,-1,-1,-1,-1,-1,-1,-1,-1,-1,-1,-1,-1],"loss_changes":[4.4779673E-1,3.294336E-1,1.03658825E-1,1.8735388E-1,1.732006E-1,1.2899491E-1,5.612564E-2,1.5300241E-1,1.7173184E-1,5.974657E-2,1.13806605E-1,1.3086821E-1,7.3179536E-2,8.138583E-2,2.6376233E-2,5.327086E-2,6.307864E-2,7.147427E-2,5.187333E-2,7.091534E-2,3.8892973E-2,1.0037336E-1,1.4872998E-1,1.4855792E-1,5.54759E-2,9.106603E-2,1.8313517E-1,5.527457E-2,7.88056E-2,3.8187377E-2,1.9589186E-2,0E0,0E0,0E0,0E0,0E0,0E0,0E0,0E0,0E0,0E0,0E0,0E0,0E0,0E0,0E0,0E0,0E0,0E0,0E0,0E0,0E0,0E0,0E0,0E0,0E0,0E0,0E0,0E0,0E0,0E0,0E0,0E0],"parents":[2147483647,0,0,1,1,2,2,3,3,4,4,5,5,6,6,7,7,8,8,9,9,10,10,11,11,12,12,13,13,14,14,15,15,16,16,17,17,18,18,19,19,20,20,21,21,22,22,23,23,24,24,25,25,26,26,27,27,28,28,29,29,30,30],"right_children":[2,4,6,8,10,12,14,16,18,20,22,24,26,28,30,32,34,36,38,40,42,44,46,48,50,52,54,56,58,60,62,-1,-1,-1,-1,-1,-1,-1,-1,-1,-1,-1,-1,-1,-1,-1,-1,-1,-1,-1,-1,-1,-1,-1,-1,-1,-1,-1,-1,-1,-1,-1,-1],"split_conditions":[2.777778E-1,9.52E-1,6.666667E-1,3.49E-1,7.32E-1,2.1030302E-1,4.06E-1,3.018182E-1,8.448449E-2,2.2222222E-1,8.872727E-1,8.14E-1,9.42E-1,1.7147148E-1,8.02E-1,9.09E-1,4.7407407E-1,5.96E-1,9.06E-1,9.05E-1,2.2060606E-1,7.06E-1,1.6666667E-1,2.0545454E-1,4.32E-1,5.14E-1,7.87E-1,9.2E-1,2.260606E-1,3.7030303E-1,5.78E-1,-3.9896935E-2,5.015147E-3,-8.806162E-3,-1.4708255E-3,-1.2415647E-2,2.0032162E-3,2.2794807E-3,-1.7741875E-3,9.120453E-4,-9.333039E-3,-1.7990438E-2,2.1757148E-3,-6.406714E-3,-1.767219E-2,-3.1744223E-2,-1.0970588E-2,-5.269281E-3,-8.526001E-2,-2.0839376E-2,-2.0861176E-3,-9.018634E-3,8.514219E-4,9.7259367E-4,-2.9623294E-3,-1.782257E-3,-1.07659465E-2,-1.8773725E-2,1.1456663E-3,-2.0777402E-2,5.7443813E-4,-6.759893E-5,2.0838263E-3],"split_indices":[10,7,10,2,5,0,2,0,6,10,0,4,7,6,4,5,6,2,5,4,0,2,10,0,2,5,5,0,0,0,5,0,0,0,0,0,0,0,0,0,0,0,0,0,0,0,0,0,0,0,0,0,0,0,0,0,0,0,0,0,0,0,0],"split_type":[0,0,0,0,0,0,0,0,0,0,0,0,0,0,0,0,0,0,0,0,0,0,0,0,0,0,0,0,0,0,0,0,0,0,0,0,0,0,0,0,0,0,0,0,0,0,0,0,0,0,0,0,0,0,0,0,0,0,0,0,0,0,0],"sum_hessian":[9.775E3,1.535E3,8.24E3,9.8E2,5.55E2,4.316E3,3.924E3,1.95E2,7.85E2,2.06E2,3.49E2,3.3E1,4.283E3,1.479E3,2.445E3,7E0,1.88E2,7.2E1,7.13E2,1.14E2,9.2E1,2.79E2,7E1,3E0,3E1,2.392E3,1.891E3,2.72E2,1.207E3,1.4E1,2.431E3,6E0,1E0,9.8E1,9E1,5.4E1,1.8E1,5.5E2,1.63E2,4.3E1,7.1E1,3E0,8.9E1,2.43E2,3.6E1,1.9E1,5.1E1,2E0,1E0,8E0,2.2E1,3.7E1,2.355E3,9.58E2,9.33E2,2.42E2,3E1,7E0,1.2E3,4E0,1E1,1.83E2,2.248E3],"tree_param":{"num_deleted":"0","num_feature":"12","num_nodes":"63","size_leaf_vector":"1"}},{"base_weights":[-2.1354549E-4,-3.911233E-2,1.3379604E-3,-2.2579486E-2,-6.973397E-2,-2.9666627E-2,2.3314848E-3,-9.991993E-3,-5.957173E-2,-1.1343211E-1,-4.4751067E-2,-1.22811526E-1,-1.4394375E-2,-1.5455326E-2,3.0988913E-3,-5.141832E-2,1.0467666E-2,-7.968414E-3,-9.1953605E-2,-1.16133325E-1,1.0823607E-3,-1.8950481E-2,-9.3919426E-2,4.21789E-2,-1.468985E-1,-5.3532783E-2,2.1026704E-2,4.049853E-3,-7.7700175E-2,-1.786589E-3,4.8206965E-3,-1.279427E-2,7.948388E-3,-1.1386008E-2,3.9126202E-3,-1.4547557E-2,8.01207E-3,1.2084211E-2,-2.2331426E-2,-2.5557593E-2,-1.3486663E-2,-8.44993E-3,4.6005687E-3,7.359177E-3,-2.2083437E-2,1.9687971E-2,-9.379069E-3,-1.0568749E-2,-3.5258584E-2,-3.674191E-2,-6.347831E-3,-1.968984E-2,5.098911E-3,-2.5942264E-2,1.765929E-3,-5.508465E-3,-2.8516999E-2,-4.8433747E-3,9.3367154E-4,5.0766002E-3,8.6756004E-4],"categories":[],"categories_nodes":[],"categories_segments":[],"categories_sizes":[],"default_left":[0,0,0,0,0,0,0,0,0,0,0,0,0,0,0,0,0,0,0,0,0,0,0,0,0,0,0,0,0,0,0,0,0,0,0,0,0,0,0,0,0,0,0,0,0,0,0,0,0,0,0,0,0,0,0,0,0,0,0,0,0],"id":15,"left_children":[1,3,5,7,9,11,13,15,17,19,21,23,25,27,29,31,33,35,37,39,-1,41,43,45,47,49,51,53,55,57,59,-1,-1,-1,-1,-1,-1,-1,-1,-1,-1,-1,-1,-1,-1,-1,-1,-1,-1,-1,-1,-1,-1,-1,-1,-1,-1,-1,-1,-1,-1],"loss_changes":[5.9005046E-1,1.8827403E-1,2.8968662E-1,1.1348647E-1,1.3793725E-1,4.1361165E-1,1.2441045E-1,1.5649085E-1,1.0287003E-1,1.5716612E-2,1.0604884E-1,1.6913491E-1,3.5047945E-1,4.5802915E-1,7.348608E-2,7.2346926E-2,7.712715E-2,8.068372E-2,1.208345E-1,1.749152E-2,0E0,5.6688085E-2,6.660169E-2,3.4684785E-2,9.021264E-2,3.3461213E-1,7.350538E-2,1.8527825E-1,2.8897637E-1,3.2979146E-1,6.4024284E-2,0E0,0E0,0E0,0E0,0E0,0E0,0E0,0E0,0E0,0E0,0E0,0E0,0E0,0E0,0E0,0E0,0E0,0E0,0E0,0E0,0E0,0E0,0E0,0E0,0E0,0E0,0E0,0E0,0E0,0E0],"parents":[2147483647,0,0,1,1,2,2,3,3,4,4,5,5,6,6,7,7,8,8,9,9,10,10,11,11,12,12,13,13,14,14,15,15,16,16,17,17,18,18,19,19,21,21,22,22,23,23,24,24,25,25,26,26,27,27,28,28,29,29,30,30],"right_children":[2,4,6,8,10,12,14,16,18,20,22,24,26,28,30,32,34,36,38,40,-1,42,44,46,48,50,52,54,56,58,60,-1,-1,-1,-1,-1,-1,-1,-1,-1,-1,-1,-1,-1,-1,-1,-1,-1,-1,-1,-1,-1,-1,-1,-1,-1,-1,-1,-1,-1,-1],"split_conditions":[3.9E-2,9.53E-1,1.6666667E-1,7.1E-1,3.77E-1,7.1419634E-2,2.9393371E-2,4.4444445E-1,8.96E-1,8.574109E-1,8.23E-1,6.49E-1,4.94E-1,9.76E-1,3.888889E-1,9.93E-1,5E-3,3.75E-1,8.56E-1,9.03E-1,1.0823607E-3,7.777778E-1,8.52E-1,5.9E-1,1.73E-1,2.5E-1,5.55E-1,6.6E-2,5.75E-1,2.41E-1,4.4777986E-2,-1.279427E-2,7.948388E-3,-1.1386008E-2,3.9126202E-3,-1.4547557E-2,8.01207E-3,1.2084211E-2,-2.2331426E-2,-2.5557593E-2,-1.3486663E-2,-8.44993E-3,4.6005687E-3,7.359177E-3,-2.2083437E-2,1.9687971E-2,-9.379069E-3,-1.0568749E-2,-3.5258584E-2,-3.674191E-2,-6.347831E-3,-1.968984E-2,5.098911E-3,-2.5942264E-2,1.765929E-3,-5.508465E-3,-2.8516999E-2,-4.8433747E-3,9.3367154E-4,5.0766002E-3,8.6756004E-4],"split_indices":[9,7,10,1,2,8,8,10,7,8,5,5,9,7,10,4,9,11,4,5,0,10,4,1,1,11,5,9,1,9,8,0,0,0,0,0,0,0,0,0,0,0,0,0,0,0,0,0,0,0,0,0,0,0,0,0,0,0,0,0,0],"split_type":[0,0,0,0,0,0,0,0,0,0,0,0,0,0,0,0,0,0,0,0,0,0,0,0,0,0,0,0,0,0,0,0,0,0,0,0,0,0,0,0,0,0,0,0,0,0,0,0,0,0,0,0,0,0,0,0,0,0,0,0,0],"sum_hessian":[9.775E3,3.74E2,9.401E3,2.44E2,1.3E2,2.91E2,9.11E3,1.83E2,6.1E1,4.6E1,8.4E1,4E1,2.51E2,3.76E2,8.734E3,6E1,1.23E2,2.4E1,3.7E1,4.5E1,1E0,5.6E1,2.8E1,5E0,3.5E1,1.19E2,1.32E2,2.87E2,8.9E1,2.276E3,6.458E3,5.3E1,7E0,1.4E1,1.09E2,1E1,1.4E1,4E0,3.3E1,3.5E1,1E1,3.6E1,2E1,3E0,2.5E1,3E0,2E0,9E0,2.6E1,1.6E1,1.03E2,4E0,1.28E2,9E0,2.78E2,5.1E1,3.8E1,5.08E2,1.768E3,1.47E2,6.311E3],"tree_param":{"num_deleted":"0","num_feature":"12","num_nodes":"61","size_leaf_vector":"1"}},{"base_weights":[-1.9487266E-4,-3.811685E-2,8.7393424E-4,-3.0674612E-2,-8.843477E-2,-2.7856436E-2,1.4281243E-3,-3.750563E-2,3.3920232E-2,-1.108249E-1,3.452331E-2,-1.11482136E-1,-9.021946E-3,-6.3730734E-3,3.0497806E-3,-2.412657E-2,-7.645274E-2,1.8216709E-3,1.4911072E-1,-1.4577521E-1,-6.2965624E-2,1.9210363E-2,-2.0253897E-2,-1.6771825E-1,-4.8688248E-2,2.2110036E-2,-4.5972954E-2,-3.737779E-2,5.6913123E-3,3.2733986E-3,-2.419838E-2,-2.8563733E-3,-1.1527877E-2,9.740559E-3,-1.6440602E-2,-8.256964E-3,7.385003E-3,6.1007026E-3,3.422733E-2,-3.1194422E-2,7.178232E-4,7.604822E-3,-1.6593186E-2,-8.68814E-3,3.9105417E-4,8.660412E-3,-3.672268E-2,2.91954E-4,-2.1057447E-2,-2.0689541E-2,5.6530866E-3,-4.5251166E-3,-3.2979585E-2,-3.4986509E-3,-2.0672781E-2,-5.275134E-3,2.475988E-3,1.6317469E-4,1.1621773E-3,-7.682076E-2,-2.4396463E-3],"categories":[],"categories_nodes":[],"categories_segments":[],"categories_sizes":[],"default_left":[0,0,0,0,0,0,0,0,0,0,0,0,0,0,0,0,0,0,0,0,0,0,0,0,0,0,0,0,0,0,0,0,0,0,0,0,0,0,0,0,0,0,0,0,0,0,0,0,0,0,0,0,0,0,0,0,0,0,0,0,0],"id":16,"left_children":[1,3,5,7,9,11,13,15,17,19,21,23,25,27,29,31,33,35,37,39,41,-1,43,45,47,49,51,53,55,57,59,-1,-1,-1,-1,-1,-1,-1,-1,-1,-1,-1,-1,-1,-1,-1,-1,-1,-1,-1,-1,-1,-1,-1,-1,-1,-1,-1,-1,-1,-1],"loss_changes":[3.9626706E-1,9.764743E-2,1.5144289E-1,1.0496561E-1,9.742963E-2,2.8250277E-1,1.18051976E-1,1.091446E-1,8.47697E-2,3.932935E-2,2.2167578E-2,1.0836646E-1,1.7126946E-1,6.009416E-1,4.7149003E-2,5.196461E-2,4.286611E-2,3.0274898E-2,7.8419E-3,2.492863E-2,3.1432252E-2,0E0,2.1447768E-3,6.497222E-2,4.840526E-2,6.5525465E-2,1.850769E-1,5.8863825E-1,2.4848461E-1,4.7781274E-2,2.6740646E-1,0E0,0E0,0E0,0E0,0E0,0E0,0E0,0E0,0E0,0E0,0E0,0E0,0E0,0E0,0E0,0E0,0E0,0E0,0E0,0E0,0E0,0E0,0E0,0E0,0E0,0E0,0E0,0E0,0E0,0E0],"parents":[2147483647,0,0,1,1,2,2,3,3,4,4,5,5,6,6,7,7,8,8,9,9,10,10,11,11,12,12,13,13,14,14,15,15,16,16,17,17,18,18,19,19,20,20,22,22,23,23,24,24,25,25,26,26,27,27,28,28,29,29,30,30],"right_children":[2,4,6,8,10,12,14,16,18,20,22,24,26,28,30,32,34,36,38,40,42,-1,44,46,48,50,52,54,56,58,60,-1,-1,-1,-1,-1,-1,-1,-1,-1,-1,-1,-1,-1,-1,-1,-1,-1,-1,-1,-1,-1,-1,-1,-1,-1,-1,-1,-1,-1,-1],"split_conditions":[2.8E-2,8.969697E-1,1.438399E-2,9.231231E-1,9.75E-1,1.2332332E-1,1.97E-1,9.63E-1,9.67E-1,3.1419638E-1,9.4060606E-1,5.75E-1,9.5E-1,1.8398999E-1,9.858662E-1,9.67E-1,3.6363637E-1,1.4E-2,5.672727E-1,9.534535E-1,3.5897437E-1,1.9210363E-2,9.5575756E-1,8.23E-1,8.18E-1,5.1E-2,9.115152E-1,9.76E-1,4.0363637E-1,5.99E-1,2.1030302E-1,-2.8563733E-3,-1.1527877E-2,9.740559E-3,-1.6440602E-2,-8.256964E-3,7.385003E-3,6.1007026E-3,3.422733E-2,-3.1194422E-2,7.178232E-4,7.604822E-3,-1.6593186E-2,-8.68814E-3,3.9105417E-4,8.660412E-3,-3.672268E-2,2.91954E-4,-2.1057447E-2,-2.0689541E-2,5.6530866E-3,-4.5251166E-3,-3.2979585E-2,-3.4986509E-3,-2.0672781E-2,-5.275134E-3,2.475988E-3,1.6317469E-4,1.1621773E-3,-7.682076E-2,-2.4396463E-3],"split_indices":[9,0,8,6,4,6,9,7,4,8,0,3,7,8,8,4,0,9,0,6,8,0,0,4,3,9,0,7,0,9,0,0,0,0,0,0,0,0,0,0,0,0,0,0,0,0,0,0,0,0,0,0,0,0,0,0,0,0,0,0,0],"split_type":[0,0,0,0,0,0,0,0,0,0,0,0,0,0,0,0,0,0,0,0,0,0,0,0,0,0,0,0,0,0,0,0,0,0,0,0,0,0,0,0,0,0,0,0,0,0,0,0,0,0,0,0,0,0,0,0,0,0,0,0,0],"sum_hessian":[9.775E3,2.67E2,9.508E3,2.34E2,3.3E1,1.79E2,9.329E3,2.12E2,2.2E1,2.8E1,5E0,3.2E1,1.47E2,1.605E3,7.724E3,1.59E2,5.3E1,1.8E1,4E0,1.5E1,1.3E1,2E0,3E0,1.6E1,1.6E1,8E1,6.7E1,4.49E2,1.156E3,7.662E3,6.2E1,1.24E2,3.5E1,2E0,5.1E1,8E0,1E1,1E0,3E0,1.4E1,1E0,2E0,1.1E1,1E0,2E0,1E0,1.5E1,9E0,7E0,3E0,7.7E1,5.7E1,1E1,3.46E2,1.03E2,1.99E2,9.57E2,3.893E3,3.769E3,1E0,6.1E1],"tree_param":{"num_deleted":"0","num_feature":"12","num_nodes":"61","size_leaf_vector":"1"}},{"base_weights":[-1.7804546E-4,-1.9370826E-2,1.2725176E-3,-4.1559625E-2,-2.3666378E-3,-2.1315007E-2,2.0113492E-3,-8.310074E-2,-2.7957583E-2,-7.809615E-2,3.481277E-3,-3.840687E-2,1.8614553E-2,-5.1450677E-4,5.5277823E-3,2.265148E-2,-9.290918E-2,1.5541419E-2,-4.2378087E-2,-5.1150218E-2,-1.6837288E-1,-1.2781882E-2,1.6506774E-2,-1.4717239E-1,-3.1372353E-2,-2.2168906E-2,2.2964701E-2,-1.24019245E-2,8.3368935E-4,2.6266975E-2,4.322021E-3,7.332907E-3,-6.1426847E-3,-1.5217288E-2,-3.1387087E-2,-1.0321174E-2,6.918832E-3,-7.441481E-4,-1.2795577E-2,-2.0833602E-2,-5.262105E-3,-3.7018236E-2,-8.478141E-3,-3.795568E-3,9.840739E-3,4.854769E-3,-5.7667126E-3,-1.204745E-3,-3.4959953E-2,-1.2308329E-2,-9.998304E-4,1.21146785E-2,2.3913588E-3,4.1089012E-4,-6.3588703E-3,-4.2234777E-4,7.100044E-4,7.957326E-3,1.58777E-3,-3.138283E-3,1.0145156E-3],"categories":[],"categories_nodes":[],"categories_segments":[],"categories_sizes":[],"default_left":[0,0,0,0,0,0,0,0,0,0,0,0,0,0,0,0,0,0,0,0,0,0,0,0,0,0,0,0,0,0,0,0,0,0,0,0,0,0,0,0,0,0,0,0,0,0,0,0,0,0,0,0,0,0,0,0,0,0,0,0,0],"id":17,"left_children":[1,3,5,7,9,11,13,15,17,19,21,23,25,27,29,31,33,35,37,39,41,43,45,47,49,-1,51,53,55,57,59,-1,-1,-1,-1,-1,-1,-1,-1,-1,-1,-1,-1,-1,-1,-1,-1,-1,-1,-1,-1,-1,-1,-1,-1,-1,-1,-1,-1,-1,-1],"loss_changes":[2.721918E-1,2.591085E-1,1.5174022E-1,1.6605985E-1,1.729872E-1,1.9726647E-1,7.819112E-2,7.782477E-2,1.4242333E-1,5.9500232E-2,7.710736E-2,1.4993569E-1,5.154099E-2,8.213049E-2,9.191048E-2,6.360731E-3,6.022477E-2,7.470763E-2,1.4171037E-1,2.7549036E-2,4.791096E-3,6.315149E-2,7.183654E-2,4.5741856E-2,1.5166354E-1,0E0,3.4465138E-2,1.4640498E-1,3.6835007E-2,4.973772E-2,5.233849E-2,0E0,0E0,0E0,0E0,0E0,0E0,0E0,0E0,0E0,0E0,0E0,0E0,0E0,0E0,0E0,0E0,0E0,0E0,0E0,0E0,0E0,0E0,0E0,0E0,0E0,0E0,0E0,0E0,0E0,0E0],"parents":[2147483647,0,0,1,1,2,2,3,3,4,4,5,5,6,6,7,7,8,8,9,9,10,10,11,11,12,12,13,13,14,14,15,15,16,16,17,17,18,18,19,19,20,20,21,21,22,22,23,23,24,24,26,26,27,27,28,28,29,29,30,30],"right_children":[2,4,6,8,10,12,14,16,18,20,22,24,26,28,30,32,34,36,38,40,42,44,46,48,50,-1,52,54,56,58,60,-1,-1,-1,-1,-1,-1,-1,-1,-1,-1,-1,-1,-1,-1,-1,-1,-1,-1,-1,-1,-1,-1,-1,-1,-1,-1,-1,-1,-1,-1],"split_conditions":[7.1E-2,5E-1,1.6666667E-1,3.66E-1,8.448449E-2,7.01E-1,5.797798E-1,8.48E-1,9.01E-1,9.444444E-1,3.1E-2,2.6363635E-1,2.2922924E-2,1.71E-1,1.2E-1,8.47E-1,8.116116E-1,2.4E-2,7.25E-1,3.18E-1,9.06E-1,9.344344E-1,8.39E-1,1.43E-1,5.119119E-1,-2.2168906E-2,6.74E-1,9.43E-1,5.59E-1,9.43E-1,8.16E-1,7.332907E-3,-6.1426847E-3,-1.5217288E-2,-3.1387087E-2,-1.0321174E-2,6.918832E-3,-7.441481E-4,-1.2795577E-2,-2.0833602E-2,-5.262105E-3,-3.7018236E-2,-8.478141E-3,-3.795568E-3,9.840739E-3,4.854769E-3,-5.7667126E-3,-1.204745E-3,-3.4959953E-2,-1.2308329E-2,-9.998304E-4,1.21146785E-2,2.3913588E-3,4.1089012E-4,-6.3588703E-3,-4.2234777E-4,7.100044E-4,7.957326E-3,1.58777E-3,-3.138283E-3,1.0145156E-3],"split_indices":[9,10,10,2,6,9,6,7,7,10,9,0,6,9,9,5,6,9,5,2,5,6,3,9,6,0,5,7,9,7,7,0,0,0,0,0,0,0,0,0,0,0,0,0,0,0,0,0,0,0,0,0,0,0,0,0,0,0,0,0,0],"split_type":[0,0,0,0,0,0,0,0,0,0,0,0,0,0,0,0,0,0,0,0,0,0,0,0,0,0,0,0,0,0,0,0,0,0,0,0,0,0,0,0,0,0,0,0,0,0,0,0,0,0,0,0,0,0,0,0,0,0,0,0,0],"sum_hessian":[9.775E3,6.86E2,9.089E3,2.97E2,3.89E2,2.87E2,8.802E3,7.2E1,2.25E2,2.7E1,3.62E2,2.01E2,8.6E1,5.123E3,3.679E3,6E0,6.6E1,5.6E1,1.69E2,2.2E1,5E0,1.61E2,2.01E2,1.1E1,1.9E2,2E0,8.4E1,5.21E2,4.602E3,2.01E2,3.478E3,5E0,1E0,5.4E1,1.2E1,1.2E1,4.4E1,6.1E1,1.08E2,6E0,1.6E1,4E0,1E0,1.47E2,1.4E1,1.72E2,2.9E1,2E0,9E0,8.8E1,1.02E2,1.8E1,6.6E1,2.99E2,2.22E2,2.208E3,2.394E3,1.15E2,8.6E1,1.25E2,3.353E3],"tree_param":{"num_deleted":"0","num_feature":"12","num_nodes":"61","size_leaf_vector":"1"}},{"base_weights":[-1.6127565E-4,-1.5684174E-2,1.0119248E-3,-8.859212E-2,-1.186987E-2,3.9009538E-3,-2.132856E-3,-1.6939096E-1,-6.137053E-2,-4.2183447E-4,-4.024414E-2,-1.0917693E-2,5.8216793E-3,3.6985136E-3,-9.078361E-3,-4.0357903E-2,-9.626043E-3,-1.0626702E-2,-8.615207E-2,8.796106E-3,-2.8072052E-2,-1.7972577E-2,-7.753088E-2,-8.8979386E-2,-4.377915E-3,7.2001317E-3,-4.4259904E-3,-4.769517E-3,5.214845E-3,-2.0778993E-2,1.0093354E-3,2.3023372E-3,-9.342441E-3,-2.1462427E-2,2.947238E-3,-3.927425E-3,2.7390427E-3,1.2339808E-2,-6.6960785E-3,-2.1974281E-3,-1.8603025E-2,9.8612355E-3,-2.0402834E-2,-8.18953E-2,-1.2543524E-2,-6.7511103E-3,-7.9620826E-5,3.4661137E-3,1.3046556E-3,-3.0258417E-4,-1.2904286E-2,-7.855539E-3,-4.2233853E-5,1.8065208E-6,1.6325805E-3,-1.789893E-3,-9.90498E-3,8.698981E-4,-2.0457227E-3],"categories":[],"categories_nodes":[],"categories_segments":[],"categories_sizes":[],"default_left":[0,0,0,0,0,0,0,0,0,0,0,0,0,0,0,0,0,0,0,0,0,0,0,0,0,0,0,0,0,0,0,0,0,0,0,0,0,0,0,0,0,0,0,0,0,0,0,0,0,0,0,0,0,0,0,0,0,0,0],"id":18,"left_children":[1,3,5,7,9,11,13,15,17,19,21,23,25,27,29,-1,-1,31,33,35,37,39,41,43,45,47,49,51,53,55,57,-1,-1,-1,-1,-1,-1,-1,-1,-1,-1,-1,-1,-1,-1,-1,-1,-1,-1,-1,-1,-1,-1,-1,-1,-1,-1,-1,-1],"loss_changes":[1.780512E-1,1.8999834E-1,8.259427E-2,6.438646E-2,2.1242161E-1,1.3491914E-1,1.7633794E-1,2.171722E-2,3.3037253E-2,1.1927498E-1,1.547282E-1,2.773258E-1,5.929014E-2,3.0417953E-2,2.3455141E-1,0E0,0E0,8.526485E-3,4.0007815E-2,4.9162332E-2,5.8870666E-2,6.135841E-2,2.224071E-1,3.2782513E-1,5.879604E-2,2.524352E-2,8.708336E-2,5.66198E-2,3.0816771E-2,3.1240326E-1,4.0133465E-2,0E0,0E0,0E0,0E0,0E0,0E0,0E0,0E0,0E0,0E0,0E0,0E0,0E0,0E0,0E0,0E0,0E0,0E0,0E0,0E0,0E0,0E0,0E0,0E0,0E0,0E0,0E0,0E0],"parents":[2147483647,0,0,1,1,2,2,3,3,4,4,5,5,6,6,7,7,8,8,9,9,10,10,11,11,12,12,13,13,14,14,17,17,18,18,19,19,20,20,21,21,22,22,23,23,24,24,25,25,26,26,27,27,28,28,29,29,30,30],"right_children":[2,4,6,8,10,12,14,16,18,20,22,24,26,28,30,-1,-1,32,34,36,38,40,42,44,46,48,50,52,54,56,58,-1,-1,-1,-1,-1,-1,-1,-1,-1,-1,-1,-1,-1,-1,-1,-1,-1,-1,-1,-1,-1,-1,-1,-1,-1,-1,-1,-1],"split_conditions":[7.1E-2,5.6656655E-2,5.26E-1,2.5E-1,7.15E-1,3.5272726E-1,9.41E-1,7.73E-1,5.4545456E-1,9.64E-1,7.8060603E-1,8.13E-1,9.49E-1,6.2E-1,4.99E-1,-4.0357903E-2,-9.626043E-3,7.85E-1,9.230303E-1,4.1151515E-1,1.25E-1,9.81E-1,8.96E-1,5.14E-1,1.97E-1,1.34E-1,9.92E-1,8.28E-1,3.5545546E-1,8.393939E-1,9.62E-1,2.3023372E-3,-9.342441E-3,-2.1462427E-2,2.947238E-3,-3.927425E-3,2.7390427E-3,1.2339808E-2,-6.6960785E-3,-2.1974281E-3,-1.8603025E-2,9.8612355E-3,-2.0402834E-2,-8.18953E-2,-1.2543524E-2,-6.7511103E-3,-7.9620826E-5,3.4661137E-3,1.3046556E-3,-3.0258417E-4,-1.2904286E-2,-7.855539E-3,-4.2233853E-5,1.8065208E-6,1.6325805E-3,-1.789893E-3,-9.90498E-3,8.698981E-4,-2.0457227E-3],"split_indices":[9,6,1,11,1,0,7,5,0,7,0,4,5,5,9,0,0,3,0,0,11,4,7,5,9,9,7,4,6,0,4,0,0,0,0,0,0,0,0,0,0,0,0,0,0,0,0,0,0,0,0,0,0,0,0,0,0,0,0],"split_type":[0,0,0,0,0,0,0,0,0,0,0,0,0,0,0,0,0,0,0,0,0,0,0,0,0,0,0,0,0,0,0,0,0,0,0,0,0,0,0,0,0,0,0,0,0,0,0,0,0,0,0,0,0,0,0,0,0,0,0],"sum_hessian":[9.775E3,6.86E2,9.089E3,3.3E1,6.53E2,4.737E3,4.352E3,7E0,2.6E1,4.66E2,1.87E2,5.43E2,4.194E3,2.366E3,1.986E3,5E0,2E0,9E0,1.7E1,3.5E2,1.16E2,1.18E2,6.9E1,4.1E1,5.02E2,3.697E3,4.97E2,3.59E2,2.007E3,9.19E2,1.067E3,6E0,3E0,1.4E1,3E0,5.1E1,2.99E2,6E0,1.1E2,1.09E2,9E0,1.1E1,5.8E1,2E0,3.9E1,5.9E1,4.43E2,2.3E2,3.467E3,4.75E2,2.2E1,4.1E1,3.18E2,7.26E2,1.281E3,6.52E2,2.67E2,8.23E2,2.44E2],"tree_param":{"num_deleted":"0","num_feature":"12","num_nodes":"59","size_leaf_vector":"1"}},{"base_weights":[-1.526631E-4,-9.373863E-3,1.5660502E-3,-3.4094457E-2,2.660791E-3,-2.6166724E-2,2.1043904E-3,-7.5310096E-2,-6.8667545E-3,-3.088028E-2,8.122358E-3,-3.6982924E-2,2.284902E-2,-2.8692154E-2,2.3304888E-3,-1.118792E-1,-3.610675E-2,-4.041102E-2,1.1035553E-2,-5.5879023E-2,2.413613E-2,-2.1349657E-2,1.1382815E-2,-4.3452974E-2,2.972113E-2,-7.053035E-2,4.061093E-2,-8.623222E-2,1.6152961E-2,-9.365632E-3,2.8220792E-3,-7.500641E-3,-2.704737E-2,-4.852067E-3,-3.7328877E-2,-2.0954361E-2,-2.2327001E-3,-1.1326693E-4,6.7802914E-3,-2.7155241E-2,-7.3369625E-3,1.6202187E-3,2.246338E-2,-3.7218075E-2,-1.8656601E-3,4.0570195E-3,1.8368907E-3,-3.5497115E-3,-1.1590705E-2,-3.8253348E-3,2.6439682E-2,1.3115645E-3,-1.828837E-2,-2.3260475E-3,1.3175829E-2,-3.6187097E-2,-8.363725E-3,4.941525E-3,-2.6615096E-2,-7.838914E-4,-1.54559035E-2,-4.07915E-4,8.549381E-4],"categories":[],"categories_nodes":[],"categories_segments":[],"categories_sizes":[],"default_left":[0,0,0,0,0,0,0,0,0,0,0,0,0,0,0,0,0,0,0,0,0,0,0,0,0,0,0,0,0,0,0,0,0,0,0,0,0,0,0,0,0,0,0,0,0,0,0,0,0,0,0,0,0,0,0,0,0,0,0,0,0,0,0],"id":19,"left_children":[1,3,5,7,9,11,13,15,17,19,21,23,25,27,29,31,33,35,37,39,41,43,45,47,49,51,53,55,57,59,61,-1,-1,-1,-1,-1,-1,-1,-1,-1,-1,-1,-1,-1,-1,-1,-1,-1,-1,-1,-1,-1,-1,-1,-1,-1,-1,-1,-1,-1,-1,-1,-1],"loss_changes":[1.5495059E-1,4.5705658E-1,1.23090416E-1,5.6395304E-1,1.8966597E-1,8.4080786E-2,5.6363128E-2,2.826866E-1,1.8300399E-1,2.0077315E-1,8.576512E-2,5.6965098E-2,5.096359E-2,1.5363598E-1,4.6179283E-2,1.7386472E-1,1.702384E-1,1.9836405E-1,5.2811436E-2,1.4837548E-1,6.4133264E-2,1.7452028E-1,1.5509181E-2,4.2953327E-2,6.259799E-2,8.659806E-3,3.3767223E-2,1.0179247E-1,4.669235E-2,1.19535275E-1,5.441509E-2,0E0,0E0,0E0,0E0,0E0,0E0,0E0,0E0,0E0,0E0,0E0,0E0,0E0,0E0,0E0,0E0,0E0,0E0,0E0,0E0,0E0,0E0,0E0,0E0,0E0,0E0,0E0,0E0,0E0,0E0,0E0,0E0],"parents":[2147483647,0,0,1,1,2,2,3,3,4,4,5,5,6,6,7,7,8,8,9,9,10,10,11,11,12,12,13,13,14,14,15,15,16,16,17,17,18,18,19,19,20,20,21,21,22,22,23,23,24,24,25,25,26,26,27,27,28,28,29,29,30,30],"right_children":[2,4,6,8,10,12,14,16,18,20,22,24,26,28,30,32,34,36,38,40,42,44,46,48,50,52,54,56,58,60,62,-1,-1,-1,-1,-1,-1,-1,-1,-1,-1,-1,-1,-1,-1,-1,-1,-1,-1,-1,-1,-1,-1,-1,-1,-1,-1,-1,-1,-1,-1,-1,-1],"split_conditions":[2.777778E-1,2.1000625E-1,2.1E-2,3.7E-1,1.34E-1,6.0550344E-1,5.50344E-3,4.7407407E-1,3.5545546E-1,6.241401E-1,3.121212E-1,9.192192E-1,3.22E-1,4.23E-1,8.16E-1,5.254545E-1,9.91E-1,5.0281424E-2,7.96E-1,1.6666667E-1,8.4181815E-1,3.24E-1,2.99E-1,6.060606E-1,6.34E-1,2.57E-1,3.6363637E-1,2.3563564E-1,9.444444E-1,9.449656E-1,2.3223223E-1,-7.500641E-3,-2.704737E-2,-4.852067E-3,-3.7328877E-2,-2.0954361E-2,-2.2327001E-3,-1.1326693E-4,6.7802914E-3,-2.7155241E-2,-7.3369625E-3,1.6202187E-3,2.246338E-2,-3.7218075E-2,-1.8656601E-3,4.0570195E-3,1.8368907E-3,-3.5497115E-3,-1.1590705E-2,-3.8253348E-3,2.6439682E-2,1.3115645E-3,-1.828837E-2,-2.3260475E-3,1.3175829E-2,-3.6187097E-2,-8.363725E-3,4.941525E-3,-2.6615096E-2,-7.838914E-4,-1.54559035E-2,-4.07915E-4,8.549381E-4],"split_indices":[10,8,9,9,9,8,8,6,6,8,0,6,2,2,4,0,4,8,9,10,0,2,9,0,3,2,0,6,10,8,6,0,0,0,0,0,0,0,0,0,0,0,0,0,0,0,0,0,0,0,0,0,0,0,0,0,0,0,0,0,0,0,0],"split_type":[0,0,0,0,0,0,0,0,0,0,0,0,0,0,0,0,0,0,0,0,0,0,0,0,0,0,0,0,0,0,0,0,0,0,0,0,0,0,0,0,0,0,0,0,0,0,0,0,0,0,0,0,0,0,0,0,0,0,0,0,0,0,0],"sum_hessian":[9.775E3,1.535E3,8.24E3,5.02E2,1.033E3,1.56E2,8.084E3,1.99E2,3.03E2,1.44E2,8.89E2,1.28E2,2.8E1,5.8E1,8.026E3,1.02E2,9.7E1,1.05E2,1.98E2,9.9E1,4.5E1,8.8E1,8.01E2,1.17E2,1.1E1,4E0,2.4E1,2.5E1,3.3E1,3.23E2,7.703E3,2.5E1,7.7E1,9.1E1,6E0,3.2E1,7.3E1,1.32E2,6.6E1,1.8E1,8.1E1,3.9E1,6E0,5E0,8.3E1,1.57E2,6.44E2,4.3E1,7.4E1,8E0,3E0,1E0,3E0,8E0,1.6E1,7E0,1.8E1,3.2E1,1E0,3E2,2.3E1,1.772E3,5.931E3],"tree_param":{"num_deleted":"0","num_feature":"12","num_nodes":"63","size_leaf_vector":"1"}},{"base_weights":[-1.4437319E-4,-5.2893553E-3,1.8977622E-3,-3.572924E-2,-1.2136428E-3,3.4418262E-3,-3.62376E-3,1.5326279E-3,-6.71383E-2,-1.1415611E-2,1.7787137E-3,1.1626902E-2,1.190176E-3,-1.1006536E-1,-2.7804927E-3,1.4611048E-2,-1.0972973E-1,-6.103797E-3,-9.510411E-2,-4.817879E-3,-6.909018E-2,-1.034857E-2,3.056837E-3,-1.52291125E-2,1.7255854E-2,-1.0221304E-2,2.2537042E-3,-1.3124092E-1,1.2286568E-2,-2.2009445E-2,1.3509147E-4,-1.2526411E-2,4.940852E-3,-4.3872893E-2,-1.6886659E-5,2.3294361E-2,-3.5104733E-3,-1.6777804E-2,-6.8151884E-2,-4.0192357E-3,1.4910133E-3,-7.99239E-3,-4.039934E-2,-1.372169E-2,-5.370355E-4,8.405989E-6,2.312801E-3,6.5602236E-3,-5.944838E-3,3.9688717E-3,-3.3060596E-3,-2.3917038E-2,-1.3626744E-3,2.757819E-4,1.4555295E-3,-3.2779165E-2,-6.6241766E-3,-1.8842025E-2,6.671638E-4,-9.4793625E-3,9.220916E-5],"categories":[],"categories_nodes":[],"categories_segments":[],"categories_sizes":[],"default_left":[0,0,0,0,0,0,0,0,0,0,0,0,0,0,0,0,0,0,0,0,0,0,0,0,0,0,0,0,0,0,0,0,0,0,0,0,0,0,0,0,0,0,0,0,0,0,0,0,0,0,0,0,0,0,0,0,0,0,0,0,0],"id":20,"left_children":[1,3,5,7,9,11,13,15,17,19,21,23,25,27,29,31,33,35,37,39,41,43,45,47,49,51,53,55,-1,57,59,-1,-1,-1,-1,-1,-1,-1,-1,-1,-1,-1,-1,-1,-1,-1,-1,-1,-1,-1,-1,-1,-1,-1,-1,-1,-1,-1,-1,-1,-1],"loss_changes":[1.0272403E-1,3.4460708E-1,5.968304E-2,3.8398102E-1,7.484425E-2,1.00797884E-1,1.3702482E-1,2.2132877E-1,3.0324405E-1,2.1123698E-1,2.941994E-2,1.7864479E-1,5.210046E-2,5.164133E-2,8.516362E-2,1.075771E-1,1.9231641E-1,8.203333E-2,3.075297E-1,9.390468E-2,2.1259376E-1,8.062654E-2,4.4010572E-2,1.4369637E-1,8.568475E-2,1.3559516E-1,1.7244413E-2,2.9816732E-2,0E0,3.6630332E-1,2.0472914E-2,0E0,0E0,0E0,0E0,0E0,0E0,0E0,0E0,0E0,0E0,0E0,0E0,0E0,0E0,0E0,0E0,0E0,0E0,0E0,0E0,0E0,0E0,0E0,0E0,0E0,0E0,0E0,0E0,0E0,0E0],"parents":[2147483647,0,0,1,1,2,2,3,3,4,4,5,5,6,6,7,7,8,8,9,9,10,10,11,11,12,12,13,13,14,14,15,15,16,16,17,17,18,18,19,19,20,20,21,21,22,22,23,23,24,24,25,25,26,26,27,27,29,29,30,30],"right_children":[2,4,6,8,10,12,14,16,18,20,22,24,26,28,30,32,34,36,38,40,42,44,46,48,50,52,54,56,-1,58,60,-1,-1,-1,-1,-1,-1,-1,-1,-1,-1,-1,-1,-1,-1,-1,-1,-1,-1,-1,-1,-1,-1,-1,-1,-1,-1,-1,-1,-1,-1],"split_conditions":[3.888889E-1,7.467167E-2,7.87E-1,9.42E-1,2.1000625E-1,1.4684178E-1,9.0056285E-3,9.52E-1,7.29E-1,9.86E-1,6.01E-1,1.5865865E-1,8.33E-1,9.83E-1,8.980613E-2,1.6666667E-1,9.73E-1,4.4E-2,9.96E-1,4.5575577E-1,9.66E-1,8.27E-1,6.241401E-1,6.97E-1,9.92E-1,5.14E-1,9.81E-1,8.22E-1,1.2286568E-2,2.4534534E-1,9E-3,-1.2526411E-2,4.940852E-3,-4.3872893E-2,-1.6886659E-5,2.3294361E-2,-3.5104733E-3,-1.6777804E-2,-6.8151884E-2,-4.0192357E-3,1.4910133E-3,-7.99239E-3,-4.039934E-2,-1.372169E-2,-5.370355E-4,8.405989E-6,2.312801E-3,6.5602236E-3,-5.944838E-3,3.9688717E-3,-3.3060596E-3,-2.3917038E-2,-1.3626744E-3,2.757819E-4,1.4555295E-3,-3.2779165E-2,-6.6241766E-3,-1.8842025E-2,6.671638E-4,-9.4793625E-3,9.220916E-5],"split_indices":[10,8,1,7,8,8,8,5,5,7,5,6,4,1,8,10,5,3,4,6,4,4,8,5,7,5,7,3,0,6,3,0,0,0,0,0,0,0,0,0,0,0,0,0,0,0,0,0,0,0,0,0,0,0,0,0,0,0,0,0,0],"split_type":[0,0,0,0,0,0,0,0,0,0,0,0,0,0,0,0,0,0,0,0,0,0,0,0,0,0,0,0,0,0,0,0,0,0,0,0,0,0,0,0,0,0,0,0,0,0,0,0,0,0,0,0,0,0,0,0,0,0,0,0,0],"sum_hessian":[9.775E3,2.777E3,6.998E3,3.27E2,2.45E3,5.469E3,1.529E3,1.5E2,1.77E2,5.55E2,1.895E3,1.179E3,4.29E3,1.1E1,1.518E3,1.35E2,1.5E1,5.6E1,1.21E2,4.99E2,5.6E1,1.8E2,1.715E3,2.04E2,9.75E2,3.65E2,3.925E3,1E1,1E0,1.99E2,1.319E3,1.5E1,1.2E2,7E0,8E0,4E0,5.2E1,1.17E2,4E0,2.22E2,2.77E2,4.7E1,9E0,2E1,1.6E2,1.267E3,4.48E2,4.7E1,1.57E2,9.06E2,6.9E1,1E1,3.55E2,3.344E3,5.81E2,7E0,3E0,5.1E1,1.48E2,8E0,1.311E3],"tree_param":{"num_deleted":"0","num_feature":"12","num_nodes":"61","size_leaf_vector":"1"}},{"base_weights":[-1.4172534E-4,-2.17977E-2,2.8056966E-4,-5.568719E-2,-1.470628E-2,-1.5359866E-2,7.803468E-4,-4.312603E-2,-2.6566757E-2,-6.5243365E-3,-3.9084822E-2,-3.299948E-2,1.2843691E-2,-1.1558546E-3,3.5112128E-3,-6.602787E-2,5.5669E-2,-6.61914E-2,-3.8672556E-4,2.1313805E-2,-5.071226E-2,-1.9034635E-2,-1.035857E-1,-1.0641365E-1,1.9231876E-2,-1.5752295E-2,4.100889E-4,1.8480366E-2,2.035041E-3,-3.154339E-3,-1.5684618E-2,1.4570616E-2,-3.02514E-3,-1.502642E-2,2.3215653E-3,1.5913919E-2,-8.454122E-4,1.2334148E-2,-1.4326236E-3,2.060088E-3,-1.1896599E-2,-8.692345E-4,-1.4979715E-2,-2.7883077E-2,1.2593786E-2,-3.0397192E-2,1.2144792E-2,-1.3481577E-2,5.337603E-3,-1.1847716E-2,1.7881955E-3,-3.2623273E-3,2.1724706E-4,-8.946669E-3,4.968682E-3,2.2084245E-3,-1.2281384E-4],"categories":[],"categories_nodes":[],"categories_segments":[],"categories_sizes":[],"default_left":[0,0,0,0,0,0,0,0,0,0,0,0,0,0,0,0,0,0,0,0,0,0,0,0,0,0,0,0,0,0,0,0,0,0,0,0,0,0,0,0,0,0,0,0,0,0,0,0,0,0,0,0,0,0,0,0,0],"id":21,"left_children":[1,3,5,7,9,11,13,15,-1,17,19,21,23,25,27,29,31,33,35,37,39,41,43,45,47,49,51,53,55,-1,-1,-1,-1,-1,-1,-1,-1,-1,-1,-1,-1,-1,-1,-1,-1,-1,-1,-1,-1,-1,-1,-1,-1,-1,-1,-1,-1],"loss_changes":[8.940968E-2,4.4121742E-2,7.4974455E-2,2.528102E-2,3.0861355E-2,1.4818129E-1,4.914614E-2,6.929075E-2,0E0,4.3187555E-2,2.846985E-2,1.7841604E-1,8.9657895E-2,1.2432679E-1,8.516858E-2,1.3713613E-2,8.401204E-3,8.523501E-3,3.3498723E-2,8.486444E-3,1.8271863E-2,1.2604001E-1,1.8780679E-1,5.4930277E-2,7.285876E-2,5.664321E-1,5.556573E-2,1.4028344E-1,8.378188E-2,0E0,0E0,0E0,0E0,0E0,0E0,0E0,0E0,0E0,0E0,0E0,0E0,0E0,0E0,0E0,0E0,0E0,0E0,0E0,0E0,0E0,0E0,0E0,0E0,0E0,0E0,0E0,0E0],"parents":[2147483647,0,0,1,1,2,2,3,3,4,4,5,5,6,6,7,7,9,9,10,10,11,11,12,12,13,13,14,14,15,15,16,16,17,17,18,18,19,19,20,20,21,21,22,22,23,23,24,24,25,25,26,26,27,27,28,28],"right_children":[2,4,6,8,10,12,14,16,-1,18,20,22,24,26,28,30,32,34,36,38,40,42,44,46,48,50,52,54,56,-1,-1,-1,-1,-1,-1,-1,-1,-1,-1,-1,-1,-1,-1,-1,-1,-1,-1,-1,-1,-1,-1,-1,-1,-1,-1,-1,-1],"split_conditions":[2.1E-2,9.280801E-2,1.6666667E-1,9.49E-1,9.56E-1,4E-1,6.666667E-1,8.8E-1,-2.6566757E-2,6.3463464E-2,1.7435898E-1,9.41E-1,5.8E-2,6.5916196E-2,6.1288305E-2,5E-3,9.41E-1,4.3339586E-1,8.08E-1,9.68E-1,1.026026E-1,8.9151514E-1,8.44044E-1,6.25E-1,5.98E-1,3.48E-1,2.5030303E-1,5.995996E-2,2.49E-1,-3.154339E-3,-1.5684618E-2,1.4570616E-2,-3.02514E-3,-1.502642E-2,2.3215653E-3,1.5913919E-2,-8.454122E-4,1.2334148E-2,-1.4326236E-3,2.060088E-3,-1.1896599E-2,-8.692345E-4,-1.4979715E-2,-2.7883077E-2,1.2593786E-2,-3.0397192E-2,1.2144792E-2,-1.3481577E-2,5.337603E-3,-1.1847716E-2,1.7881955E-3,-3.2623273E-3,2.1724706E-4,-8.946669E-3,4.968682E-3,2.2084245E-3,-1.2281384E-4],"split_indices":[9,8,10,5,7,8,10,5,0,6,8,5,9,8,8,9,7,8,7,7,6,0,6,11,5,9,0,6,9,0,0,0,0,0,0,0,0,0,0,0,0,0,0,0,0,0,0,0,0,0,0,0,0,0,0,0,0],"split_type":[0,0,0,0,0,0,0,0,0,0,0,0,0,0,0,0,0,0,0,0,0,0,0,0,0,0,0,0,0,0,0,0,0,0,0,0,0,0,0,0,0,0,0,0,0,0,0,0,0,0,0,0,0,0,0,0,0],"sum_hessian":[9.775E3,1.86E2,9.589E3,3.1E1,1.55E2,2.96E2,9.293E3,2.8E1,3E0,1.17E2,3.8E1,1.82E2,1.14E2,5.438E3,3.855E3,2.3E1,5E0,1E1,1.07E2,6E0,3.2E1,1.53E2,2.9E1,5E0,1.09E2,5.26E2,4.912E3,3.45E2,3.51E3,5E0,1.8E1,4E0,1E0,9E0,1E0,4E0,1.03E2,2E0,4E0,4E0,2.8E1,1.22E2,3.1E1,2.4E1,5E0,4E0,1E0,8E0,1.01E2,1.9E2,3.36E2,1.9E2,4.722E3,3.1E1,3.14E2,7.97E2,2.713E3],"tree_param":{"num_deleted":"0","num_feature":"12","num_nodes":"57","size_leaf_vector":"1"}},{"base_weights":[-1.2391582E-4,-1.7248443E-3,4.2791455E-3,-2.5864499E-2,-1.0320232E-3,-1.1870334E-2,5.2978536E-3,-5.0141066E-2,-2.5152967E-3,-1.3421663E-2,2.484748E-4,-9.497135E-2,-9.450542E-4,9.734796E-3,1.7541692E-3,-6.2129904E-2,6.59433E-3,-3.393382E-2,5.9447372E-3,-5.672748E-2,-9.024743E-3,1.062477E-3,-1.1799378E-2,5.84345E-3,-2.2172028E-1,-8.967854E-2,3.7676692E-3,1.0564814E-2,-1.3499777E-2,-4.6373405E-3,7.402726E-3,-1.973178E-2,-9.367349E-3,-9.929488E-3,6.408963E-3,-1.4004973E-2,5.1956456E-3,1.7876526E-2,5.4830144E-4,-2.0011082E-2,-4.5840475E-3,-3.2943133E-3,2.3615907E-3,3.820097E-4,-1.5014926E-3,-9.029075E-3,-1.0863191E-3,3.0211508E-3,6.8132876E-4,-6.7023854E-3,-8.031013E-2,-2.8574992E-2,5.7749986E-3,-1.9448921E-2,1.3741252E-3,2.8777474E-3,1.2628856E-3,-1.2889355E-2,4.4686339E-4,-3.0106558E-3,1.0326492E-3,5.210608E-3,6.337396E-4],"categories":[],"categories_nodes":[],"categories_segments":[],"categories_sizes":[],"default_left":[0,0,0,0,0,0,0,0,0,0,0,0,0,0,0,0,0,0,0,0,0,0,0,0,0,0,0,0,0,0,0,0,0,0,0,0,0,0,0,0,0,0,0,0,0,0,0,0,0,0,0,0,0,0,0,0,0,0,0,0,0,0,0],"id":22,"left_children":[1,3,5,7,9,11,13,15,17,19,21,23,25,27,29,31,33,35,37,39,41,43,45,47,49,51,53,55,57,59,61,-1,-1,-1,-1,-1,-1,-1,-1,-1,-1,-1,-1,-1,-1,-1,-1,-1,-1,-1,-1,-1,-1,-1,-1,-1,-1,-1,-1,-1,-1,-1,-1],"loss_changes":[6.891827E-2,1.1988771E-1,4.2952213E-2,1.1324157E-1,1.10597625E-1,1.4063504E-1,3.8551755E-2,6.706849E-2,2.7579308E-2,1.23827234E-1,6.1982833E-2,2.3130263E-1,5.804622E-2,2.1144107E-2,4.931466E-2,4.0629268E-2,2.7355788E-2,4.9389463E-2,2.1671161E-2,8.5594594E-2,9.234612E-2,4.301507E-2,8.46908E-2,1.9681492E-4,2.573079E-1,4.827187E-2,4.204178E-2,1.7007455E-2,3.060498E-2,6.551248E-2,5.716775E-2,0E0,0E0,0E0,0E0,0E0,0E0,0E0,0E0,0E0,0E0,0E0,0E0,0E0,0E0,0E0,0E0,0E0,0E0,0E0,0E0,0E0,0E0,0E0,0E0,0E0,0E0,0E0,0E0,0E0,0E0,0E0,0E0],"parents":[2147483647,0,0,1,1,2,2,3,3,4,4,5,5,6,6,7,7,8,8,9,9,10,10,11,11,12,12,13,13,14,14,15,15,16,16,17,17,18,18,19,19,20,20,21,21,22,22,23,23,24,24,25,25,26,26,27,27,28,28,29,29,30,30],"right_children":[2,4,6,8,10,12,14,16,18,20,22,24,26,28,30,32,34,36,38,40,42,44,46,48,50,52,54,56,58,60,62,-1,-1,-1,-1,-1,-1,-1,-1,-1,-1,-1,-1,-1,-1,-1,-1,-1,-1,-1,-1,-1,-1,-1,-1,-1,-1,-1,-1,-1,-1,-1,-1],"split_conditions":[6.06E-1,2.5454545E-1,8.22E-1,5.09E-1,9.7E-2,8.23E-1,6.1636364E-1,8.333333E-1,3.8E-1,2.2222222E-1,1E0,8.15E-1,1.6666667E-1,9.93E-1,4.5575577E-1,3.75E-1,3.6916918E-1,8.41E-1,3.84E-1,3.84E-1,7.5935936E-1,9.89E-1,2.777778E-1,2.8060606E-1,8.11E-1,3.9212123E-1,3.033033E-2,5.2E-1,7.6E-2,5.555556E-1,1.71E-1,-1.973178E-2,-9.367349E-3,-9.929488E-3,6.408963E-3,-1.4004973E-2,5.1956456E-3,1.7876526E-2,5.4830144E-4,-2.0011082E-2,-4.5840475E-3,-3.2943133E-3,2.3615907E-3,3.820097E-4,-1.5014926E-3,-9.029075E-3,-1.0863191E-3,3.0211508E-3,6.8132876E-4,-6.7023854E-3,-8.031013E-2,-2.8574992E-2,5.7749986E-3,-1.9448921E-2,1.3741252E-3,2.8777474E-3,1.2628856E-3,-1.2889355E-2,4.4686339E-4,-3.0106558E-3,1.0326492E-3,5.210608E-3,6.337396E-4],"split_indices":[2,0,4,9,9,7,0,10,2,10,11,7,10,4,6,11,6,9,2,2,6,7,10,0,4,0,6,9,9,10,9,0,0,0,0,0,0,0,0,0,0,0,0,0,0,0,0,0,0,0,0,0,0,0,0,0,0,0,0,0,0,0,0],"split_type":[0,0,0,0,0,0,0,0,0,0,0,0,0,0,0,0,0,0,0,0,0,0,0,0,0,0,0,0,0,0,0,0,0,0,0,0,0,0,0,0,0,0,0,0,0,0,0,0,0,0,0,0,0,0,0,0,0,0,0,0,0,0,0],"sum_hessian":[9.775E3,7.169E3,2.606E3,1.99E2,6.97E3,1.54E2,2.452E3,9.7E1,1.02E2,6.52E2,6.318E3,1.7E1,1.37E2,1.088E3,1.364E3,8E1,1.7E1,2.1E1,8.1E1,5.9E1,5.93E2,5.919E3,3.99E2,1E1,7E0,6E0,1.31E2,1.051E3,3.7E1,6.4E2,7.24E2,2.2E1,5.8E1,5E0,1.2E1,1.3E1,8E0,2E0,7.9E1,2.5E1,3.4E1,4.37E2,1.56E2,5.387E3,5.32E2,6.3E1,3.36E2,1E0,9E0,4E0,3E0,4E0,2E0,3E0,1.28E2,5.52E2,4.99E2,8E0,2.9E1,3.1E2,3.3E2,1.33E2,5.91E2],"tree_param":{"num_deleted":"0","num_feature":"12","num_nodes":"63","size_leaf_vector":"1"}},{"base_weights":[-1.18415206E-4,2.3610666E-3,-2.9667963E-3,8.819691E-3,1.2106948E-4,-1.9056331E-2,1.783524E-4,1.3165267E-2,-7.3323227E-3,9.882908E-3,-1.0471209E-3,-2.0690341E-3,-6.1957564E-2,-1.4661851E-2,1.4199123E-3,-1.0922096E-2,1.5655465E-2,-5.813391E-2,8.172398E-3,-2.8247518E-2,1.3359765E-2,-2.8040337E-3,5.2912887E-3,-4.35646E-2,1.1255638E-2,-1.9369435E-2,-9.802493E-2,-5.506294E-2,9.604549E-4,6.9196275E-3,6.447431E-4,9.797803E-3,-4.2489413E-3,3.392762E-3,-7.2371657E-3,-1.9599045E-2,4.476633E-3,2.8287729E-3,-1.4876108E-2,-9.708781E-3,1.9668718E-3,-8.243747E-3,3.0187543E-3,-2.3576482E-3,-2.048356E-4,4.0550246E-3,8.575416E-4,-1.5486038E-2,5.1380944E-4,5.6830705E-3,6.8084843E-4,-1.91739E-2,1.9174218E-3,-3.1776614E-2,-1.2333569E-2,-2.1095712E-2,-5.6791333E-3,3.0188386E-3,-6.0127447E-3,-5.2675297E-3,1.7861266E-3,-5.685479E-3,1.6115622E-4],"categories":[],"categories_nodes":[],"categories_segments":[],"categories_sizes":[],"default_left":[0,0,0,0,0,0,0,0,0,0,0,0,0,0,0,0,0,0,0,0,0,0,0,0,0,0,0,0,0,0,0,0,0,0,0,0,0,0,0,0,0,0,0,0,0,0,0,0,0,0,0,0,0,0,0,0,0,0,0,0,0,0,0],"id":23,"left_children":[1,3,5,7,9,11,13,15,17,19,21,23,25,27,29,31,33,35,37,39,41,43,45,47,49,51,53,55,57,59,61,-1,-1,-1,-1,-1,-1,-1,-1,-1,-1,-1,-1,-1,-1,-1,-1,-1,-1,-1,-1,-1,-1,-1,-1,-1,-1,-1,-1,-1,-1,-1,-1],"loss_changes":[6.9050096E-2,7.5619504E-2,2.3025148E-1,9.4572015E-2,4.4279464E-2,5.420811E-1,7.01648E-2,6.3812226E-2,2.2574714E-1,5.539559E-2,3.86346E-2,2.9574686E-1,3.2220602E-1,1.8561338E-1,1.497646E-2,6.288466E-2,6.586273E-2,2.17231E-1,1.0950366E-1,2.7529756E-2,3.6679782E-2,4.3418374E-2,1.12362895E-2,2.0330355E-1,5.446799E-2,2.1800649E-1,2.4244118E-1,1.0724953E-1,9.385164E-2,2.9261379E-2,1.4447286E-2,0E0,0E0,0E0,0E0,0E0,0E0,0E0,0E0,0E0,0E0,0E0,0E0,0E0,0E0,0E0,0E0,0E0,0E0,0E0,0E0,0E0,0E0,0E0,0E0,0E0,0E0,0E0,0E0,0E0,0E0,0E0,0E0],"parents":[2147483647,0,0,1,1,2,2,3,3,4,4,5,5,6,6,7,7,8,8,9,9,10,10,11,11,12,12,13,13,14,14,15,15,16,16,17,17,18,18,19,19,20,20,21,21,22,22,23,23,24,24,25,25,26,26,27,27,28,28,29,29,30,30],"right_children":[2,4,6,8,10,12,14,16,18,20,22,24,26,28,30,32,34,36,38,40,42,44,46,48,50,52,54,56,58,60,62,-1,-1,-1,-1,-1,-1,-1,-1,-1,-1,-1,-1,-1,-1,-1,-1,-1,-1,-1,-1,-1,-1,-1,-1,-1,-1,-1,-1,-1,-1,-1,-1],"split_conditions":[5.38E-1,1.7435898E-1,1.0781739E-1,9.09E-1,1.16E-1,9.65E-1,8.5E-2,7.6E-2,3.3333334E-1,2.89E-1,9.69E-1,2.6106107E-1,7.87E-1,3.66E-1,1.2332332E-1,9E-1,9.32E-1,6.481481E-1,9.9E-1,6.0550344E-1,5E-3,6.26E-1,1.82E-1,4.99E-1,9.09E-1,2.22E-1,3.7287286E-1,5E-1,8.82E-1,5.64E-1,1.2742743E-1,9.797803E-3,-4.2489413E-3,3.392762E-3,-7.2371657E-3,-1.9599045E-2,4.476633E-3,2.8287729E-3,-1.4876108E-2,-9.708781E-3,1.9668718E-3,-8.243747E-3,3.0187543E-3,-2.3576482E-3,-2.048356E-4,4.0550246E-3,8.575416E-4,-1.5486038E-2,5.1380944E-4,5.6830705E-3,6.8084843E-4,-1.91739E-2,1.9174218E-3,-3.1776614E-2,-1.2333569E-2,-2.1095712E-2,-5.6791333E-3,3.0188386E-3,-6.0127447E-3,-5.2675297E-3,1.7861266E-3,-5.685479E-3,1.6115622E-4],"split_indices":[1,8,8,5,9,7,9,9,10,2,7,6,5,2,6,7,2,6,7,8,9,5,9,9,7,9,6,10,1,1,6,0,0,0,0,0,0,0,0,0,0,0,0,0,0,0,0,0,0,0,0,0,0,0,0,0,0,0,0,0,0,0,0],"split_type":[0,0,0,0,0,0,0,0,0,0,0,0,0,0,0,0,0,0,0,0,0,0,0,0,0,0,0,0,0,0,0,0,0,0,0,0,0,0,0,0,0,0,0,0,0,0,0,0,0,0,0,0,0,0,0,0,0,0,0,0,0,0,0],"sum_hessian":[9.775E3,5.226E3,4.549E3,1.345E3,3.881E3,7.43E2,3.806E3,1.06E3,2.85E2,4.14E2,3.467E3,5.33E2,2.1E2,2.93E2,3.513E3,9.9E1,9.61E2,6.6E1,2.19E2,3.4E1,3.8E2,2.715E3,7.52E2,1.29E2,4.04E2,9.7E1,1.13E2,8.1E1,2.12E2,4.33E2,3.08E3,1.4E1,8.5E1,9.38E2,2.3E1,4.4E1,2.2E1,2.05E2,1.4E1,2.2E1,1.2E1,1.1E1,3.69E2,4.48E2,2.267E3,4.6E1,7.06E2,7.4E1,5.5E1,1.26E2,2.78E2,2.6E1,7.1E1,4.1E1,7.2E1,2.7E1,5.4E1,1.46E2,6.6E1,2.4E1,4.09E2,1.6E1,3.064E3],"tree_param":{"num_deleted":"0","num_feature":"12","num_nodes":"63","size_leaf_vector":"1"}},{"base_weights":[-1.095549E-4,1.0525839E-3,-4.439017E-3,-2.2681119E-2,1.5170113E-3,2.0077236E-3,-1.2259991E-2,-1.0483165E-1,-1.4661722E-2,-3.4898957E-3,2.6543292E-3,-1.18973395E-2,3.7249592E-3,8.534305E-4,-2.5347216E-2,-6.4994365E-2,-5.8287907E-2,-4.1612618E-2,6.529388E-3,-4.6895735E-2,-2.1129143E-3,-3.1951543E-2,2.789186E-3,1.4758492E-2,-3.3744946E-2,1.1708769E-2,1.9580568E-3,2.8004237E-2,-2.534328E-3,-4.289801E-2,-8.77954E-3,-1.900608E-2,3.7670643E-3,-1.5723102E-2,-1.35567E-3,-8.424226E-3,3.4139336E-3,-1.8437942E-2,-2.1192962E-3,-2.1433485E-4,-8.525702E-3,-9.006719E-3,8.943421E-3,7.2597776E-4,-3.5224826E-4,-3.4723214E-3,7.7289343E-3,8.452983E-3,-1.0428965E-2,3.9751255E-3,9.2021015E-5,-5.626853E-3,4.497088E-4,7.2521977E-3,6.0059514E-4,-2.6725174E-3,1.0093902E-3,-7.3512443E-3,-3.751635E-2,-1.2657789E-3,-2.4734875E-2],"categories":[],"categories_nodes":[],"categories_segments":[],"categories_sizes":[],"default_left":[0,0,0,0,0,0,0,0,0,0,0,0,0,0,0,0,0,0,0,0,0,0,0,0,0,0,0,0,0,0,0,0,0,0,0,0,0,0,0,0,0,0,0,0,0,0,0,0,0,0,0,0,0,0,0,0,0,0,0,0,0],"id":24,"left_children":[1,3,5,7,9,11,13,15,17,19,21,23,25,27,29,31,-1,33,35,37,39,41,43,45,47,49,51,53,55,57,59,-1,-1,-1,-1,-1,-1,-1,-1,-1,-1,-1,-1,-1,-1,-1,-1,-1,-1,-1,-1,-1,-1,-1,-1,-1,-1,-1,-1,-1,-1],"loss_changes":[4.919198E-2,8.499646E-2,1.0434316E-1,9.596505E-2,4.3064963E-2,2.7146153E-2,1.6048478E-1,7.769944E-2,7.794394E-2,8.3577566E-2,2.8846197E-2,7.32938E-2,1.4238859E-2,4.311779E-2,1.3570648E-1,3.2004867E-2,0E0,7.680523E-2,4.0203825E-2,6.972102E-2,5.7243526E-2,2.6085364E-2,2.349148E-2,4.4402845E-2,9.8705366E-2,1.6802374E-2,7.309911E-3,1.0625429E-2,3.4299824E-2,1.9482124E-1,6.735639E-2,0E0,0E0,0E0,0E0,0E0,0E0,0E0,0E0,0E0,0E0,0E0,0E0,0E0,0E0,0E0,0E0,0E0,0E0,0E0,0E0,0E0,0E0,0E0,0E0,0E0,0E0,0E0,0E0,0E0,0E0],"parents":[2147483647,0,0,1,1,2,2,3,3,4,4,5,5,6,6,7,7,8,8,9,9,10,10,11,11,12,12,13,13,14,14,15,15,17,17,18,18,19,19,20,20,21,21,22,22,23,23,24,24,25,25,26,26,27,27,28,28,29,29,30,30],"right_children":[2,4,6,8,10,12,14,16,18,20,22,24,26,28,30,32,-1,34,36,38,40,42,44,46,48,50,52,54,56,58,60,-1,-1,-1,-1,-1,-1,-1,-1,-1,-1,-1,-1,-1,-1,-1,-1,-1,-1,-1,-1,-1,-1,-1,-1,-1,-1,-1,-1,-1,-1],"split_conditions":[7.95E-1,2.260606E-1,9.41E-1,8.14E-1,3.32E-1,1.12E-1,7.76E-1,7.18E-1,4.85E-1,3.121212E-1,5E-3,8.99E-1,2.73E-1,8.57E-1,4.62E-1,8.3263266E-1,-5.8287907E-2,6.3E-1,1.82E-1,7.56E-1,9.98E-1,8.213213E-1,8.9454544E-1,4.9636364E-1,8.7E-1,9.15E-1,2.81E-1,6.781782E-1,4.5255256E-1,9.93E-1,9.9E-1,-1.900608E-2,3.7670643E-3,-1.5723102E-2,-1.35567E-3,-8.424226E-3,3.4139336E-3,-1.8437942E-2,-2.1192962E-3,-2.1433485E-4,-8.525702E-3,-9.006719E-3,8.943421E-3,7.2597776E-4,-3.5224826E-4,-3.4723214E-3,7.7289343E-3,8.452983E-3,-1.0428965E-2,3.9751255E-3,9.2021015E-5,-5.626853E-3,4.497088E-4,7.2521977E-3,6.0059514E-4,-2.6725174E-3,1.0093902E-3,-7.3512443E-3,-3.751635E-2,-1.2657789E-3,-2.4734875E-2],"split_indices":[1,0,7,4,2,9,5,1,3,0,9,7,9,4,9,6,0,2,9,5,7,6,0,0,4,7,9,6,6,4,9,0,0,0,0,0,0,0,0,0,0,0,0,0,0,0,0,0,0,0,0,0,0,0,0,0,0,0,0,0,0],"split_type":[0,0,0,0,0,0,0,0,0,0,0,0,0,0,0,0,0,0,0,0,0,0,0,0,0,0,0,0,0,0,0,0,0,0,0,0,0,0,0,0,0,0,0,0,0,0,0,0,0,0,0,0,0,0,0,0,0,0,0,0,0],"sum_hessian":[9.775E3,7.707E3,2.068E3,1.47E2,7.56E3,1.134E3,9.34E2,1.2E1,1.35E2,1.399E3,6.161E3,1.24E2,1.01E3,4.67E2,4.67E2,1.1E1,1E0,5.9E1,7.6E1,4.2E1,1.357E3,2.3E1,6.138E3,5.6E1,6.8E1,1.82E2,8.28E2,5.1E1,4.16E2,2.26E2,2.41E2,8E0,3E0,2.8E1,3.1E1,1.3E1,6.3E1,1.8E1,2.4E1,1.324E3,3.3E1,2E1,3E0,5.181E3,9.57E2,2.4E1,3.2E1,1.3E1,5.5E1,1.05E2,7.7E1,7E0,8.21E2,3.8E1,1.3E1,1.71E2,2.45E2,2.18E2,8E0,2.37E2,4E0],"tree_param":{"num_deleted":"0","num_feature":"12","num_nodes":"61","size_leaf_vector":"1"}},{"base_weights":[-1.06886546E-4,-1.3204046E-3,3.0480316E-3,-2.9685149E-2,-9.787653E-4,3.7991898E-3,-1.6239487E-2,-4.0036257E-2,1.34654725E-2,2.2936482E-3,-3.952849E-3,-1.7585838E-2,4.41158E-3,-9.9683456E-2,4.44083E-4,-1.4039231E-2,-6.718343E-2,-3.1721283E-2,8.19931E-3,-1.498375E-2,3.4049076E-3,-1.851682E-2,1.2664993E-4,1.3553874E-2,-4.8250258E-2,1.7272325E-2,3.3242658E-3,-3.2593548E-1,-2.7919779E-2,-4.120859E-2,4.0831408E-3,-1.9391222E-2,-1.2894887E-4,-1.4883879E-2,7.7643694E-4,-1.4255834E-3,-1.2427292E-2,-1.3799431E-2,-1.454017E-3,1.9953842E-3,2.305046E-4,7.1179407E-4,-8.098277E-3,1.9479003E-4,-2.354379E-3,-1.9184548E-2,6.7314357E-3,-1.1931187E-2,1.2152106E-2,3.956007E-3,-3.9871684E-3,-2.9667818E-3,7.436154E-4,-8.235423E-2,-6.84284E-3,-1.8617444E-2,1.4911842E-3,-1.1568513E-2,5.0179166E-5,-2.3625705E-3,2.2213308E-3],"categories":[],"categories_nodes":[],"categories_segments":[],"categories_sizes":[],"default_left":[0,0,0,0,0,0,0,0,0,0,0,0,0,0,0,0,0,0,0,0,0,0,0,0,0,0,0,0,0,0,0,0,0,0,0,0,0,0,0,0,0,0,0,0,0,0,0,0,0,0,0,0,0,0,0,0,0,0,0,0,0],"id":25,"left_children":[1,3,5,7,9,11,13,15,17,19,21,23,25,27,29,31,33,35,-1,37,39,41,43,45,47,49,51,53,55,57,59,-1,-1,-1,-1,-1,-1,-1,-1,-1,-1,-1,-1,-1,-1,-1,-1,-1,-1,-1,-1,-1,-1,-1,-1,-1,-1,-1,-1,-1,-1],"loss_changes":[3.743193E-2,6.839564E-2,3.941105E-2,3.805828E-2,6.792198E-2,3.4323562E-2,1.4204288E-1,4.704751E-2,2.244914E-2,6.3851535E-2,2.1721888E-1,7.03603E-2,3.5503063E-2,2.669235E-1,1.3203838E-2,3.9920133E-2,1.7258465E-2,4.793177E-3,0E0,8.3243296E-2,4.6217337E-2,3.8822874E-1,2.8814707E-2,8.4659636E-2,4.9628362E-2,1.8869173E-2,1.683115E-2,8.607194E-2,3.296886E-2,4.8419638E-3,9.062857E-3,0E0,0E0,0E0,0E0,0E0,0E0,0E0,0E0,0E0,0E0,0E0,0E0,0E0,0E0,0E0,0E0,0E0,0E0,0E0,0E0,0E0,0E0,0E0,0E0,0E0,0E0,0E0,0E0,0E0,0E0],"parents":[2147483647,0,0,1,1,2,2,3,3,4,4,5,5,6,6,7,7,8,8,9,9,10,10,11,11,12,12,13,13,14,14,15,15,16,16,17,17,19,19,20,20,21,21,22,22,23,23,24,24,25,25,26,26,27,27,28,28,29,29,30,30],"right_children":[2,4,6,8,10,12,14,16,18,20,22,24,26,28,30,32,34,36,-1,38,40,42,44,46,48,50,52,54,56,58,60,-1,-1,-1,-1,-1,-1,-1,-1,-1,-1,-1,-1,-1,-1,-1,-1,-1,-1,-1,-1,-1,-1,-1,-1,-1,-1,-1,-1,-1,-1],"split_conditions":[5.96E-1,2.260606E-1,9.3608505E-1,8.65E-1,4.75E-1,1.6666667E-1,8.27E-1,5.070669E-1,5.6235147E-1,3.181818E-1,1.4108817E-1,9.19E-1,2.6363635E-1,5.6E-1,5.38E-1,7.5E-2,9.5159477E-1,9.35E-1,8.19931E-3,8.19E-1,1.6985616E-1,9.42E-1,1E0,2.260606E-1,9.91E-1,8.7191993E-1,1.438399E-2,3.5272726E-1,5.84E-1,2.6848486E-1,2.09E-1,-1.9391222E-2,-1.2894887E-4,-1.4883879E-2,7.7643694E-4,-1.4255834E-3,-1.2427292E-2,-1.3799431E-2,-1.454017E-3,1.9953842E-3,2.305046E-4,7.1179407E-4,-8.098277E-3,1.9479003E-4,-2.354379E-3,-1.9184548E-2,6.7314357E-3,-1.1931187E-2,1.2152106E-2,3.956007E-3,-3.9871684E-3,-2.9667818E-3,7.436154E-4,-8.235423E-2,-6.84284E-3,-1.8617444E-2,1.4911842E-3,-1.1568513E-2,5.0179166E-5,-2.3625705E-3,2.2213308E-3],"split_indices":[2,0,8,5,1,10,4,8,8,0,8,7,0,5,5,1,8,5,0,4,8,7,11,0,7,8,8,0,5,0,1,0,0,0,0,0,0,0,0,0,0,0,0,0,0,0,0,0,0,0,0,0,0,0,0,0,0,0,0,0,0],"split_type":[0,0,0,0,0,0,0,0,0,0,0,0,0,0,0,0,0,0,0,0,0,0,0,0,0,0,0,0,0,0,0,0,0,0,0,0,0,0,0,0,0,0,0,0,0,0,0,0,0,0,0,0,0,0,0,0,0,0,0,0,0],"sum_hessian":[9.775E3,7.06E3,2.715E3,8.3E1,6.977E3,2.614E3,1.01E2,6.7E1,1.6E1,3.322E3,3.655E3,7.2E1,2.542E3,1.6E1,8.5E1,3.5E1,3.2E1,6E0,1E1,2E2,3.122E3,7.99E2,2.856E3,3.6E1,3.6E1,1.97E2,2.345E3,3E0,1.3E1,6E0,7.9E1,4E0,3.1E1,2.9E1,3E0,4E0,2E0,2.4E1,1.76E2,7.96E2,2.326E3,3.99E2,4E2,2.667E3,1.89E2,5E0,3.1E1,3.3E1,3E0,1.85E2,1.2E1,4.9E1,2.296E3,2E0,1E0,4E0,9E0,4E0,2E0,2.4E1,5.5E1],"tree_param":{"num_deleted":"0","num_feature":"12","num_nodes":"61","size_leaf_vector":"1"}},{"base_weights":[-1.0539203E-4,-2.2603262E-3,1.3885994E-3,-1.7802514E-2,-2.2251936E-4,7.4061374E-3,4.9517916E-5,-4.542783E-2,4.2384774E-3,-1.594713E-2,1.249E-3,-1.8097468E-2,1.2839541E-2,5.8476054E-3,-2.1233032E-3,2.5657576E-3,-7.8493625E-2,1.1239143E-2,-7.998144E-2,-2.5290828E-2,2.0049354E-2,-1.1350913E-2,1.7585856E-3,-5.604982E-2,2.0876648E-2,1.5176929E-2,-2.6490252E-2,-2.6412563E-2,6.6905497E-3,-2.9752252E-3,4.9895337E-3,2.5591827E-3,-1.7048797E-2,-7.810683E-3,-2.1644456E-2,-1.2109026E-2,3.5369203E-3,-2.223623E-2,7.1707848E-3,-1.6043981E-3,-9.441696E-3,-4.3028304E-3,6.25723E-3,-6.467829E-3,2.9246495E-3,2.5340556E-3,2.4578834E-4,1.2506303E-2,-1.587136E-2,-1.2491386E-2,5.2767657E-3,-3.2106505E-3,3.5068223E-3,-3.6502544E-2,-9.224821E-4,-6.283681E-2,-1.5202909E-3,-8.081905E-3,1.4584822E-3,7.23449E-4,-7.860589E-4,-2.0032553E-2,1.167561E-3],"categories":[],"categories_nodes":[],"categories_segments":[],"categories_sizes":[],"default_left":[0,0,0,0,0,0,0,0,0,0,0,0,0,0,0,0,0,0,0,0,0,0,0,0,0,0,0,0,0,0,0,0,0,0,0,0,0,0,0,0,0,0,0,0,0,0,0,0,0,0,0,0,0,0,0,0,0,0,0,0,0,0,0],"id":26,"left_children":[1,3,5,7,9,11,13,15,17,19,21,23,25,27,29,31,33,35,37,39,41,43,45,47,49,51,53,55,57,59,61,-1,-1,-1,-1,-1,-1,-1,-1,-1,-1,-1,-1,-1,-1,-1,-1,-1,-1,-1,-1,-1,-1,-1,-1,-1,-1,-1,-1,-1,-1,-1,-1],"loss_changes":[3.147651E-2,1.2677896E-1,4.6526372E-2,2.827172E-1,8.193222E-2,1.4587086E-1,5.9526347E-2,3.2711226E-1,1.5360415E-1,1.02418184E-1,2.08103E-2,2.748146E-1,8.0104455E-2,3.520197E-2,2.0841628E-2,7.744691E-2,1.3881916E-1,1.1211453E-1,7.626687E-2,9.083794E-2,3.009665E-2,6.916201E-2,1.7975423E-2,2.64757E-1,4.38697E-2,6.057237E-2,1.664165E-1,1.7625067E-1,3.589945E-2,1.9343747E-2,3.340948E-2,0E0,0E0,0E0,0E0,0E0,0E0,0E0,0E0,0E0,0E0,0E0,0E0,0E0,0E0,0E0,0E0,0E0,0E0,0E0,0E0,0E0,0E0,0E0,0E0,0E0,0E0,0E0,0E0,0E0,0E0,0E0,0E0],"parents":[2147483647,0,0,1,1,2,2,3,3,4,4,5,5,6,6,7,7,8,8,9,9,10,10,11,11,12,12,13,13,14,14,15,15,16,16,17,17,18,18,19,19,20,20,21,21,22,22,23,23,24,24,25,25,26,26,27,27,28,28,29,29,30,30],"right_children":[2,4,6,8,10,12,14,16,18,20,22,24,26,28,30,32,34,36,38,40,42,44,46,48,50,52,54,56,58,60,62,-1,-1,-1,-1,-1,-1,-1,-1,-1,-1,-1,-1,-1,-1,-1,-1,-1,-1,-1,-1,-1,-1,-1,-1,-1,-1,-1,-1,-1,-1,-1,-1],"split_conditions":[5E-1,7.467167E-2,1.2332708E-1,4.6976978E-1,8.5E-2,1.5465465E-1,2.77E-1,6.393939E-1,9.68E-1,6.241401E-1,2.5030303E-1,4.99E-1,9.94E-1,5.19E-1,9.86E-1,9.87E-1,9.39E-1,1.6666667E-1,9.94E-1,5.38E-1,3.4727272E-1,7.85E-1,4.7E-2,8.98E-1,5.50344E-3,5.5E-2,1.31E-1,3.4E-2,5E-3,1.2332332E-1,1.2595372E-1,2.5591827E-3,-1.7048797E-2,-7.810683E-3,-2.1644456E-2,-1.2109026E-2,3.5369203E-3,-2.223623E-2,7.1707848E-3,-1.6043981E-3,-9.441696E-3,-4.3028304E-3,6.25723E-3,-6.467829E-3,2.9246495E-3,2.5340556E-3,2.4578834E-4,1.2506303E-2,-1.587136E-2,-1.2491386E-2,5.2767657E-3,-3.2106505E-3,3.5068223E-3,-3.6502544E-2,-9.224821E-4,-6.283681E-2,-1.5202909E-3,-8.081905E-3,1.4584822E-3,7.23449E-4,-7.860589E-4,-2.0032553E-2,1.167561E-3],"split_indices":[10,8,8,6,9,6,9,0,5,8,0,9,7,5,7,7,7,10,5,1,0,5,3,7,8,9,9,1,9,6,8,0,0,0,0,0,0,0,0,0,0,0,0,0,0,0,0,0,0,0,0,0,0,0,0,0,0,0,0,0,0,0,0],"split_type":[0,0,0,0,0,0,0,0,0,0,0,0,0,0,0,0,0,0,0,0,0,0,0,0,0,0,0,0,0,0,0,0,0,0,0,0,0,0,0,0,0,0,0,0,0,0,0,0,0,0,0,0,0,0,0,0,0,0,0,0,0,0,0],"sum_hessian":[9.775E3,4.002E3,5.773E3,4.63E2,3.539E3,1.05E3,4.723E3,2.05E2,2.58E2,3.02E2,3.237E3,1.84E2,8.66E2,1.287E3,3.436E3,8.4E1,1.21E2,2.39E2,1.9E1,2.4E2,6.2E1,1.25E2,3.112E3,9.3E1,9.1E1,8.18E2,4.8E1,3.2E1,1.255E3,3.069E3,3.67E2,7.6E1,8E0,5.3E1,6.8E1,1.9E1,2.2E2,1.5E1,4E0,1.35E2,1.05E2,1.3E1,4.9E1,6.9E1,5.6E1,1.43E2,2.969E3,1.5E1,7.8E1,5E0,8.6E1,5.7E1,7.61E2,5E0,4.3E1,1E0,3.1E1,1.5E1,1.24E3,3.88E2,2.681E3,2E0,3.65E2],"tree_param":{"num_deleted":"0","num_feature":"12","num_nodes":"63","size_leaf_vector":"1"}},{"base_weights":[-1.0631481E-4,-2.9038535E-3,8.4038224E-4,-1.77364E-2,-4.3272495E-4,1.4824216E-3,-3.3742865E-3,-3.425866E-2,3.8362527E-3,-2.4724996E-2,