tree
version=v4
num_class=1
num_tree_per_iteration=1
label_index=0
max_feature_idx=11
objective=regression
feature_names=average_dispersal weekly_remating_chance mosquito_reproduction_chance animal_biting_rate viability_fitness female_fecundity_fitness germline_resistance_rate drive_conversion_efficiency embryo_resistance_rate functional_resistance_proportion low-density_growth_rate seasonal_population_change
feature_infos=[0.20000000000000001:1] [0:1] [0.25:1] [0:1] [0.80000000000000004:1] [0.5:1] [0:1] [0.80000000000000004:1] [0:1] [0:1] [0.1111111111111111:1] [0:1]
tree_sizes=2699 2823 2789 2831 2832 2844 2831 2849 2850 2835 2849 2845 2833 2871 2892 2867 2860 2902 2895 2867 2891 2892 2877 2885 2907 2917 2881 2911 2867 2895 2877 2867 2907 2916 2901 2911 2868 2908 2906 2883 2920 2913 2879 2929 2911 2914 2899 2875 2883 2888 2904 2899 2912 2908 2903 2931 2891 2904 2918 2962 2891 2921 2909 2913 2951 2928 2889 2936 2877 2909 2921 2903 2900 2916 2932 2902 2962 2905 2947 2941 2921 2881 2939 2913 2891 2917 2941 2919 2863 2878 2947 2926 2903 2921 2919 2920 2927 2959 2925 2933

Tree=0
num_leaves=31
num_cat=0
split_feature=9 8 7 9 9 8 6 8 9 10 10 10 8 7 1 8 9 10 7 9 8 8 10 9 10 8 6 8 9 10
split_gain=52.7329 23.9779 9.05863 7.15608 5.54186 5.65531 5.03875 4.98438 3.58436 2.70431 2.45276 2.4289 2.33019 2.25458 1.55863 1.48473 1.41111 1.38408 1.38209 1.33827 1.22036 1.16521 1.00052 0.99681 0.958534 0.956545 0.949862 0.892537 1.10972 1.01447
threshold=0.040500000000000015 0.049843652282676683 0.96150000000000013 0.010500000000000001 0.15050000000000002 0.15803627267041906 0.14229229229229226 0.24821763602251404 0.38750000000000001 0.13888888888888892 0.25000000000000006 0.13888888888888892 0.15040650406504066 0.96050000000000024 0.43350000000000005 0.017948717948717951 0.35350000000000004 0.36111111111111116 0.92050000000000021 0.28450000000000003 0.25159474671669801 0.015196998123827394 0.25000000000000006 0.10349999999995001 0.5277777777777779 0.12601626016260162 0.23148148148148145 0.14202626641651028 0.40250000000000002 0.25000000000000006
decision_type=2 2 2 2 2 2 2 2 2 2 2 2 2 2 2 2 2 2 2 2 2 2 2 2 2 2 2 2 2 2
left_child=3 2 6 20 5 13 19 18 14 12 16 -7 -6 22 -4 24 -8 -9 -5 -2 -1 -21 -3 -12 -10 -20 -24 28 29 -11
right_child=1 4 8 7 9 11 10 17 15 27 23 -13 -14 -15 -16 -17 -18 -19 25 21 -22 -23 26 -25 -26 -27 -28 -29 -30 -31
leaf_value=0.80242872428452339 0.84114642886413959 0.88344550213878614 0.8800176023411671 0.89350662146640114 0.88760037052015006 0.89018343896574115 0.86940161074294475 0.88740478915500431 0.8413050582815591 0.91540013399565057 0.9055388973510522 0.95017408775740753 0.94373481056002739 0.87528104426985631 0.82665932265059539 0.91847596192345704 0.92843410021634987 0.9261138208161569 0.82746532431518682 0.86176295069946673 0.84850834848860446 0.92113905487646641 0.89582595865521664 0.95166285120688621 0.89954365697443472 0.86941047735524613 0.94076838022516585 0.95815055220340462 0.95614842265495248 0.94685311269922035
leaf_weight=39 20 21 41 39 35 28 25 53 20 48 20 753 191 55 47 89 46 122 44 20 56 39 24 298 26 43 87 6397 767 282
leaf_count=39 20 21 41 39 35 28 25 53 20 48 20 753 191 55 47 89 46 122 44 20 56 39 24 298 26 43 87 6397 767 282
internal_value=0.948938 0.951956 0.916099 0.877448 0.954808 0.940543 0.931906 0.892552 0.882925 0.956597 0.941258 0.948023 0.935041 0.909302 0.851519 0.903397 0.907648 0.914391 0.862221 0.885856 0.829591 0.901012 0.923477 0.948762 0.874223 0.848197 0.931051 0.957247 0.951976 0.942278
internal_weight=0 9379 691 396 8688 968 468 301 223 7720 389 781 226 187 88 135 71 175 126 79 95 59 132 318 46 87 111 7494 1097 330
internal_count=9775 9379 691 396 8688 968 468 301 223 7720 389 781 226 187 88 135 71 175 126 79 95 59 132 318 46 87 111 7494 1097 330
is_linear=0
shrinkage=1


Tree=1
num_leaves=31
num_cat=0
split_feature=9 8 9 7 8 6 10 10 10 8 7 10 10 8 9 7 8 9 8 7 9 8 10 0 6 8 0 6 8 9
split_gain=34.2464 14.0153 7.93373 6.42464 5.52381 4.65123 2.96029 2.39765 2.04499 1.87746 1.65913 1.63274 1.4346 1.43403 2.83177 1.3126 1.22339 1.2146 0.977791 0.913814 0.883935 0.803901 0.781044 0.745873 0.710477 0.71021 0.743536 0.693355 0.685051 0.626809
threshold=0.064500000000000016 0.047091932457786125 0.015500000000000005 0.98550000000000015 0.24821763602251404 0.23558558558558557 0.13888888888888892 0.19444444444444445 0.47222222222222227 0.15040650406504066 0.9105000000000002 0.25000000000000006 0.30555555555555564 0.13327079424640403 0.18949999999995001 0.97850000000000004 0.59999999999999998 0.36950000000000005 0.14427767354596618 0.9295000000000001 0.28750000000000003 0.46635397123201999 0.47222222222222227 0.25303030303030311 0.65890890890890896 0.028455284552845472 0.78151515151515161 0.17267267267267269 0.40569105691056911 0.028500000000000001
decision_type=2 2 2 2 2 2 2 2 2 2 2 2 2 2 2 2 2 2 2 2 2 2 2 2 2 2 2 2 2 2
left_child=2 3 16 5 10 8 9 24 19 -3 -4 21 -5 14 15 27 -1 28 -12 -2 22 -6 -9 -15 -7 26 -14 -8 -11 -13
right_child=1 6 4 12 11 7 13 20 -10 17 18 29 25 23 -16 -17 -18 -19 -20 -21 -22 -23 -24 -25 -26 -27 -28 -29 -30 -31
leaf_value=-0.096613038929977593 -0.042599269598722456 -0.054584097444811575 -0.027463037962093952 -0.11491114395856857 -0.068230921551585208 -0.074413964761929074 -0.047780510850928049 -0.045018668022627634 -0.027586419122914475 -0.049415685704776224 -0.083025471315803859 -0.023607315422153812 -0.050618682394269858 -0.002955548181190564 0.0032864348850751134 -0.05916587216520889 -0.049185771412319612 0.0025376006150296198 -0.049914882086838287 -0.095181328860613021 0.0044261092324242258 -0.021532987571995836 -0.0033575083667205445 0.0073664926686206186 -0.026385399328345167 -0.027231305763125421 -0.10040276419548762 -0.0085276310512034052 -0.010873098153238878 -0.0010060036571040375
leaf_weight=112 20 42 50 25 30 22 22 30 75 35 88 71 28 292 983 36 27 141 60 39 280 29 45 6827 28 20 21 99 39 159
leaf_count=112 20 42 50 25 30 22 22 30 75 35 88 71 28 292 983 36 27 141 60 39 280 29 45 6827 28 20 21 99 39 159
internal_value=0 0.00309656 -0.0452563 -0.0256153 -0.0332274 -0.0172009 0.00523073 -0.00651416 -0.0495003 -0.0159079 -0.058961 -0.0155967 -0.0738637 0.00588851 -0.000697204 -0.0256394 -0.0874005 -0.00835255 -0.0696023 -0.0773569 -0.000738978 -0.0452777 -0.020022 0.00694311 -0.047518 -0.0589914 -0.0719547 -0.0156645 -0.0291027 -0.00798293
internal_weight=0 9149 626 633 487 539 8516 405 134 257 198 289 94 8259 1140 157 139 215 148 59 355 59 75 7119 50 69 49 121 74 230
internal_count=9775 9149 626 633 487 539 8516 405 134 257 198 289 94 8259 1140 157 139 215 148 59 355 59 75 7119 50 69 49 121 74 230
is_linear=0
shrinkage=0.2


Tree=2
num_leaves=31
num_cat=0
split_feature=9 8 7 9 9 8 8 9 8 6 4 1 1 6 7 7 8 0 9 2 7 9 0 8 6 6 9 0 8 8
split_gain=22.1351 10.0651 4.68817 3.47874 3.43025 2.57193 1.8476 1.8237 1.54534 1.21684 0.957627 0.929459 0.885301 0.872313 0.829843 0.828659 0.825314 0.80569 0.651264 0.644686 0.640315 0.630479 0.619642 0.613603 0.594237 0.558223 0.48984 0.464685 0.451187 0.412081
threshold=0.044500000000000005 0.068480300187617207 0.9405 0.010500000000000001 0.23349999999995003 0.24821763602251404 0.017948717948717951 0.1595 0.096372732958098714 0.22737737737737737 0.96350000000000013 0.52350000000000008 0.82950000000000002 0.39444444444444449 0.90450000000000019 0.92050000000000021 0.020700437773608509 0.49606060606060609 0.19350000000000003 0.3775 0.97850000000000004 0.31450000000000006 0.25909090909090909 0.18405253283302067 0.58593593593593607 0.19194194194194197 0.69450000000000001 0.22878787878787879 0.12601626016260162 0.047091932457786125
decision_type=2 2 2 2 2 2 2 2 2 2 2 2 2 2 2 2 2 2 2 2 2 2 2 2 2 2 2 2 2 2
left_child=3 2 9 17 10 15 11 8 -3 16 20 -6 26 -14 -7 -5 -2 -1 24 -16 29 -18 -10 25 -11 -24 -8 -9 -17 -4
right_child=1 7 4 5 6 14 12 27 22 18 -12 -13 13 -15 19 28 21 -19 -20 -21 -22 -23 23 -25 -26 -27 -28 -29 -30 -31
leaf_value=-0.043277034163475038 -0.049087367101262019 -0.041388480057052916 -0.054268619511276484 -0.032423823608292476 -0.026296270609006512 -0.0016940076741626235 -0.017082610520446906 -0.0052232588119976268 -0.029521828485303561 -0.043664409876579331 -0.099235352355500933 -0.065055906031280752 -0.065684609309149294 -0.013722933948572194 -0.049129817682470003 -0.077481410072909471 -0.037046195122484978 -0.087663482421556041 0.0066603890277703668 -0.019250945048539012 -0.076947895784316392 -0.00011358521878719331 -0.040163240045309072 0.0011280739766857068 0.00051155352728152323 -0.0074250612082891162 0.0014458582257327525 0.0055747430561391385 -0.050365578131620882 -0.018212870393125784
leaf_weight=21 30 42 32 45 49 67 128 163 32 21 23 50 24 28 43 54 26 74 292 88 29 64 25 752 29 125 103 7250 45 21
leaf_count=21 30 42 32 45 49 67 128 163 32 21 23 50 24 28 43 54 26 74 292 88 29 64 25 752 29 125 103 7250 45 21
internal_value=0 0.00205886 -0.0174636 -0.0439945 -0.0311552 -0.0345897 -0.0223551 0.00426732 -0.00385955 -0.00303112 -0.0631711 -0.0458718 -0.0141284 -0.0377052 -0.0197988 -0.0549272 -0.0203591 -0.0778517 0.00304888 -0.0290585 -0.0530555 -0.010783 -0.00217195 -0.00120167 -0.0180424 -0.0128814 -0.008821 0.00533731 -0.065156 -0.0399824
internal_weight=0 9338 949 437 487 342 382 8389 976 462 105 99 283 52 198 144 120 95 342 131 82 90 934 902 50 150 231 7413 99 53
internal_count=9775 9338 949 437 487 342 382 8389 976 462 105 99 283 52 198 144 120 95 342 131 82 90 934 902 50 150 231 7413 99 53
is_linear=0
shrinkage=0.2


Tree=3
num_leaves=31
num_cat=0
split_feature=9 8 7 9 8 6 8 7 9 1 7 8 7 9 9 7 9 6 9 6 0 1 7 9 5 0 8 6 9 9
split_gain=14.8802 6.6494 3.01209 2.89727 2.43937 2.43688 1.92368 1.36766 1.2924 0.920729 0.919173 0.72104 1.13788 0.905219 0.675082 0.605684 0.644998 0.480463 0.519393 0.457603 0.454598 0.451012 0.448633 0.383187 0.375261 0.375111 0.361879 0.355568 0.347864 0.327932
threshold=0.028500000000000001 0.044215134459036902 0.98550000000000015 0.10349999999995001 0.16328955597248282 0.23558558558558557 0.24821763602251404 0.9295000000000001 0.19850000000000004 0.52350000000000008 0.96250000000000002 0.10737961225766106 0.97850000000000004 0.27950000000000003 0.46749999999995001 0.90050000000000019 0.0055000000000000005 0.16881881881881886 0.35350000000000004 0.76836836836836842 0.27303030303030307 0.34150000000000008 0.92750000000000021 0.47349999999995002 0.76350000000000018 0.76696969696969697 0.47917448405253288 0.53238238238238245 0.068500000000000019 0.010500000000000001
decision_type=2 2 2 2 2 2 2 2 2 2 2 2 2 2 2 2 2 2 2 2 2 2 2 2 2 2 2 2 2 2
left_child=6 2 5 4 10 7 29 -2 25 27 19 12 17 -14 -9 -8 -17 18 -5 -3 -13 -18 -6 -11 -12 -7 28 -4 -24 -1
right_child=1 3 9 11 22 8 15 14 -10 23 24 20 13 -15 -16 16 21 -19 -20 -21 -22 -23 26 -25 -26 -27 -28 -29 -30 -31
leaf_value=-0.08126231952546499 -0.013670494855103785 -0.030118357947341995 -0.050823879411274746 -0.02699503455660306 0.0026264194510600895 -0.01736446043061143 -0.012537030734949642 -0.075611882821163712 -5.4789426115651926e-05 -0.091566186846995912 -0.037638881226025878 -0.0018637230917937818 -0.046481043704347136 -0.0092217376039895639 -0.036819788225387277 -0.070686227625066586 -0.014936664845380518 0.0041978732525261454 -0.00038181941702284598 0.002839618709615686 0.0047504335124134078 -0.042841318211016749 -0.021386568502699262 -0.054645788872047608 -0.074247861249993247 -0.047744070594038429 0.0032904514902517856 -0.015623031385863821 -0.0047111525596614853 -0.058317896615767834
leaf_weight=39 57 72 22 44 236 37 45 34 330 22 21 442 34 112 38 22 36 544 88 22 6975 65 107 23 24 29 68 24 94 69
leaf_count=39 57 72 22 44 236 37 45 34 330 22 21 442 34 112 38 22 36 544 88 22 6975 65 107 23 24 29 68 24 94 69
internal_value=0 0.00133012 -0.0187641 0.00272358 -0.0101957 -0.0129416 -0.0457784 -0.0368153 -0.0051645 -0.0523559 -0.0336577 0.00373341 -0.00188677 -0.0178986 -0.0551383 -0.0323909 -0.0396545 0.00157139 -0.00925289 -0.0224048 0.00435628 -0.0328951 -0.00373787 -0.0726958 -0.0571637 -0.0307131 -0.00932141 -0.0324582 -0.0135881 -0.0666034
internal_weight=0 9499 616 8883 644 525 276 129 396 91 139 8239 822 146 72 168 123 676 132 94 7417 101 505 45 45 66 269 46 201 108
internal_count=9775 9499 616 8883 644 525 276 129 396 91 139 8239 822 146 72 168 123 676 132 94 7417 101 505 45 45 66 269 46 201 108
is_linear=0
shrinkage=0.2


Tree=4
num_leaves=31
num_cat=0
split_feature=9 8 10 8 7 9 10 10 6 10 9 8 8 7 9 10 5 5 7 7 8 8 7 6 0 7 10 8 9 8
split_gain=9.67667 3.68956 3.51585 2.62855 2.3479 1.52885 1.40288 1.28732 1.23419 1.09304 1.0118 0.757997 0.686266 0.679341 0.635098 0.601522 0.593796 0.586608 0.511184 0.487844 0.481244 0.472687 0.446205 0.536123 0.442434 0.410356 0.371789 0.514893 0.652096 0.370459
threshold=0.068500000000000019 0.071857410881801129 0.13888888888888892 0.13689806128830515 0.97850000000000004 0.020500000000000001 0.13888888888888892 0.41666666666666669 0.14229229229229226 0.25000000000000006 0.50450000000000006 0.28736710444027519 0.034146341463414574 0.93949999999999989 0.49750000000000005 0.36111111111111116 0.77750000000000019 0.94850000000000001 0.93949999999999989 0.90150000000000008 0.44759224515322082 0.32914321450906819 0.93550000000000033 0.42427427427427433 0.76272727272727259 0.94650000000000001 0.19444444444444445 0.18730456535334586 0.31450000000000006 0.10168855534709188
decision_type=2 2 2 2 2 2 2 2 2 2 2 2 2 2 2 2 2 2 2 2 2 2 2 2 2 2 2 2 2 2
left_child=3 2 -2 13 8 20 10 16 14 19 11 -3 24 -1 18 17 -6 22 -4 -7 -5 25 -10 -24 -9 -11 27 28 -8 -15
right_child=1 6 4 5 7 9 26 12 15 21 -12 -13 -14 29 -16 -17 -18 -19 -20 -21 -22 -23 23 -25 -26 -27 -28 -29 -30 -31
leaf_value=-0.033411906842744296 -0.068067606315016752 -0.047582774312468247 -0.016227099392563105 -0.045941620051328624 -0.028126614984984585 -0.0072753604186405231 -0.041169590675444519 -0.014163567416512202 0.0055777891189791266 -0.003928387274167367 0.00038890427694870879 -0.013645157488909635 0.0031971764872255532 -0.068454861565044642 -0.0065902692697230071 0.0050373994231299743 -0.067566096953846314 -0.041114498265087611 -0.051703812142438965 -0.042361647212266124 -0.022317871389061432 0.0022176460534667169 -0.043021801342478114 -0.0049418104737997057 -0.047684325404199111 -0.027383619675842616 0.003905407901940175 0.0014751982346707933 -0.0047231415726451415 -0.03659058764576912
leaf_weight=82 40 40 32 70 26 23 27 36 80 70 130 77 46 54 68 443 37 20 33 51 68 179 21 50 28 52 7407 393 72 20
leaf_count=82 40 40 32 70 26 23 27 36 80 70 130 77 46 54 68 443 37 20 33 51 68 179 21 50 28 52 7407 393 72 20
internal_value=0 0.00170563 -0.0100215 -0.0232159 -0.00749771 -0.0163027 0.00308765 -0.0284926 -0.00263545 -0.00967934 -0.0117548 -0.0252478 -0.0154362 -0.0459497 -0.0201025 0.00114813 -0.0512895 -0.00892757 -0.0342384 -0.0314564 -0.0343009 -0.0043255 -0.00466441 -0.0162049 -0.0288289 -0.0139257 0.00355177 -0.00177214 -0.0146631 -0.0598429
internal_weight=0 9106 960 669 920 513 8146 173 747 375 247 117 110 156 133 614 63 171 65 74 138 301 151 71 64 122 7899 492 99 74
internal_count=9775 9106 960 669 920 513 8146 173 747 375 247 117 110 156 133 614 63 171 65 74 138 301 151 71 64 122 7899 492 99 74
is_linear=0
shrinkage=0.2


Tree=5
num_leaves=31
num_cat=0
split_feature=8 10 8 7 10 6 8 7 1 7 5 10 1 10 0 11 6 0 2 4 0 10 6 7 10 8 5 6 0 8
split_gain=3.43261 2.11004 1.543 1.21791 1.16991 0.93461 0.671014 0.905477 0.66026 0.570252 0.570006 0.482603 0.454909 0.394357 0.393421 0.352661 0.308011 0.293728 0.475394 0.290347 0.281051 0.43714 0.277589 0.27283 0.234367 0.233269 0.191241 0.248135 0.179953 0.182633
threshold=0.023202001250781677 0.19444444444444445 0.18968105065666044 0.97250000000000003 0.5277777777777779 0.12342342342342344 0.12601626016260162 0.97549999999999992 0.53950000000000009 0.96150000000000013 0.79950000000000021 0.41666666666666669 0.52750000000000019 0.36111111111111116 0.68090909090909102 0.68750000000000011 0.49734734734734748 0.22878787878787879 0.42050000000000004 0.95750000000000013 0.80393939393939406 0.5277777777777779 0.43603603603603608 0.93949999999999989 0.13888888888888892 0.76904315196998141 0.70950000000000002 0.40985985985985984 0.28878787878787854 0.47435897435897445
decision_type=2 2 2 2 2 2 2 2 2 2 2 2 2 2 2 2 2 2 2 2 2 2 2 2 2 2 2 2 2 2
left_child=3 2 9 5 -5 -1 7 13 26 16 -10 14 -6 19 -7 22 24 18 -8 -3 21 -12 -11 -21 -2 -20 -9 -28 -4 -30
right_child=1 6 28 4 12 11 17 8 10 15 20 -13 -14 -15 -16 -17 -18 -19 25 23 -22 -23 -24 -25 -26 -27 27 -29 29 -31
leaf_value=-0.041940548380789089 -0.038968847565619011 -0.0025979636187934466 -0.015306632007316998 -0.073221395711104073 -0.0034230898444851244 -0.0060070531215900801 -0.02924251677789565 0.0074810309315343276 -0.010139765530090099 -0.064283025690487453 -0.047448557581413878 -0.00058563189595588487 -0.043730344729764122 0.0021972635347737766 -0.034066515761177717 -0.017309444568430386 -0.0063638039732452582 0.0026042447578724552 0.0040184160584065412 -0.0073822080133817136 -0.055787696838378913 -0.0080145320531142799 -0.033864351540770651 -0.033258521942687885 -0.016923112794756889 -0.015448039866080791 -0.020333769116550687 -0.00012924885602607844 -0.0052575457240467477 0.0020973711742411755
leaf_weight=39 28 166 48 30 24 39 29 46 71 21 22 128 21 856 41 24 74 7054 97 39 20 23 28 28 62 33 40 62 369 213
leaf_count=39 28 166 48 30 24 39 29 46 71 21 22 128 21 856 41 24 74 7054 97 39 20 23 28 28 62 33 40 62 369 213
internal_value=0 0.000691715 -0.0087115 -0.0203068 -0.0426284 -0.0135289 0.00164124 -0.00241126 -0.0124687 -0.0224677 -0.0225285 -0.00820175 -0.0222331 0.000211617 -0.0203875 -0.0371722 -0.0159225 0.00241263 -0.00608825 -0.00708329 -0.0360609 -0.0272934 -0.0469009 -0.0181962 -0.0237818 -0.000923069 -0.00322457 -0.00805259 -0.00353653 -0.0025658
internal_weight=0 9453 867 322 75 247 8586 1373 284 237 136 208 45 1089 80 73 164 7213 159 233 65 45 49 67 90 130 148 102 630 582
internal_count=9775 9453 867 322 75 247 8586 1373 284 237 136 208 45 1089 80 73 164 7213 159 233 65 45 49 67 90 130 148 102 630 582
is_linear=0
shrinkage=0.2


Tree=6
num_leaves=31
num_cat=0
split_feature=9 8 6 9 9 8 8 7 1 9 7 2 6 1 2 7 9 7 4 0 9 7 1 1 9 9 6 6 6 8
split_gain=6.32395 1.90892 1.30247 1.15661 1.12069 1.02045 1.0069 0.872504 0.65119 0.52138 0.518286 0.510818 0.494219 0.467317 0.411497 0.381636 0.361774 0.400456 0.351409 0.322265 0.313672 0.313074 0.287214 0.268431 0.242401 0.232757 0.232439 0.227973 0.21563 0.192585
threshold=0.032500000000000008 0.041838649155722267 0.57012012012012014 0.22149999999995001 0.17550000000000002 0.18405253283302067 0.44277673545966229 0.96250000000000002 0.74250000000000016 0.0055000000000000005 0.97850000000000004 0.33350000000000007 0.70745745745745758 0.61850000000000016 0.34950000000000003 0.91750000000000009 0.34499999999995007 0.93550000000000033 0.88950000000000007 0.40333333333333338 0.079500000000000015 0.95950000000000013 0.43350000000000005 0.22250000000000003 0.49750000000000005 0.015500000000000005 0.39039039039039047 0.35040040040040049 0.26911911911911918 0.46885553470919333
decision_type=2 2 2 2 2 2 2 2 2 2 2 2 2 2 2 2 2 2 2 2 2 2 2 2 2 2 2 2 2 2
left_child=6 2 4 5 -2 8 9 14 15 -1 12 -8 18 24 28 -3 17 -4 -11 23 26 27 -14 -7 -9 -13 -17 -10 -6 -21
right_child=1 3 16 -5 7 19 11 13 21 10 -12 25 22 -15 -16 20 -18 -19 -20 29 -22 -23 -24 -25 -26 -27 -28 -29 -30 -31
leaf_value=-0.060452583686759077 -0.049519238539221813 0.0027954885023063984 0.0077185044948268559 0.0027651316620781602 -0.038871582988649608 -0.020153656978236172 -0.039640606709078631 -0.031646385582696113 -0.033715488873422149 -0.017713586071265802 -0.055870461985468869 -0.017929918672113368 0.0070449045016652062 -0.047453582624124517 -0.0014114196209325078 -0.04028483011314403 0.0056276721833675202 -0.02204837509295127 -0.04352843189386256 -0.00080442311484061756 -0.0073533718044833316 -0.038349341217774988 -0.02389663536367672 -0.0034668724188961875 -0.0053295827337673735 0.0029904501369366282 -0.013925970612035599 -0.0077720269366788374 -0.01017813782461665 0.0048055818809994632
leaf_weight=30 41 105 29 7178 20 49 22 28 20 31 30 36 21 37 148 23 174 48 66 672 154 43 28 181 28 52 32 42 22 385
leaf_count=30 41 105 29 7178 20 49 22 28 20 31 30 36 21 37 148 23 174 48 66 672 154 43 28 181 28 52 32 42 22 385
internal_value=0 0.000929794 -0.0102381 0.00165261 -0.0186162 -0.0030283 -0.027832 -0.014139 -0.011601 -0.0360818 -0.0319277 -0.0123824 -0.0270079 -0.0300119 -0.00636969 -0.00704164 0.000576612 -0.0108375 -0.0352783 -0.00023734 -0.0119837 -0.0252358 -0.010636 -0.00702188 -0.018488 -0.00556788 -0.0249488 -0.0161409 -0.0238417 0.00123896
internal_weight=0 9459 575 8884 324 1706 316 283 419 206 176 110 146 93 190 314 251 77 97 1287 209 105 49 230 56 88 55 62 42 1057
internal_count=9775 9459 575 8884 324 1706 316 283 419 206 176 110 146 93 190 314 251 77 97 1287 209 105 49 230 56 88 55 62 42 1057
is_linear=0
shrinkage=0.2


Tree=7
num_leaves=31
num_cat=0
split_feature=9 10 8 8 7 9 10 9 10 9 6 6 1 1 8 8 7 8 8 7 8 6 7 9 8 7 6 10 5 1
split_gain=4.13478 1.63112 1.20107 1.03286 0.867173 0.856565 0.820864 0.763635 0.701926 0.558762 0.467306 0.461788 0.460957 0.419626 0.384208 0.346685 0.331051 0.330501 0.320567 0.42522 0.301142 0.376954 0.294304 0.283786 0.552298 0.554047 0.521495 0.455687 0.306225 0.236251
threshold=0.028500000000000001 0.13888888888888892 0.077611006879299574 0.017948717948717951 0.99250000000000027 0.084500000000000006 0.36111111111111116 0.22899999999995002 0.47222222222222227 0.20250000000000004 0.44369369369369366 0.37672672672672675 0.43350000000000005 0.71750000000000003 0.63333333333333341 0.36178861788617894 0.92850000000000021 0.36954346466541593 0.28474046278924331 0.96450000000000002 0.24202626641651034 0.33718718718718727 0.95350000000000013 0.42850000000000005 0.085991244527829899 0.98950000000000016 0.11571571571571568 0.25000000000000006 0.78950000000000009 0.56150000000000022
decision_type=2 2 2 2 2 2 2 2 2 2 2 2 2 2 2 2 2 2 2 2 2 2 2 2 2 2 2 2 2 2
left_child=8 2 -2 4 9 6 15 16 14 -3 17 12 -11 -12 -1 -5 -4 -10 19 -9 21 29 -23 24 25 26 28 -28 -7 -8
right_child=1 3 7 5 -6 23 20 18 10 11 13 -13 -14 -15 -16 -17 -18 -19 -20 -21 -22 22 -24 -25 -26 -27 27 -29 -30 -31
leaf_value=-0.042460921216248115 -0.045292771075453077 -0.032060427498072384 -0.011310110325840388 -0.027149410490160703 -0.051091118567135364 -0.0072756445380272698 -0.010676136388443412 -0.0040165865641771537 -0.042269381563445285 0.0039959383550389064 0.0012211592757583795 0.0059463697350021086 -0.028632256989692184 -0.026425140758510681 -0.014365138810127973 -0.007483971592222082 -0.043389294320537203 -0.012500634416937828 0.002841708023649778 -0.038622340578585865 0.0033497844187810122 0.0077319230150481285 -0.015646784558027451 0.002887685472615534 0.0014166222964057716 -0.03162575559408376 -0.022788078304041517 0.0023165587495849395 -0.037397634203511256 -0.039839541078545156
leaf_weight=88 42 33 22 87 21 27 25 49 35 29 70 91 43 32 25 61 31 26 129 20 216 56 35 5216 2919 33 33 234 27 20
leaf_count=88 42 33 22 87 21 27 25 49 35 29 70 91 43 32 25 61 31 26 129 20 216 56 35 5216 2919 33 33 234 27 20
internal_value=0 0.000701154 -0.0139893 0.00116871 -0.0124659 0.00149785 -0.00654662 -0.00875127 -0.0241314 -0.00832745 -0.0157335 -0.00352261 -0.0154903 -0.00745219 -0.036245 -0.0190441 -0.0300734 -0.0295811 -0.00304383 -0.0140472 -0.00129202 -0.00866429 -0.00125989 0.00197167 0.000511873 -0.00694848 -0.00441156 -0.000786262 -0.0223366 -0.0236376
internal_weight=0 9499 293 9206 217 8989 500 251 276 196 163 163 72 102 113 148 53 61 198 69 352 136 91 8489 3273 354 321 267 54 45
internal_count=9775 9499 293 9206 217 8989 500 251 276 196 163 163 72 102 113 148 53 61 198 69 352 136 91 8489 3273 354 321 267 54 45
is_linear=0
shrinkage=0.2


Tree=8
num_leaves=31
num_cat=0
split_feature=9 10 10 9 9 2 0 10 9 9 7 7 1 7 0 5 6 7 1 7 5 9 0 3 0 2 4 2 9 0
split_gain=2.67478 1.10805 0.897059 0.720915 0.530056 0.353189 0.295855 0.289449 0.415731 0.287166 0.318835 0.264838 0.250877 0.248667 0.21817 0.289048 0.202528 0.19539 0.185698 0.171 0.206341 0.309524 0.196154 0.169715 0.168796 0.244938 0.203449 0.163193 0.16123 0.156844
threshold=0.079500000000000015 0.41666666666666669 0.13888888888888892 0.010500000000000001 0.31949999999995005 0.35950000000000004 0.59242424242424241 0.25000000000000006 0.30350000000000005 0.015500000000000005 0.90550000000000008 0.96250000000000002 0.50750000000000006 0.9085000000000002 0.70636363636363642 0.73750000000000004 0.81946946946946964 0.94150000000000011 0.71750000000000003 0.98850000000000005 0.87849999999999995 0.50850000000000006 0.74818181818181795 0.69950000000000012 0.25909090909090909 0.48599999999999999 0.85150000000000003 0.38550000000000001 0.7094999999999001 0.80393939393939406
decision_type=2 2 2 2 2 2 2 2 2 2 2 2 2 2 2 2 2 2 2 2 2 2 2 2 2 2 2 2 2 2
left_child=1 5 4 6 13 12 -3 8 17 -7 -11 16 -1 -2 -12 -16 18 -4 -5 24 -21 22 -22 -20 25 26 -9 -13 -6 -15
right_child=2 3 7 11 28 9 -8 19 -10 10 14 27 -14 29 15 -17 -18 -19 23 20 21 -23 -24 -25 -26 -27 -28 -29 -30 -31
leaf_value=-0.022030718512581413 -0.0074656053687687275 -0.0072591480310074986 -0.0040403955509702187 0.0010495999605441208 -0.0094193082661326744 -0.033473525426557495 -0.037597872089180688 -0.025327733578160407 0.00051055896321857352 -0.0003334018662571907 -0.011058098245914815 -0.020860350283599179 -0.045829217004425389 -0.022270139184381282 -0.007510594581253827 -0.036508319907906379 0.010094798548203526 -0.014933301448855582 -0.0042505658289883289 0.00095995919088854784 -0.005903229053470899 0.0018867154741722546 -0.023211614225059751 -0.025145172829861229 0.0022726608956262872 0.0011113649471109069 -0.0049355382518842823 -0.0046013917040093879 0.0020725873039039071 -0.043530925780372778
leaf_weight=37 27 20 162 181 113 36 36 28 843 50 66 43 34 35 20 44 66 111 48 471 55 89 50 23 6628 227 65 58 86 23
leaf_count=37 27 20 162 181 113 36 36 28 843 50 66 43 34 35 20 44 66 111 48 471 55 89 50 23 6628 227 65 58 86 23
internal_value=0 -0.0113782 0.000961963 -0.00544992 -0.0100999 -0.0211898 -0.0267626 0.00132186 -0.00168615 -0.0171673 -0.013906 -0.00260145 -0.0334272 -0.0233204 -0.0191262 -0.0274465 0.00023229 -0.00846938 -0.00235075 0.00176281 -0.00130105 -0.00679042 -0.0141453 -0.0110192 0.00205606 -0.00243033 -0.0110751 -0.0115235 -0.00445296 -0.0307011
internal_weight=0 762 9013 475 284 287 56 8729 1116 216 180 419 71 85 130 64 318 273 252 7613 665 194 105 71 6948 320 93 101 199 58
internal_count=9775 762 9013 475 284 287 56 8729 1116 216 180 419 71 85 130 64 318 273 252 7613 665 194 105 71 6948 320 93 101 199 58
is_linear=0
shrinkage=0.2


Tree=9
num_leaves=31
num_cat=0
split_feature=9 8 6 10 9 8 8 7 8 7 10 5 9 7 6 8 10 9 10 7 1 6 9 1 6 7 9 8 1 2
split_gain=1.81323 0.861294 0.553129 0.549776 0.897296 0.589884 0.485715 0.468065 0.381163 0.454957 0.32322 0.282216 0.248984 0.284657 0.231027 0.213569 0.292685 0.206061 0.186852 0.165728 0.163369 0.16874 0.15134 0.148028 0.135774 0.133443 0.128538 0.25941 0.188142 0.13438
threshold=0.028500000000000001 0.017948717948717951 0.080930930930930886 0.25000000000000006 0.22899999999995002 0.18968105065666044 0.085991244527829899 0.91850000000000021 0.21438398999374611 0.97050000000000003 0.41666666666666669 0.80950000000000022 0.0055000000000000005 0.95150000000000012 0.48573573573573575 0.7445278298936836 0.13888888888888892 0.49250000000000005 0.36111111111111116 0.95850000000000002 0.71750000000000003 0.45290290290290297 0.015500000000000005 0.3155 0.37672672672672675 0.94349999999999989 0.068500000000000019 0.24202626641651034 0.71750000000000003 0.36550000000000005
decision_type=2 2 2 2 2 2 2 2 2 2 2 2 2 2 2 2 2 2 2 2 2 2 2 2 2 2 2 2 2 2
left_child=6 2 -2 4 5 14 -1 -4 9 17 19 -11 -8 18 -3 16 -7 25 -14 -9 21 -20 -15 -12 -25 -6 27 28 29 -5
right_child=1 3 7 26 8 15 12 10 -10 11 23 -13 13 22 -16 -17 -18 -19 20 -21 -22 -23 -24 24 -26 -27 -28 -29 -30 -31
leaf_value=-0.036066901567959934 -0.041049416946328209 -0.035226099662637962 0.0072606398025527596 -0.016989476183572643 -0.0034350507218262245 -0.025439905975882367 -0.026430926680387486 -0.015540854460700896 0.0023263784831347454 -0.0086073640796045462 0.0056143234201174765 -0.03275021798086955 -0.016789790926850401 -0.032494967826642095 -0.015279181471301452 0.0065957306558266293 -0.0055917536039005612 0.0023416581279972846 -0.0060014405620417433 -0.036264562626080264 -0.013592775992077331 0.014241997123463079 -0.012903296638725567 -0.025460692113265394 -0.005360705771188184 -0.019072722643613815 0.0015885748505563312 0.0021568243833063471 -0.022327698164564723 6.1208321130834517e-05
leaf_weight=41 23 48 56 26 58 37 42 33 770 45 28 34 32 24 45 40 151 174 28 29 23 40 46 20 41 35 7522 186 34 64
leaf_count=41 23 48 56 26 58 37 42 33 770 45 28 34 32 24 45 40 151 174 28 29 23 40 46 20 41 35 7522 186 34 64
internal_value=0 0.000464316 -0.0116255 0.000764312 -0.00283165 -0.0121502 -0.0159802 -0.00835617 -0.000151306 -0.00566523 -0.0141478 -0.018998 -0.0124757 -0.00943885 -0.0255744 -0.00667457 -0.00949804 -0.00172034 -0.00364445 -0.0252342 0.000978085 0.00590646 -0.0196204 -0.00642474 -0.0119509 -0.0093202 0.00142409 -0.00256704 -0.00965283 -0.00486454
internal_weight=0 9499 230 9269 1437 321 276 207 1116 346 151 79 235 193 93 228 188 267 123 62 91 68 70 89 61 93 7832 310 124 90
internal_count=9775 9499 230 9269 1437 321 276 207 1116 346 151 79 235 193 93 228 188 267 123 62 91 68 70 89 61 93 7832 310 124 90
is_linear=0
shrinkage=0.2


Tree=10
num_leaves=31
num_cat=0
split_feature=9 8 8 1 2 6 9 4 9 0 1 6 9 6 5 9 8 7 5 1 6 0 6 5 5 2 1 0 7 1
split_gain=1.1737 1.01121 0.388997 0.365088 0.309753 0.299274 0.291889 0.28535 0.256268 0.207252 0.198117 0.197134 0.191911 0.182496 0.181435 0.181347 0.314137 0.701897 0.466987 0.438025 0.317078 0.312477 0.307718 0.231993 0.221827 0.199435 0.185321 0.167064 0.177732 0.196263
threshold=0.10750000000000001 0.13914946841776113 0.015196998123827394 0.75850000000000017 0.35950000000000004 0.24004004004004004 0.040500000000000015 0.95750000000000013 0.036499999999999998 0.74393939393939379 0.45250000000000007 0.69299299299299311 0.010500000000000001 0.40985985985985984 0.7875000000000002 0.55650000000000011 0.15803627267041906 0.97850000000000004 0.8135 0.22250000000000003 0.40195195195195205 0.25909090909090909 0.16881881881881886 0.78950000000000009 0.64250000000000018 0.39950000000000008 0.5525000000000001 0.26878787878787885 0.9235000000000001 0.88650000000000018
decision_type=2 2 2 2 2 2 2 2 2 2 2 2 2 2 2 2 2 2 2 2 2 2 2 2 2 2 2 2 2 2
left_child=1 3 5 7 6 10 -3 8 -1 -9 -2 -10 14 -5 -6 16 17 22 -19 -20 -21 24 23 -4 -18 -26 -25 -14 -29 -30
right_child=2 4 15 13 12 -7 -8 9 11 -11 -12 -13 27 -15 -16 -17 21 18 19 20 -22 -23 -24 26 25 -27 -28 28 29 -31
leaf_value=-0.020976857748714144 -0.0071889782856617655 -0.019123131245421837 -0.00056832182639534928 -0.045533273064277395 -0.0022516926085310324 -0.003411585025699629 -0.0035188665071055752 -0.013963585017648127 -0.0096811613652257721 -0.039291319359714791 -0.032887010290245863 0.009659895316830704 -0.014761869244372334 -0.022854930739849805 -0.027192857488989832 0.0018813231672200202 -0.021022538770921528 -0.0048326675065647013 0.00048646804034000357 -0.051646965029446983 -0.022669523056935183 0.0013586768144184455 0.0014229700786416374 -0.0075897560152225199 -0.021815954921767119 8.8101569382311081e-06 -0.027837025690259354 0.0055299330270943536 -0.00012673382975588569 -0.017020998738946452
leaf_weight=42 21 79 69 22 28 124 122 28 53 24 28 35 27 40 20 4181 38 102 21 23 44 3276 630 40 20 103 33 227 244 31
leaf_count=42 21 79 69 22 28 124 122 28 53 24 28 35 27 40 20 4181 38 102 21 23 44 3276 630 40 20 103 33 227 244 31
internal_value=0 -0.00641362 0.000748854 -0.0176473 -0.00289047 -0.0086407 -0.00965189 -0.0131319 -0.00812333 -0.0256533 -0.0218736 -0.0019887 -0.000535103 -0.0309021 -0.0126438 0.000938177 4.17701e-05 -0.00315282 -0.0140424 -0.0247173 -0.032617 0.00093592 -0.00047274 -0.00888328 -0.00766626 -0.00353993 -0.0167426 0.000563611 0.00138789 -0.00203118
internal_weight=0 1022 8753 244 778 173 201 182 130 52 49 88 577 62 48 8580 4399 962 190 88 67 3437 772 142 161 123 73 529 502 275
internal_count=9775 1022 8753 244 778 173 201 182 130 52 49 88 577 62 48 8580 4399 962 190 88 67 3437 772 142 161 123 73 529 502 275
is_linear=0
shrinkage=0.2


Tree=11
num_leaves=31
num_cat=0
split_feature=10 8 8 7 6 0 1 10 8 7 0 1 0 7 10 0 7 5 2 6 5 0 5 0 2 3 5 3 0 2
split_gain=0.54073 0.482772 0.345245 0.458909 0.427029 0.345947 0.311494 0.228544 0.287172 0.327004 0.269573 0.42667 0.224648 0.200026 0.163015 0.157131 0.208382 0.171005 0.157114 0.15248 0.143421 0.133573 0.117571 0.105118 0.235109 0.0988481 0.0988074 0.116753 0.10201 0.0797919
threshold=0.13888888888888892 0.083114446529080691 0.028455284552845472 0.9235000000000001 0.15955955955955961 0.84151515151515166 0.54850000000000021 0.36111111111111116 0.13914946841776113 0.95750000000000013 0.70393939393939398 0.52750000000000019 0.64757575757575769 0.99150000000000016 0.36111111111111116 0.3348484848484849 0.95150000000000012 0.93050000000000033 0.47849999999999998 0.47452452452452459 0.95050000000000001 0.67787878787878741 0.81650000000000011 0.31666666666666671 0.35550000000000004 0.66350000000000009 0.78950000000000009 0.61650000000000005 0.22878787878787879 0.66850000000000021
decision_type=2 2 2 2 2 2 2 2 2 2 2 2 2 2 2 2 2 2 2 2 2 2 2 2 2 2 2 2 2 2
left_child=1 21 3 20 12 13 -7 8 9 19 29 18 -5 14 -6 -3 -17 -18 -12 22 -2 -1 -4 24 -10 -24 27 28 -26 -11
right_child=2 15 7 4 5 6 -8 -9 23 10 11 -13 -14 -15 -16 16 17 -19 -20 -21 -22 -23 25 -25 26 -27 -28 -29 -30 -31
leaf_value=-0.016657481579618019 0.0069368488578633834 -0.019774188961869537 -0.0011320318953533257 -0.011948900766994643 -0.011242822634762731 -0.00070190351795066492 -0.030908816690660187 0.0011126086836325 -0.024491764950965132 -0.0086184347558995351 0.0046478054397517728 -0.037057624016007457 -0.038416841893521105 -0.019225419126451017 0.0058886389610798735 0.0013759190138507556 -0.0062653446688093768 -0.027202148651704196 -0.020120959377381953 0.0028079914391509718 -0.010752636676823552 -0.038696515086022294 -0.019337619267600151 0.00035904516113382195 -0.02371145725427639 -0.0022398755231517412 0.0028301395010203127 0.0010493881788782098 -0.0056579167083386454 0.0060641448292881248
leaf_weight=22 110 26 70 23 29 22 36 6709 21 57 21 37 29 21 95 143 71 20 20 143 22 22 38 1746 21 21 85 44 31 20
leaf_count=22 110 26 70 23 29 22 36 6709 21 57 21 37 29 21 95 143 71 20 20 143 22 22 38 1746 21 21 85 44 31 20
internal_value=0 -0.00830277 0.000266502 -0.0055838 -0.0105389 -0.00639662 -0.019451 0.000515739 -0.00117032 -0.00586764 -0.0131995 -0.0214865 -0.0267099 -0.00117486 0.00188209 -0.00502406 -0.00338515 -0.0108668 -0.00743452 -0.00168958 0.0039886 -0.027677 -0.00667526 -0.000140675 -0.00446004 -0.013252 -0.00213592 -0.00653295 -0.0129488 -0.00480478
internal_weight=0 304 9471 387 255 203 58 9084 2375 427 155 78 52 145 124 260 234 91 41 272 132 44 129 1948 202 59 181 96 52 77
internal_count=9775 304 9471 387 255 203 58 9084 2375 427 155 78 52 145 124 260 234 91 41 272 132 44 129 1948 202 59 181 96 52 77
is_linear=0
shrinkage=0.2


Tree=12
num_leaves=31
num_cat=0
split_feature=9 10 9 8 6 8 5 8 5 10 8 7 0 10 6 0 5 0 8 7 8 9 5 0 1 5 4 8 5 9
split_gain=0.749269 0.31251 0.666421 0.427256 0.285903 0.285127 0.296366 0.245542 0.241005 0.215494 0.212287 0.205092 0.15843 0.142264 0.136313 0.127116 0.125399 0.123482 0.146384 0.0975546 0.259903 0.582197 0.323272 0.17537 0.168708 0.153276 0.0942561 0.126521 0.0913427 0.110353
threshold=0.028500000000000001 0.19444444444444445 0.12850000000000003 0.15040650406504066 0.35040040040040049 0.46635397123201999 0.90950000000000009 0.40143839899937467 0.73750000000000004 0.80555555555555569 0.0056910569105690445 0.9405 0.80393939393939406 0.13888888888888892 0.59459459459459463 0.31060606060606061 0.74350000000000016 0.2106060606060606 0.67404627892432778 0.97750000000000015 0.17654784240150095 0.27950000000000003 0.73750000000000004 0.751212121212121 0.83450000000000013 0.76350000000000018 0.95650000000000002 0.093746091307066862 0.90450000000000019 0.69450000000000001
decision_type=2 2 2 2 2 2 2 2 2 2 2 2 2 2 2 2 2 2 2 2 2 2 2 2 2 2 2 2 2 2
left_child=7 2 5 4 -4 6 -2 9 -6 12 11 -3 26 -10 -11 16 -5 18 -12 -19 21 22 -21 -24 28 -26 27 -1 -23 -30
right_child=1 10 3 15 8 -7 -8 -9 13 14 17 -13 -14 -15 -16 -17 -18 19 -20 20 -22 24 23 -25 25 -27 -28 -29 29 -31
leaf_value=-0.024074565506307408 -0.017649660395776354 0.0014132248330861331 -0.019231741683631155 -0.018082270704997846 0.0075955925192287624 -0.0020253314636647702 -0.047345961220562463 -0.0031078525724103755 -0.023409084521699697 -0.014512032363563777 -0.00088362565253522591 -0.021122245195188696 -0.030378909736267619 -0.0043417169070906108 0.008558947947763261 0.002083341190046759 0.00061721491656498986 0.0011232060132646351 -0.020301380536208551 -0.0025817637580621521 0.0010650019907397241 0.0038854136170508959 -0.015674515211811433 -0.035175553246268206 0.0032883597156879579 -0.017792164296465549 -0.026326591876291095 -0.0048896153827875178 -0.014686101395636798 0.0043320878246880098
leaf_weight=20 41 30 76 26 47 25 20 113 24 20 44 35 37 45 21 545 32 7070 24 40 995 198 39 35 22 37 21 44 26 23
leaf_count=20 41 30 76 26 47 25 20 113 24 20 44 35 37 45 21 545 32 7070 24 40 995 198 39 35 22 37 21 44 26 23
internal_value=0 0.000298474 -0.00328941 -0.00148023 -0.00969695 -0.0200138 -0.0273862 -0.0102725 -0.00345002 -0.0152394 0.000665256 -0.0107213 -0.019455 -0.0109738 -0.00269519 0.00113604 -0.00776531 0.000751789 -0.00773695 0.000819819 -0.000696042 -0.00486804 -0.0170677 -0.024898 -0.000323055 -0.00993163 -0.0146999 -0.0108849 0.00197211 -0.0057592
internal_weight=0 9499 881 795 192 86 61 276 116 163 8618 65 122 69 41 603 58 8553 68 8485 1415 420 114 74 306 59 85 64 247 49
internal_count=9775 9499 881 795 192 86 61 276 116 163 8618 65 122 69 41 603 58 8553 68 8485 1415 420 114 74 306 59 85 64 247 49
is_linear=0
shrinkage=0.2


Tree=13
num_leaves=31
num_cat=0
split_feature=9 10 8 6 7 1 0 8 10 8 9 5 7 1 0 5 8 2 8 8 5 0 8 6 2 9 8 6 10 7
split_gain=0.517982 0.441744 0.296024 0.230082 0.184298 0.175956 0.169396 0.183058 0.156424 0.294161 0.188276 0.120268 0.119421 0.118989 0.1172 0.115925 0.113293 0.199927 0.105701 0.103371 0.120199 0.0958412 0.0863492 0.115773 0.082754 0.081854 0.217797 0.29929 0.283092 0.208163
threshold=0.084500000000000006 0.47222222222222227 0.63333333333333341 0.05830830830830832 0.97850000000000004 0.71750000000000003 0.78151515151515161 0.20281425891181984 0.13888888888888892 0.3913070669168231 0.63450000000000017 0.90450000000000019 0.96150000000000013 0.87950000000000006 0.6857575757575759 0.70450000000000002 0.0056910569105690445 0.42850000000000005 0.15597248280175111 0.98799249530956856 0.71350000000000013 0.50636363636363646 0.14202626641651028 0.75530530530530537 0.32950000000000007 0.55249999999995014 0.071857410881801129 0.061311311311311317 0.58333333333333348 0.94150000000000011
decision_type=2 2 2 2 2 2 2 2 2 2 2 2 2 2 2 2 2 2 2 2 2 2 2 2 2 2 2 2 2 2
left_child=1 2 4 -3 11 22 21 -8 9 10 12 13 15 -1 -6 -2 17 -10 -12 25 -21 -7 23 -5 -24 26 27 -18 29 -29
right_child=8 3 -4 5 14 6 7 -9 16 -11 18 -13 -14 -15 -16 -17 19 -19 -20 20 -22 -23 24 -25 -26 -27 -28 28 -30 -31
leaf_value=-0.0064518595316999218 -0.00020300866370754584 -0.021774953389540316 0.0022258547502720066 -0.0084122837700236312 -0.012924249143258709 -0.010034590178670791 -0.027722667202275869 -0.0037165329481164615 -0.021768625721335411 0.0039369805758699373 -0.010232403460476134 -0.019597163275280535 -0.026211772461493428 -0.022802922371774913 -0.031900334047774474 -0.016011765536386519 -0.021276507405186627 0.00072274591210623126 0.0062255706738781292 -0.016881388281311454 0.0006458243711248917 0.0048857874967450018 -0.002945294101601062 0.0083809350161269929 0.0065236783557494279 0.0013509470675941964 0.0005858532509573647 -0.0014358002146764193 0.0029726787766611034 -0.013771186333375974
leaf_weight=162 28 20 62 52 23 26 24 27 25 109 27 47 26 20 30 55 37 43 37 29 34 51 46 24 187 4120 3987 112 198 107
leaf_count=162 28 20 62 52 23 26 24 27 25 109 27 47 26 20 30 55 37 43 37 29 34 51 46 24 187 4120 3987 112 198 107
internal_value=0 -0.0048731 -0.0102866 -0.000798174 -0.0130376 0.000161861 -0.00607355 -0.0150135 0.000434963 -0.00420083 -0.00932813 -0.0105778 -0.0143838 -0.00824868 -0.0236654 -0.0106787 0.000585365 -0.00754614 -0.000717637 0.000649482 -0.00742226 -0.000152262 0.00274482 -0.00310916 0.00465427 0.000708881 0.000113224 -0.00403737 -0.00250776 -0.00746268
internal_weight=0 801 344 457 282 437 128 51 8974 282 173 229 109 182 53 83 8692 68 64 8624 63 77 309 76 233 8561 4441 454 417 219
internal_count=9775 801 344 457 282 437 128 51 8974 282 173 229 109 182 53 83 8692 68 64 8624 63 77 309 76 233 8561 4441 454 417 219
is_linear=0
shrinkage=0.2


Tree=14
num_leaves=31
num_cat=0
split_feature=10 8 7 6 0 4 5 0 0 5 11 8 5 2 0 8 8 5 4 1 8 7 5 6 5 6 6 2 6 0
split_gain=0.204363 0.29422 0.303196 0.280225 0.287416 0.144882 0.132669 0.120156 0.104781 0.103372 0.0992468 0.0835531 0.132627 0.0820861 0.114076 0.101603 0.0855436 0.22306 0.0738066 0.0685926 0.0839409 0.1645 0.158349 0.157773 0.0645778 0.120612 0.0636296 0.0797712 0.0544465 0.0538665
threshold=0.36111111111111116 0.083114446529080691 0.94150000000000011 0.47062062062062077 0.65303030303030285 0.91150000000000009 0.94850000000000001 0.89727272727272678 0.22878787878787879 0.69850000000000012 0.93750000000000011 0.21713570981863664 0.82650000000000012 0.44450000000000006 0.2639393939393937 0.0056910569105690445 0.92826766729205767 0.57750000000000012 0.87650000000000017 0.49149999999999999 0.15803627267041906 0.96650000000000003 0.76350000000000018 0.64349349349349361 0.91550000000000009 0.32277277277277278 0.76281281281281299 0.63550000000000006 0.11996996996996988 0.76515151515151525
decision_type=2 2 2 2 2 2 2 2 2 2 2 2 2 2 2 2 2 2 2 2 2 2 2 2 2 2 2 2 2 2
left_child=1 2 6 4 -4 -6 28 9 26 -5 -10 12 -12 14 18 -16 -15 -18 -2 -17 21 24 -23 29 -21 -26 27 -3 -1 -24
right_child=13 8 3 7 5 -7 -8 -9 10 -11 11 -13 -14 16 15 19 17 -19 -20 20 -22 22 23 -25 25 -27 -28 -29 -30 -31
leaf_value=-0.0079767321608960641 -0.015194081928348169 -0.012911974727397874 -0.0065315382829045547 0.010471558421850206 -0.017529972283435721 -0.039189678678909941 -0.014651185549471691 -0.019002185431530788 -9.3047697328198852e-05 -0.0059131770610197712 -0.0011785540264099836 -0.0024798748650672765 -0.023681727784093134 0.0013896560973464447 -0.013228268099381872 0.0010718553398889519 -0.023272278690710663 -0.00027802308193511431 -0.0023074710695073007 0.00088477535365087147 1.6055890429597045e-05 -0.00048759474498776554 -0.016511402972246288 -0.0048415328406037827 -0.018243994995612991 0.00099292644299566759 -0.016980808448937276 0.0041373015219426674 0.0032685457925958139 -0.031190163893625139
leaf_weight=20 32 21 34 20 21 30 23 21 2198 67 20 110 22 3637 23 1530 20 108 40 217 1220 46 20 31 22 32 23 23 124 20
leaf_count=20 32 21 34 20 21 30 23 21 2198 67 20 110 22 3637 23 1530 20 108 40 217 1220 46 20 31 22 32 23 23 124 20
internal_value=0 -0.00145168 -0.00678584 -0.0121849 -0.0207752 -0.030271 -0.000546181 -0.00542405 -0.000657189 -0.00214657 -0.00043484 -0.00537734 -0.0129659 0.000576069 -0.000163124 1.61754e-05 0.00121081 -0.00387088 -0.00803485 0.000113251 -0.000798854 -0.0033612 -0.00962862 -0.015551 -0.000655343 -0.00684434 -0.008456 -0.00399985 0.0017067 -0.0238508
internal_weight=0 2777 360 193 85 51 167 108 2417 87 2350 152 42 6998 3233 3161 3765 128 72 3138 1608 388 117 71 271 54 67 44 144 40
internal_count=9775 2777 360 193 85 51 167 108 2417 87 2350 152 42 6998 3233 3161 3765 128 72 3138 1608 388 117 71 271 54 67 44 144 40
is_linear=0
shrinkage=0.2


Tree=15
num_leaves=31
num_cat=0
split_feature=9 7 10 9 6 1 7 9 10 7 0 4 1 0 10 2 6 9 2 9 0 3 0 0 9 10 0 5 2 2
split_gain=0.419797 0.186098 0.140802 0.23618 0.102705 0.0956524 0.0922492 0.0861847 0.222583 0.17171 0.247568 0.294362 0.177952 0.203742 0.1578 0.0976613 0.0941175 0.0895148 0.0858821 0.0822182 0.0806993 0.0884244 0.0753825 0.0661771 0.0648907 0.0645804 0.0631873 0.0607616 0.13579 0.058074
threshold=0.020500000000000001 0.96150000000000013 0.13888888888888892 0.19850000000000004 0.11571571571571568 0.84750000000000003 0.95150000000000012 0.34499999999995007 0.63888888888888895 0.94150000000000011 0.34818181818181798 0.82650000000000012 0.48249999999999998 0.8257575757575758 0.30555555555555564 0.61350000000000005 0.62657657657657662 0.044500000000000005 0.5635 0.46749999999995001 0.83909090909090922 0.79550000000000021 0.57060606060606045 0.47393939393939394 0.098500000000000004 0.19444444444444445 0.27303030303030307 0.76750000000000018 0.52350000000000008 0.44650000000000001
decision_type=2 2 2 2 2 2 2 2 2 2 2 2 2 2 2 2 2 2 2 2 2 2 2 2 2 2 2 2 2 2
left_child=1 5 3 24 -5 20 23 8 9 10 11 -4 25 -14 15 -15 17 29 26 -8 21 22 -1 -6 -2 -11 -13 -16 -29 -12
right_child=2 -3 7 4 6 -7 19 -9 -10 12 16 18 13 14 27 -17 -18 -19 -20 -21 -22 -23 -24 -25 -26 -27 -28 28 -30 -31
leaf_value=0.0020462761814188627 -0.024435406719290079 -0.021692725309194666 -0.030477887238375845 -0.012700783926993609 -0.0043623238080932247 -0.01666971360599356 -0.014259079299741784 0.00075232717667728718 0.0014772694084312665 -0.008868824435692084 -0.01711760675534606 -0.018163408520226573 -0.0040722328198073135 -0.032866173051297666 -0.0024496712708949216 -0.013555848584510387 0.0038513282207766073 0.0002325356377557827 0.00049787332249958229 -0.00075979414869541844 -0.013291453376964288 0.0102041426114738 -0.011085499127340668 0.0062936734962970656 -0.010515872555205951 -0.00019022772905207769 -0.0043278372091721867 -0.02209498028367244 -0.00097757128865591124 -0.0025252059810251621
leaf_weight=36 21 39 20 28 31 28 26 6173 1288 38 20 23 296 22 36 20 307 526 67 59 27 22 34 94 37 352 31 29 21 24
leaf_count=36 21 39 20 28 31 28 26 6173 1288 38 20 23 296 22 36 20 307 526 67 59 27 22 34 94 37 352 31 29 21 24
internal_value=0 -0.00941068 0.000182541 -0.00411163 -0.00132274 -0.00615218 0.00019433 0.000319319 -0.000537399 -0.00195383 -0.000222404 -0.00800086 -0.00411917 -0.00695525 -0.0136222 -0.0236708 0.00102818 -0.000492357 -0.00428565 -0.00488899 -0.00367747 -0.000855977 -0.00433201 0.00365099 -0.0155557 -0.00103583 -0.0102208 -0.00871479 -0.0132257 -0.00915812
internal_weight=0 186 9589 296 238 147 210 9293 3120 1832 1018 141 814 424 128 42 877 570 121 85 119 92 70 125 58 390 54 86 50 44
internal_count=9775 186 9589 296 238 147 210 9293 3120 1832 1018 141 814 424 128 42 877 570 121 85 119 92 70 125 58 390 54 86 50 44
is_linear=0
shrinkage=0.2


Tree=16
num_leaves=31
num_cat=0
split_feature=9 7 11 0 9 8 7 6 0 1 8 7 1 5 9 8 2 4 0 6 8 5 4 2 7 6 3 4 9 3
split_gain=0.276243 0.135477 0.111329 0.103044 0.0946827 0.342064 0.310886 0.233995 0.191293 0.158584 0.139464 0.154059 0.166596 0.141197 0.141982 0.104273 0.0820705 0.0747705 0.0730849 0.069586 0.0657692 0.0853721 0.0632414 0.0620007 0.0617364 0.0809544 0.059532 0.0567127 0.0545118 0.0492706
threshold=0.015500000000000005 0.96850000000000003 0.43749999999999994 0.60575757575757583 0.19850000000000004 0.096372732958098714 0.91550000000000009 0.087037037037037052 0.34818181818181798 0.44850000000000007 0.36666666666666675 0.9385 0.47449999999999998 0.76950000000000007 0.13250000000000003 0.70150093808630409 0.37550000000000006 0.93450000000000022 0.68818181818181789 0.72707707707707714 0.98799249530956856 0.69450000000000012 0.93550000000000033 0.37550000000000006 0.97150000000000014 0.49734734734734748 0.42850000000000005 0.90050000000000019 0.040500000000000015 0.32800000000000001
decision_type=2 2 2 2 2 2 2 2 2 2 2 2 2 2 2 2 2 2 2 2 2 2 2 2 2 2 2 2 2 2
left_child=1 2 -1 -4 5 6 29 -8 9 15 11 -10 19 23 17 26 -11 -15 22 28 -6 -22 27 -14 25 -20 -7 -9 -13 -2
right_child=4 -3 3 -5 20 8 7 18 10 16 -12 12 13 14 -16 -17 -18 -19 24 -21 21 -23 -24 -25 -26 -27 -28 -29 -30 -31
leaf_value=-0.013296358013882282 -0.0036418992516008167 -0.021869230390383076 0.0078371878653284051 -0.0079971307728971749 0.00047335166296414425 -0.0020738583230585964 -0.032390272803604604 -0.0068163534265852747 0.0020276807149130745 -0.012722023632377386 0.002813991274563206 -0.010799395563927564 -0.0092773743634743076 -0.012049447287360883 -0.0015964364400133492 -0.025619643810205164 0.0015174428400967052 -0.024643258665773004 -0.018633493542185294 0.0076454969056482837 -0.016913621351122857 -0.00025650742099969648 -0.012346629482327086 0.0018023392476607114 -0.020631353126373143 -0.0030776793166296559 -0.015355089498269889 0.0062912175269878431 0.00015863252360409557 0.0082228871749802715
leaf_weight=47 21 26 31 35 7804 27 20 31 309 20 669 22 31 44 32 20 85 33 23 42 20 32 33 58 32 32 27 23 104 42
leaf_count=47 21 26 31 35 7804 27 20 31 309 20 669 22 31 44 32 20 85 33 23 42 20 32 33 58 32 32 27 23 104 42
internal_value=0 -0.00885234 -0.00585731 -0.000559799 0.000127696 -0.00118937 -0.00793864 -0.0119026 -5.04589e-05 -0.00619236 0.000767547 -0.00126071 -0.00403697 -0.00796743 -0.0127935 -0.0132834 -0.00119484 -0.0174468 -0.00954774 0.000595369 0.000426115 -0.00666309 -0.00544882 -0.00205689 -0.0136467 -0.00958284 -0.00871447 -0.0012335 -0.00175467 0.00426796
internal_weight=0 139 113 66 9636 1780 257 194 1523 179 1344 675 366 198 109 74 105 77 174 168 7856 52 87 89 87 55 54 54 126 63
internal_count=9775 139 113 66 9636 1780 257 194 1523 179 1344 675 366 198 109 74 105 77 174 168 7856 52 87 89 87 55 54 54 126 63
is_linear=0
shrinkage=0.2


Tree=17
num_leaves=31
num_cat=0
split_feature=9 5 10 9 8 0 9 2 2 9 0 8 6 0 10 5 7 10 0 3 0 5 8 6 8 10 9 7 5 9
split_gain=0.187146 0.125043 0.112318 0.213902 0.167674 0.131553 0.0682495 0.0948504 0.0632889 0.150151 0.113636 0.088463 0.24234 0.118977 0.0789249 0.0755426 0.0676741 0.0644079 0.0542461 0.0542028 0.0485794 0.0450837 0.0446884 0.0430612 0.0707194 0.224262 0.202737 0.115732 0.121117 0.126609
threshold=0.010500000000000001 0.64650000000000019 0.13888888888888892 0.098500000000000004 0.33896185115697314 0.89909090909090883 0.66650000000000009 0.5405000000000002 0.35950000000000004 0.040500000000000015 0.31060606060606061 0.034146341463414574 0.18433433433433427 0.70636363636363642 0.47222222222222227 0.76350000000000018 0.95050000000000001 0.63888888888888895 0.77000000000000002 0.41150000000000003 0.39727272727272733 0.79550000000000021 0.99393370856785501 0.46696696696696699 0.20281425891181984 0.25000000000000006 0.079500000000000015 0.93250000000000022 0.71150000000000013 0.39849999999995006
decision_type=2 2 2 2 2 2 2 2 2 2 2 2 2 2 2 2 2 2 2 2 2 2 2 2 2 2 2 2 2 2
left_child=1 -1 3 -2 5 6 7 19 9 16 15 12 -12 -14 -15 -11 17 -4 -3 -5 -6 -8 23 24 25 -10 -27 -28 -29 -30
right_child=2 18 8 4 20 -7 21 -9 22 10 11 -13 13 14 -16 -17 -18 -19 -20 -21 -22 -23 -24 -25 -26 26 27 28 29 -31
leaf_value=0.0052175744762644177 -0.02105556752178997 -0.008546504156159547 -0.010655309856935804 0.0037883599754422906 -0.0053766241752664038 -0.018896716653273027 0.0093679901584982888 -0.019325805306434633 -0.0089891161210834993 -0.014088632601002852 -0.022969331724569202 0.00016592328717068445 0.00981807402367222 -0.015259427192028274 0.00062647271050332955 -0.001793116889468099 -0.016092078971930528 0.0039970915354344818 -0.019752288430377289 -0.0096532160416245467 0.0047224842167148985 -0.0034891817563523853 -0.0084876547567546371 0.0010000540491113446 0.00061767011948921677 -0.011603448593764214 0.0034029791339427202 0.0034084789218040363 -0.0088073461862707824 -0.00036292527477797549
leaf_weight=20 26 48 28 24 23 29 20 20 135 39 25 2118 29 22 29 41 33 21 27 24 111 24 22 3759 2248 58 342 136 120 174
leaf_count=20 26 48 28 24 23 29 20 20 135 39 25 2118 29 22 29 41 33 21 27 24 111 24 22 3759 2248 58 342 136 120 174
internal_value=0 -0.00883361 8.66934e-05 -0.00371618 -0.00207682 -0.00689119 -0.00378262 -0.00775401 0.000208739 -0.000680942 -0.000381501 -0.00011499 -0.00578142 -0.000410194 -0.00622627 -0.00778718 -0.00909083 -0.00437571 -0.0125806 -0.00293243 0.00298906 0.00235499 0.000512126 0.000540524 2.90482e-06 -0.00142921 -0.000199589 0.000657178 -0.00152669 -0.00380963
internal_weight=0 95 9680 301 275 141 112 68 9379 2385 2303 2223 105 80 51 80 82 49 75 48 134 44 6994 6972 3213 965 830 772 430 294
internal_count=9775 95 9680 301 275 141 112 68 9379 2385 2303 2223 105 80 51 80 82 49 75 48 134 44 6994 6972 3213 965 830 772 430 294
is_linear=0
shrinkage=0.2


Tree=18
num_leaves=31
num_cat=0
split_feature=9 5 8 1 6 9 0 4 8 7 5 1 4 1 6 6 0 8 5 0 2 7 5 4 9 6 9 8 8 5
split_gain=0.119774 0.0800273 0.0678526 0.0975567 0.101235 0.0553092 0.123686 0.141316 0.108921 0.28264 0.220578 0.194977 0.149318 0.146177 0.118293 0.107594 0.108661 0.132767 0.102304 0.10857 0.0993747 0.094102 0.0856844 0.129018 0.0812667 0.0791702 0.0947315 0.0788102 0.072885 0.0705361
threshold=0.010500000000000001 0.64650000000000019 0.0056910569105690445 0.43350000000000005 0.44789789789789791 0.60150000000000003 0.25303030303030311 0.81850000000000012 0.26335209505941209 0.98850000000000005 0.7975000000000001 0.17450000000000002 0.88550000000000006 0.77750000000000019 0.15570570570570572 0.51686686686686689 0.74151515151515157 0.071857410881801129 0.80750000000000022 0.65303030303030285 0.56950000000000012 0.93250000000000022 0.51450000000000007 0.88350000000000006 0.12450000000000001 0.68923923923923935 0.10349999999995001 0.049843652282676683 0.13689806128830515 0.78950000000000009
decision_type=2 2 2 2 2 2 2 2 2 2 2 2 2 2 2 2 2 2 2 2 2 2 2 2 2 2 2 2 2 2
left_child=1 -1 3 -2 -5 6 7 -4 9 10 25 -11 -13 15 -15 16 -12 -18 -14 -20 29 -16 23 -10 -23 -8 -27 -28 -7 -9
right_child=2 -3 5 4 -6 28 8 20 22 11 13 12 18 14 21 -17 17 -19 19 -21 -22 24 -24 -25 -26 26 27 -29 -30 -31
leaf_value=0.0041740597947500643 0.0016884951484634689 -0.010064469359815122 -0.02098850720562041 -0.022626474704593419 -0.00317058664665598 0.0025164904548712294 0.00046794075464317707 -0.013381152352014062 -0.020038226978795138 0.0037329941782406825 -0.000444659044972602 -0.0026707490335308739 -0.008946957614746006 -0.019331846162510505 -0.00020427172614290612 0.0012779771823113772 -0.016256797315872974 -0.0038402869539778135 -0.0083080114680342387 -0.026211663069469589 0.00071650684511513206 -0.019522407181405774 0.00073592209126693148 0.0011554786907422736 -0.0063084287964458394 0.011914732441288869 0.01048787420745506 0.0010898250476081256 0.00028611273146038791 -0.0018994706572572654
leaf_weight=20 38 75 20 20 23 724 712 49 20 47 197 62 62 28 80 345 48 122 20 42 108 24 3358 27 83 54 43 210 3076 38
leaf_count=20 38 75 20 20 23 724 712 49 20 47 197 62 62 28 80 345 48 122 20 42 108 24 3358 27 83 54 43 210 3076 38
internal_value=0 -0.00706688 6.93547e-05 -0.00569494 -0.0122198 0.000117996 -0.000270629 -0.00497788 -8.93865e-05 -0.00119357 -0.000405394 -0.00777638 -0.0106847 -0.00263787 -0.00720824 -0.00125778 -0.00364152 -0.00734613 -0.0146916 -0.0204363 -0.00333576 -0.00539294 0.000617228 -0.00786312 -0.00927231 0.00162553 0.00431022 0.00268712 0.000711058 -0.00836616
internal_weight=0 95 9680 81 43 9599 5799 215 5584 2179 1946 233 186 927 215 712 367 170 124 62 195 187 3405 47 107 1019 307 253 3800 87
internal_count=9775 95 9680 81 43 9599 5799 215 5584 2179 1946 233 186 927 215 712 367 170 124 62 195 187 3405 47 107 1019 307 253 3800 87
is_linear=0
shrinkage=0.2


Tree=19
num_leaves=31
num_cat=0
split_feature=9 8 2 10 2 8 10 9 2 8 8 6 4 0 10 9 8 0 5 0 6 9 0 11 6 0 8 6 5 5
split_gain=0.0832403 0.0795219 0.0603999 0.0897354 0.0851553 0.06706 0.0585011 0.155005 0.179045 0.12608 0.0971369 0.235024 0.0862051 0.0720839 0.0615933 0.0674471 0.0574779 0.0556299 0.0509772 0.0463417 0.10628 0.0455975 0.0574409 0.0518545 0.0495945 0.0481258 0.159542 0.0370479 0.0348307 0.033702
threshold=0.020500000000000001 0.088742964352720347 0.33350000000000007 0.58333333333333348 0.55850000000000011 0.43921200750469053 0.25000000000000006 0.22899999999995002 0.31750000000000006 0.62570356472795507 0.044215134459036902 0.61576576576576592 0.87950000000000006 0.74818181818181795 0.19444444444444445 0.14650000000000002 0.29424640400250163 0.69060606060606078 0.7975000000000001 0.2106060606060606 0.55075075075075086 0.80149999999999999 0.24696969696969698 0.93750000000000011 0.47452452452452459 0.93303030303030243 0.23520950594121329 0.61576576576576592 0.86450000000000016 0.5515000000000001
decision_type=2 2 2 2 2 2 2 2 2 2 2 2 2 2 2 2 2 2 2 2 2 2 2 2 2 2 2 2 2 2
left_child=1 -1 -3 5 -5 -4 7 8 28 12 11 -9 18 14 15 -14 -15 27 -10 20 -8 22 -12 25 -25 29 -27 -11 -2 -24
right_child=6 2 3 4 -6 -7 19 10 9 17 21 -13 13 16 -16 -17 -18 -19 -20 -21 -22 -23 23 24 -26 26 -28 -29 -30 -31
leaf_value=-0.013812578199752446 -0.011271575431558579 -0.011020925340967047 -0.011217209744594388 -0.0015888553052659958 0.014099560999311506 0.0008241614628885244 0.0029039501938421062 -0.013994646111601278 -0.0034740485744928387 0.0070110495900735266 -0.0089558260386873936 0.0074228374316589914 -0.016017808608710767 -0.017790052144684727 0.001741321896654633 -0.0022457584456512421 -0.0061405111919157207 0.013636220126811947 0.0079554010790565781 0.0003382081108261054 -0.013029035585438551 0.0027032784091072719 -0.0054061465756967669 -0.011911969697447839 0.00021018476906680954 -0.01895227682821098 0.0020862899310684401 -0.005162354400381446 -0.021631188393526138 0.0014650353487107206
leaf_weight=29 34 27 37 31 25 37 34 57 37 20 29 32 25 36 44 33 32 21 27 8017 33 294 30 27 27 21 46 20 21 592
leaf_count=29 34 27 37 31 25 37 34 57 37 20 29 32 25 36 44 33 32 21 27 8017 33 294 30 27 27 21 46 20 21 592
internal_value=0 -0.00419053 -0.00241321 -0.000625448 0.0054149 -0.00519652 8.12846e-05 -0.00106362 -0.00475078 -0.00279758 5.36976e-05 -0.00629398 -0.00490863 -0.00726397 -0.00390134 -0.00818199 -0.0123079 0.00530057 0.00134775 0.000294432 -0.00494364 0.000583663 -0.000223548 0.000117281 -0.00585089 0.000585033 -0.00450789 0.000924348 -0.0152271 0.00113363
internal_weight=0 186 157 130 56 74 9589 1505 350 295 1155 89 234 170 102 58 68 61 64 8084 67 1066 772 743 54 689 67 40 55 622
internal_count=9775 186 157 130 56 74 9589 1505 350 295 1155 89 234 170 102 58 68 61 64 8084 67 1066 772 743 54 689 67 40 55 622
is_linear=0
shrinkage=0.2


Tree=20
num_leaves=31
num_cat=0
split_feature=9 10 9 8 7 2 4 10 6 9 1 2 8 8 5 8 4 5 9 2 7 8 10 11 2 9 5 9 4 6
split_gain=0.0640688 0.0576141 0.126684 0.169203 0.138574 0.093941 0.0770828 0.0939118 0.0629694 0.0797343 0.0606809 0.0634507 0.0587171 0.0655143 0.0569304 0.0530623 0.0486949 0.155046 0.0445915 0.0867946 0.040916 0.0408128 0.0500711 0.0382712 0.0478487 0.0684419 0.083962 0.0370215 0.0443434 0.0633414
threshold=0.0055000000000000005 0.63888888888888895 0.12850000000000003 0.3913070669168231 0.9425 0.33750000000000008 0.81449999999999989 0.19444444444444445 0.69299299299299311 0.084500000000000006 0.88950000000000007 0.43650000000000005 0.21069418386491559 0.14427767354596618 0.82050000000000012 0.077611006879299574 0.81850000000000012 0.55750000000000022 0.12850000000000003 0.41050000000000003 0.91750000000000009 0.17654784240150095 0.25000000000000006 0.93750000000000011 0.57750000000000012 0.47049999999995001 0.88050000000000017 0.020500000000000001 0.95250000000000001 0.57702702702702713
decision_type=2 2 2 2 2 2 2 2 2 2 2 2 2 2 2 2 2 2 2 2 2 2 2 2 2 2 2 2 2 2
left_child=-1 2 3 4 5 14 -5 -8 12 -10 11 -6 13 20 -2 -13 17 -4 19 27 -7 -17 -23 -18 25 26 -25 -3 -29 -30
right_child=1 18 16 6 10 8 7 -9 9 -11 -12 15 -14 -15 -16 21 23 -19 -20 -21 -22 22 -24 24 -26 -27 -28 28 29 -31
leaf_value=-0.0072137969279927874 -0.0032181767949267578 -0.0078597760796546949 -0.016770652308644326 -0.010877940352074802 -0.011835637488128508 0.0034826128219719978 -0.0067474111636373693 0.0037052110379163896 0.011879580908948008 -0.0031768323077509802 -0.018779510598291051 -0.013175570082081402 0.0022400750809659564 -0.015961109772324563 -0.017621241846964474 0.0037654381309603826 0.00027857536327621058 -0.00095275742921701202 0.0003824199248039359 0.0048623506523785623 -0.0083221118613753635 -0.013256290670306909 -0.0011962447172845715 -0.0035030078636482361 0.001074119582478925 -0.00090028090919137068 -0.017029988385560312 0.0024208745978314492 -0.011517451133113355 0.0024430815539325033
leaf_weight=49 23 25 28 20 85 24 41 213 34 24 22 23 60 20 21 29 4526 216 3442 263 23 21 40 50 127 121 29 124 26 26
leaf_count=49 23 25 28 20 85 24 41 213 34 24 22 23 60 20 21 29 4526 216 3442 263 23 21 40 50 127 121 29 124 26 26
internal_value=0 3.63434e-05 -0.000362435 -0.00283996 -0.00523006 -0.00178623 0.00107667 0.00201798 0.000189288 0.00564934 -0.00881478 -0.00770758 -0.00230428 -0.00637385 -0.0100924 -0.00460241 -1.10031e-05 -0.00276793 0.000630529 0.00247103 -0.00229417 -0.00241149 -0.00534806 0.00012761 -0.0019619 -0.00388977 -0.00846861 -0.000657908 0.000365084 -0.00453718
internal_weight=0 9726 5820 723 449 229 274 254 185 58 220 198 127 67 44 113 5097 244 3906 464 47 90 61 4853 327 200 79 201 176 52
internal_count=9775 9726 5820 723 449 229 274 254 185 58 220 198 127 67 44 113 5097 244 3906 464 47 90 61 4853 327 200 79 201 176 52
is_linear=0
shrinkage=0.2


Tree=21
num_leaves=31
num_cat=0
split_feature=6 8 5 1 9 8 2 4 5 8 8 2 7 8 9 2 8 5 6 7 4 8 1 8 4 8 5 1 9 3
split_gain=0.0412128 0.111526 0.111265 0.0753094 0.0658815 0.107003 0.0477435 0.0459526 0.191824 0.232732 0.0446553 0.0397628 0.0424297 0.146577 0.043994 0.0650298 0.0352821 0.0659368 0.0491573 0.0567538 0.0349908 0.031782 0.0297105 0.0866754 0.120606 0.0551652 0.0280867 0.0407733 0.0258363 0.0585743
threshold=0.15955955955955961 0.028455284552845472 0.84649999999999992 0.72150000000000003 0.12450000000000001 0.25959974984365225 0.59150000000000003 0.8155 0.57750000000000012 0.61632270168855541 0.62570356472795507 0.60250000000000015 0.99150000000000016 0.028455284552845472 0.13250000000000003 0.38550000000000001 0.058536585365853606 0.65050000000000019 0.75180180180180201 0.96550000000000014 0.89650000000000019 0.12889305816135085 0.48649999999999999 0.068480300187617207 0.89050000000000018 0.096372732958098714 0.73350000000000004 0.33750000000000008 0.020500000000000001 0.16649999999999998
decision_type=2 2 2 2 2 2 2 2 2 2 2 2 2 2 2 2 2 2 2 2 2 2 2 2 2 2 2 2 2 2
left_child=1 2 3 -1 5 6 -3 8 9 -2 20 12 28 -14 15 -15 17 -13 19 -19 -7 -10 25 24 -24 -6 27 -23 29 -9
right_child=7 4 -4 -5 22 10 -8 11 21 -11 -12 16 13 14 -16 -17 -18 18 -20 -21 -22 26 23 -25 -26 -27 -28 -29 -30 -31
leaf_value=0.0065974992566875043 -0.0020473850597357212 -0.015219379440905192 -0.01766815268464627 -0.010340418489206405 0.0060127531646316677 0.0030335879544369304 -0.0033911158774225488 -0.012660249592736365 0.0052240446756178774 -0.030295213128883915 0.0069401289932429795 0.012286306315412124 -0.018676166388904677 -0.013024742216137903 -0.00026132954465757932 0.001505768316035921 0.00077538600071359745 0.0019662673382467972 0.0078945185244629103 -0.0099305433779954908 -0.0061103356526570124 -0.0098490985022605549 0.0041530820634216072 -0.00033196972663990362 -0.015034575904964619 0.00020125261337357368 0.00056592104005752971 -0.00076703773302142517 0.00021521453794704515 -0.000729538372001781
leaf_weight=21 28 39 31 21 74 26 21 20 38 20 25 30 20 28 327 22 1941 81 40 20 47 30 20 618 38 558 164 58 5276 93
leaf_count=21 28 39 31 21 74 26 21 20 38 20 25 30 20 28 327 22 1941 81 40 20 47 30 20 618 38 558 164 58 5276 93
internal_value=0 -0.000950006 -0.00857964 -0.00187146 -0.000570085 -0.00442771 -0.0110795 0.000177521 -0.00210612 -0.0138173 -0.000355197 0.00027525 4.12649e-06 -0.00199129 -0.00110616 -0.00663132 0.00101802 0.00377209 0.00196055 -0.000389537 -0.0028536 -0.000167712 -0.000104103 -0.00102575 -0.00841814 0.000881713 -0.000980754 -0.00386319 0.000151126 -0.00284117
internal_weight=0 1539 73 42 1466 158 60 8236 338 48 98 7898 5786 397 377 50 2112 171 141 101 73 290 1308 676 58 632 252 88 5389 113
internal_count=9775 1539 73 42 1466 158 60 8236 338 48 98 7898 5786 397 377 50 2112 171 141 101 73 290 1308 676 58 632 252 88 5389 113
is_linear=0
shrinkage=0.2


Tree=22
num_leaves=31
num_cat=0
split_feature=10 9 8 0 8 10 1 5 0 4 7 0 6 8 8 3 4 9 0 9 0 6 8 1 5 7 4 6 8 7
split_gain=0.0361943 0.0759767 0.105651 0.10804 0.0930031 0.0922798 0.0740993 0.0690132 0.0704147 0.0732638 0.0542174 0.0643131 0.0517743 0.0516762 0.0714975 0.0548075 0.0448471 0.0455431 0.0443894 0.0895003 0.0392159 0.0355796 0.179437 0.200385 0.133096 0.0534534 0.036441 0.0458342 0.0329461 0.153517
threshold=0.63888888888888895 0.12850000000000003 0.35165728580362732 0.41181818181818158 0.62570356472795507 0.19444444444444445 0.37150000000000005 0.70250000000000012 0.80393939393939406 0.91950000000000032 0.96750000000000014 0.49909090909090914 0.63553553553553566 0.098874296435271944 0.19681050656660418 0.41650000000000004 0.87750000000000006 0.044500000000000005 0.2166666666666667 0.59249999999995007 0.90151515151515149 0.45940940940940939 0.041838649155722267 0.71750000000000003 0.90750000000000008 0.94150000000000011 0.95050000000000001 0.26911911911911918 0.061413383364602885 0.99350000000000016
decision_type=2 2 2 2 2 2 2 2 2 2 2 2 2 2 2 2 2 2 2 2 2 2 2 2 2 2 2 2 2 2
left_child=1 2 7 6 5 -5 -4 13 10 12 11 -9 -10 -1 -15 -16 -6 -18 19 -3 -11 22 23 24 26 -25 27 -20 29 -2
right_child=28 18 3 4 16 -7 -8 8 9 20 -12 -13 -14 14 15 -17 17 -19 21 -21 -22 -23 -24 25 -26 -27 -28 -29 -30 -31
leaf_value=-0.0079908714181295155 0.003439646108606038 -0.011395736149585757 -0.01495876097559141 -0.010827284282201838 0.0022771318445198373 0.0015244226018046605 -0.0017952325958758592 -0.010543113105275014 -0.011435802746564151 -0.022236963894895531 -0.0090608533322289273 0.00033105746744175642 0.0024477446740049694 0.0085933210989950527 -0.0098439897953843079 0.0030766284928239627 0.017034440415983017 0.0055068947904711139 0.012912002764642239 0.0042048386686171094 -0.010763787678801097 0.00050635185683836268 -0.0001161400585514762 -0.010838380986824632 -0.015609594608064404 -0.024710379556985573 -0.0034760000649839643 -0.00062819199170917285 0.00028773476444016985 -0.013129202563626072
leaf_weight=27 329 38 26 29 42 146 50 27 22 22 58 112 21 38 24 29 26 29 20 24 26 2780 2122 20 22 25 26 20 3571 24
leaf_count=27 329 38 26 29 42 146 50 27 22 22 58 112 21 38 24 29 26 29 20 24 26 2780 2122 20 22 25 26 20 3571 24
internal_value=0 -0.000315167 -0.00218898 0.000368161 0.00223092 -0.000522432 -0.00629854 -0.00438082 -0.0060499 -0.0106512 -0.00392444 -0.00178119 -0.00465547 -0.000307126 0.00197267 -0.00277422 0.0071983 0.0109563 -3.79735e-05 -0.0053568 -0.0160223 2.75215e-05 -0.000562788 -0.00768901 -0.00213762 -0.018545 0.00235303 0.00614191 0.00046994 0.00231315
internal_weight=0 5851 754 348 272 175 76 406 288 91 197 139 43 118 91 53 97 55 5097 62 48 5035 2255 133 88 45 66 40 3924 353
internal_count=9775 5851 754 348 272 175 76 406 288 91 197 139 43 118 91 53 97 55 5097 62 48 5035 2255 133 88 45 66 40 3924 353
is_linear=0
shrinkage=0.2


Tree=23
num_leaves=31
num_cat=0
split_feature=9 8 10 7 9 8 0 5 3 9 5 2 0 5 8 7 1 7 8 9 5 0 5 8 10 5 10 3 8 9
split_gain=0.0305124 0.0310735 0.0269447 0.0628546 0.0786449 0.101537 0.0759266 0.0847872 0.0359951 0.0819387 0.0359635 0.0280032 0.0575581 0.0882211 0.0823462 0.0742607 0.0534474 0.0914283 0.206131 0.255792 0.131081 0.109366 0.0616824 0.0609573 0.0608904 0.0598675 0.0860495 0.0547309 0.0516636 0.067373
threshold=0.0055000000000000005 0.41969981238273929 0.13888888888888892 0.84750000000000003 0.098500000000000004 0.40569105691056911 0.89909090909090883 0.9425 0.41650000000000004 0.63450000000000017 0.8135 0.60550000000000015 0.31666666666666671 0.76150000000000018 0.73746091307066919 0.91550000000000009 0.42150000000000004 0.92850000000000021 0.14202626641651028 0.47349999999995002 0.65250000000000019 0.84151515151515166 0.77550000000000019 0.14202626641651028 0.63888888888888895 0.94950000000000001 0.36111111111111116 0.88350000000000006 0.053220762976860424 0.38750000000000001
decision_type=2 2 2 2 2 2 2 2 2 2 2 2 2 2 2 2 2 2 2 2 2 2 2 2 2 2 2 2 2 2
left_child=1 -1 3 -2 -5 6 7 8 10 -10 -6 12 13 14 -4 -16 23 -18 19 20 -19 -22 -23 25 -24 27 -27 28 29 -14
right_child=2 -3 11 4 5 -7 -8 -9 9 -11 -12 -13 16 -15 15 -17 17 18 -20 -21 21 22 24 -25 -26 26 -28 -29 -30 -31
leaf_value=-0.0097152819140599329 0.0054453700667292607 0.00037660190288949273 -0.002708598875260627 -0.014145922887584437 0.0090081677306443463 0.0037989807394673914 -0.014327718729951554 -0.014791707335971297 -0.0097556709255268055 0.0047347758655194886 -0.0024751384602859621 0.0006546999813151136 0.0018247914107131034 0.00057513964448488604 -0.016320295555924531 -0.0022480333900603 0.00067354445981143327 0.0019115502813931654 -0.00017837656995481333 -0.00035109555760037006 -0.0075451222174292946 -0.0074865476185963916 -0.015390876111840562 0.00022837360132213662 -0.028580737983187041 -0.013273272684521296 0.0019891721945411215 -0.002588065073359758 0.0025316998057130316 0.010565941848589219
leaf_weight=26 41 23 183 23 24 82 28 20 37 27 20 2524 58 230 40 24 1622 37 1582 266 143 22 42 2134 21 22 45 55 284 90
leaf_count=26 41 23 183 23 24 82 28 20 37 27 20 2524 58 230 40 24 1622 37 1582 266 143 22 42 2134 21 22 45 55 284 90
internal_value=0 -0.00497828 2.50808e-05 -0.0018345 -0.00297808 -0.00189883 -0.00489383 -0.00283017 -0.000615071 -0.00364251 0.00378848 8.46724e-05 -0.000123842 -0.00224351 -0.00486817 -0.0110432 3.35741e-05 -0.00045586 -0.00132282 -0.00473245 -0.00913035 -0.0109222 -0.0166037 0.000713647 -0.0197875 0.00258291 -0.00302238 0.00335407 0.00411059 0.00714036
internal_weight=0 49 9726 302 261 238 156 128 108 64 44 9424 6900 477 247 64 6423 3735 2113 531 265 228 85 2688 63 554 67 487 432 148
internal_count=9775 49 9726 302 261 238 156 128 108 64 44 9424 6900 477 247 64 6423 3735 2113 531 265 228 85 2688 63 554 67 487 432 148
is_linear=0
shrinkage=0.2


Tree=24
num_leaves=31
num_cat=0
split_feature=2 9 7 10 0 4 0 10 5 4 8 1 10 9 9 4 8 7 0 7 8 9 5 7 10 9 8 9 4 5
split_gain=0.025043 0.0538988 0.0799968 0.115846 0.0829348 0.0485472 0.0465483 0.0462889 0.040045 0.0388213 0.0323773 0.121469 0.0560319 0.0558585 0.0307615 0.0233243 0.0205976 0.129484 0.0241632 0.0610628 0.121194 0.128634 0.0500565 0.0591517 0.0286474 0.0736381 0.053438 0.0941687 0.0223733 0.0477602
threshold=0.35950000000000004 0.10349999999995001 0.84750000000000003 0.19444444444444445 0.58393939393939409 0.96550000000000014 0.31666666666666671 0.30555555555555564 0.74650000000000016 0.87050000000000016 0.036647904940587811 0.30250000000000005 0.63888888888888895 0.45150000000000007 0.036499999999999998 0.80149999999999999 0.92826766729205767 0.82450000000000012 0.8063636363636365 0.94650000000000001 0.083114446529080691 0.29150000000000004 0.72150000000000003 0.97950000000000015 0.30555555555555564 0.12450000000000001 0.18968105065666044 0.50850000000000006 0.84450000000000014 0.72950000000000015
decision_type=2 2 2 2 2 2 2 2 2 2 2 2 2 2 2 2 2 2 2 2 2 2 2 2 2 2 2 2 2 2
left_child=1 2 -1 -4 8 14 7 -3 -5 -9 11 -8 13 -13 -6 -2 18 -18 -17 -20 21 -21 -23 -24 25 -22 27 -27 29 -19
right_child=15 6 3 4 5 -7 10 9 -10 -11 -12 12 -14 -15 -16 16 17 28 19 20 24 22 23 -25 -26 26 -28 -29 -30 -31
leaf_value=0.0085528690234891007 -0.0051189048027012948 -0.012730128114873713 -0.01850833010061511 -0.016712616048753261 -0.0031070565350007182 -0.0072016191063448785 0.0083848277527767308 -0.0093042188114486647 -0.005604874425743883 0.0014016380053709285 0.00012926216259209736 -0.020067510306835176 -0.0018425649592628407 -0.0052988267193237945 0.0034975650845231808 0.00051072796695181657 -0.014134948966088343 -0.011269813999242616 0.00067154472459995192 -0.016818313581498864 -0.013395748570379194 0.0045455071644391869 -0.00064566244384170414 -0.012902356665914081 6.9309123764039243e-05 -0.017193451505154372 0.0010574353503040891 0.0022146619529667079 0.0011128294725566458 0.0011889456610333583
leaf_weight=21 33 22 21 20 43 35 26 20 37 42 2023 20 38 21 82 4997 29 20 1123 39 23 25 36 28 592 20 109 20 178 32
leaf_count=21 33 22 21 20 43 35 26 20 37 42 2023 20 38 21 82 4997 29 20 1123 39 23 25 36 28 592 20 109 20 178 32
internal_value=0 -0.000550375 -0.00328014 -0.00432423 -0.00295158 -0.000617874 -0.00023075 -0.00484855 -0.00950233 -0.00205186 -4.84681e-05 -0.00347274 -0.00737523 -0.0125031 0.00122558 0.000186196 0.000210274 -0.00154124 0.000274969 -0.000309691 -0.00154504 -0.00724052 -0.00304351 -0.00600797 -0.00059082 -0.00286289 -0.00123702 -0.00748939 4.66679e-05 -0.00360288
internal_weight=0 2471 259 238 217 160 2212 84 57 62 2128 105 79 41 125 7304 7271 259 7012 2015 892 128 89 64 764 172 149 40 230 52
internal_count=9775 2471 259 238 217 160 2212 84 57 62 2128 105 79 41 125 7304 7271 259 7012 2015 892 128 89 64 764 172 149 40 230 52
is_linear=0
shrinkage=0.2


Tree=25
num_leaves=31
num_cat=0
split_feature=6 9 8 2 8 0 9 1 5 0 8 9 8 4 5 0 0 9 6 0 1 1 0 8 8 6 5 8 5 4
split_gain=0.0273625 0.0867621 0.0685026 0.020558 0.0517698 0.0499092 0.0763556 0.0241168 0.0369413 0.052247 0.11484 0.0337837 0.0291546 0.0217603 0.124858 0.205269 0.0260331 0.0287719 0.0232976 0.0255811 0.0198905 0.0472535 0.0297307 0.0435051 0.0366249 0.0829131 0.0445793 0.0216954 0.12343 0.078043
threshold=0.031481481481481437 0.093500000000000014 0.047091932457786125 0.32350000000000001 0.020700437773608509 0.41181818181818158 0.18050000000000002 0.47049999999999997 0.7975000000000001 0.79060606060606065 0.16066291432145094 0.059500000000000004 0.053220762976860424 0.8155 0.57750000000000012 0.45787878787878794 0.63000000000000012 0.14650000000000002 0.43148148148148147 0.27787878787878795 0.87950000000000006 0.88350000000000006 0.54333333333333333 0.061413383364602885 0.10168855534709188 0.26911911911911918 0.87650000000000017 0.049843652282676683 0.70450000000000002 0.92750000000000021
decision_type=2 2 2 2 2 2 2 2 2 2 2 2 2 2 2 2 2 2 2 2 2 2 2 2 2 2 2 2 2 2
left_child=1 -1 -3 4 -2 6 -6 11 -9 -10 -11 -7 -13 14 15 -5 18 -18 -16 -20 27 -22 23 -23 25 -24 -27 28 -15 -30
right_child=3 2 -4 13 5 7 -8 8 9 10 -12 12 -14 20 16 -17 17 -19 19 -21 21 22 24 -25 -26 26 -28 -29 29 -31
leaf_value=-0.014579933575005272 -0.007714722493983573 -0.010773983651485582 -2.5164149301417642e-05 -0.023855458898469808 -0.013726202436481361 0.0070463258970641738 -0.001567809144539338 0.00040443280394879375 -0.00033063371743812371 -0.014805745560136675 -0.0017768321503721614 0.0074573634799731808 0.00019665974855350793 0.0067312113656607447 0.0018182334940965205 0.0028902390401609329 0.0091965934529434894 0.00097228663133200994 -0.0082045423487822223 -0.0013678146342252508 -0.0082604085628014638 0.0097143606242278344 -0.014001069040279146 0.00064776520834868316 -0.00038560972846669308 0.002240546687217257 -0.0070043360465206206 0.00028379026550058687 0.0026015889676562604 -0.0034157842993457286
leaf_weight=20 40 26 270 24 27 33 88 400 187 38 94 23 579 138 55 22 20 114 30 81 31 23 27 266 557 54 34 6129 176 169
leaf_count=20 40 26 270 24 27 33 88 400 187 38 94 23 579 138 55 22 20 114 30 81 31 23 27 266 557 54 34 6129 176 169
internal_value=0 -0.00183075 -0.000969317 6.11604e-05 -0.000615603 -0.000422299 -0.00442239 -8.25567e-05 -0.000875794 -0.00248109 -0.00552758 0.000815613 0.000474062 0.000189618 -0.00136156 -0.011064 0.000126154 0.0021998 -0.00154775 -0.00321558 0.0002602 -0.000574907 -0.000326988 0.00136933 -0.00105651 -0.00430597 -0.00133134 0.000385492 0.00167602 -0.000346052
internal_weight=0 316 296 9459 1509 1469 115 1354 719 319 132 635 602 7950 346 46 300 134 166 111 7604 992 961 289 672 115 88 6612 483 345
internal_count=9775 316 296 9459 1509 1469 115 1354 719 319 132 635 602 7950 346 46 300 134 166 111 7604 992 961 289 672 115 88 6612 483 345
is_linear=0
shrinkage=0.2


Tree=26
num_leaves=31
num_cat=0
split_feature=10 8 9 6 1 1 5 0 7 8 9 10 5 7 8 10 5 8 7 9 7 5 7 8 9 2 9 7 0 1
split_gain=0.0190437 0.0413882 0.11621 0.0944341 0.0881142 0.0729226 0.0700659 0.0549261 0.0958027 0.118097 0.0613632 0.0565253 0.0512856 0.0506334 0.0441006 0.0416371 0.0673691 0.0410852 0.0506724 0.0553701 0.0401854 0.0378662 0.171581 0.1528 0.0345703 0.0517107 0.0606695 0.0318806 0.0289371 0.0284865
threshold=0.5277777777777779 0.21069418386491559 0.35350000000000004 0.68483483483483487 0.90750000000000008 0.16649999999999998 0.73950000000000016 0.55909090909090919 0.91449999999999998 0.088742964352720347 0.11649999999995 0.30555555555555564 0.76150000000000018 0.98350000000000015 0.071857410881801129 0.13888888888888892 0.82250000000000012 0.16929330831769859 0.99350000000000016 0.56549999999990008 0.97150000000000014 0.57750000000000012 0.82550000000000001 0.68105065666041276 0.15050000000000002 0.32150000000000006 0.036499999999999998 0.99550000000000016 0.24696969696969698 0.8175
decision_type=2 2 2 2 2 2 2 2 2 2 2 2 2 2 2 2 2 2 2 2 2 2 2 2 2 2 2 2 2 2
left_child=1 2 3 5 15 -1 -6 29 -9 10 -10 -11 -12 -5 -8 16 -4 18 -2 -20 -13 22 23 -19 25 26 -23 -17 -26 -7
right_child=17 -3 4 13 6 7 14 8 9 11 12 20 -14 -15 -16 27 -18 21 19 -21 -22 24 -24 -25 28 -27 -28 -29 -30 -31
leaf_value=-6.724064037097192e-05 0.0015350205274010514 0.0001116320490438725 0.0016426901123486458 0.0017741504126870249 0.0011698699095765786 -0.0045936533774770172 -0.017873398149386051 -0.00097758880594982678 -0.0083543083187015282 -0.011953862076804329 -0.014426998116753319 0.0030506929575369276 -0.027795707170541091 -0.0079571419954299928 -0.0059014768288761848 0.0014585573003028597 -0.011653901891851868 -0.0017283206165302546 -0.0084979785454654417 0.0025904114742109916 -0.0082847567685265938 -0.011002402141690255 -0.00033985582519829437 -0.026154716556803105 0.0032313750774571391 0.0026568107827825544 0.00051971434355329942 -0.0064434269299021079 -0.00024479196071898652 0.0039838063534781603
leaf_weight=83 1237 3155 35 148 34 59 20 51 21 39 22 29 24 25 32 743 27 20 43 31 22 25 266 21 99 401 68 21 2953 21
leaf_count=83 1237 3155 35 148 34 59 20 51 21 39 22 29 24 25 32 743 27 20 43 31 22 25 266 21 99 401 68 21 2953 21
internal_value=0 -0.000295422 -0.00117747 -0.00349096 0.000202517 -0.00529038 -0.00589 -0.00679566 -0.00850858 -0.0109549 -0.0173124 -0.00622217 -0.021402 0.000367894 -0.0105061 0.000836846 -0.00414776 0.000263786 0.0012309 -0.00385284 -0.00183911 -6.5279e-05 -0.00219615 -0.0142394 0.000119204 0.00167138 -0.00257763 0.00124136 -0.000132033 -0.00234207
internal_weight=0 4611 1456 544 912 371 86 288 208 157 67 90 46 173 52 826 62 5164 1311 74 51 3853 307 41 3546 494 93 764 3052 80
internal_count=9775 4611 1456 544 912 371 86 288 208 157 67 90 46 173 52 826 62 5164 1311 74 51 3853 307 41 3546 494 93 764 3052 80
is_linear=0
shrinkage=0.2


Tree=27
num_leaves=31
num_cat=0
split_feature=11 2 9 7 1 8 8 8 8 10 6 9 2 7 11 1 9 7 5 9 5 1 8 0 5 0 3 5 7 3
split_gain=0.0168731 0.0284312 0.0253105 0.0321648 0.0207065 0.0202065 0.0194692 0.0173636 0.0164332 0.0450017 0.0226463 0.0189187 0.0147679 0.0140508 0.0111462 0.0217134 0.0292248 0.0482637 0.0705195 0.0505877 0.038002 0.0344149 0.0613895 0.0218452 0.0435329 0.0263045 0.0146875 0.0119396 0.0824061 0.0192343
threshold=0.93750000000000011 0.28650000000000003 0.0055000000000000005 0.91950000000000032 0.55750000000000022 0.030956848030018701 0.085991244527829899 0.99393370856785501 0.21069418386491559 0.25000000000000006 0.073123123123123038 0.22149999999995001 0.59650000000000003 0.82250000000000012 0.18750000000000003 0.53950000000000009 0.63849999999995011 0.93250000000000022 0.9425 0.07350000000000001 0.60650000000000015 0.66050000000000009 0.19193245778611637 0.31666666666666671 0.64650000000000019 0.25909090909090909 0.14050000000000004 0.5375000000000002 0.82750000000000001 0.34150000000000008
decision_type=2 2 2 2 2 2 2 2 2 2 2 2 2 2 2 2 2 2 2 2 2 2 2 2 2 2 2 2 2 2
left_child=2 4 3 -1 -2 -3 12 14 9 -8 -10 -11 -7 -12 15 23 17 20 19 -19 -17 22 -21 24 -4 -26 -23 28 -16 -30
right_child=1 5 7 -5 -6 6 8 -9 10 11 13 -13 -14 -15 27 16 -18 18 -20 21 -22 26 -24 -25 25 -27 -28 -29 29 -31
leaf_value=0.00034120445100901031 -0.0015742404469698348 -0.0058237981600021685 -0.010659931750602224 -0.010376741703034245 -0.009270802191544877 0.00052489989722179697 -0.011386264087632299 -0.0045561025031929606 -0.0064640106393545425 -0.0055666139640379699 -0.0042108477912664128 0.00059656973282567625 0.007488999863909114 0.00060303597165531396 -0.0101391297947183 -0.0060885274939209925 0.00053306088924466794 -0.011876567627214604 -0.011848909818740467 -0.014578759704381812 0.00094446009514264186 0.0046473698559566399 -0.0003663933463676292 0.00058901613064473509 0.0032528112863043422 -0.0046694159284137032 -0.00081340009952493185 0.00026668000517196251 -0.0023061873617871865 0.0016932944105709996
leaf_weight=24 29 28 21 21 27 29 20 32 21 27 26 76 21 361 35 36 268 21 39 20 210 24 31 872 38 30 110 7064 73 141
leaf_count=24 29 28 21 21 27 29 20 32 21 27 26 76 21 361 35 36 268 21 39 20 210 24 31 872 38 30 110 7064 73 141
internal_value=0 -0.000972563 7.09939e-05 -0.0046605 -0.00528508 -0.00057601 -0.000323105 9.44818e-05 -0.000678371 -0.00270475 -6.74762e-05 -0.00101902 0.00344982 0.000279623 0.000110957 -0.000347144 -0.00114674 -0.00206362 -0.00405055 -0.00257417 -8.47576e-05 -0.00151822 -0.00593987 0.000284379 -0.00270038 -0.000242289 0.000164648 0.000218701 -0.00114244 0.000328985
internal_weight=0 665 9110 45 56 609 581 9065 531 123 408 103 50 387 9033 1720 759 491 245 206 246 185 51 961 89 68 134 7313 249 214
internal_count=9775 665 9110 45 56 609 581 9065 531 123 408 103 50 387 9033 1720 759 491 245 206 246 185 51 961 89 68 134 7313 249 214
is_linear=0
shrinkage=0.2


Tree=28
num_leaves=31
num_cat=0
split_feature=4 7 8 1 10 0 9 0 9 5 6 8 8 8 9 7 3 10 5 6 4 6 6 6 6 7 10 6 11 0
split_gain=0.016699 0.0392242 0.0733818 0.0900743 0.108947 0.129079 0.0711563 0.0455512 0.0334224 0.0303931 0.0252654 0.0606894 0.0250758 0.0229914 0.0941681 0.0792539 0.0663323 0.0587101 0.042962 0.0816838 0.0546018 0.0622568 0.0616117 0.0485578 0.0393556 0.0286323 0.0250661 0.0245476 0.0336701 0.0228368
threshold=0.9554999999999999 0.96150000000000013 0.21069418386491559 0.17450000000000002 0.36111111111111116 0.6421212121212122 0.15050000000000002 0.82333333333333281 0.084500000000000006 0.64450000000000007 0.054004004004003958 0.10506566604127575 0.99393370856785501 0.047091932457786125 0.86350000000000005 0.99050000000000005 0.5645 0.13888888888888892 0.9215000000000001 0.26531531531531538 0.85750000000000004 0.49324324324324331 0.10765765765765768 0.19194194194194197 0.718968968968969 0.95450000000000002 0.58333333333333348 0.58593593593593607 0.68750000000000011 0.8257575757575758
decision_type=2 2 2 2 2 2 2 2 2 2 2 2 2 2 2 2 2 2 2 2 2 2 2 2 2 2 2 2 2 2
left_child=12 10 3 -3 5 -5 -6 -7 -4 -8 11 -2 13 14 15 17 -17 -1 20 -20 21 -19 -22 -24 26 -16 -21 -25 -29 -11
right_child=1 2 8 4 6 7 9 -9 -10 29 -12 -13 -14 -15 25 16 -18 18 19 24 22 -23 23 27 -26 -27 -28 28 -30 -31
leaf_value=-0.0092274163383990523 -0.012569050945430286 0.0030526022621515125 -0.0058719838405714223 -0.0023159807667352968 -0.013572723545472731 -0.026581714244093748 0.0054959792025990536 -0.013245055484141977 0.00029751570798374627 -0.00042297145748826945 0.00026186620106722432 -0.00045618111547903541 -0.0059275186896600111 8.1666343853792757e-05 0.0058328107498527978 0.00013105222024023533 -0.016157871456816793 0.016899351198861209 -0.013274159717839212 -0.0071609450387768447 -0.0079367506783455614 0.0033949706839242334 0.011431740072515349 -0.00071408949449679323 0.0087279474444221707 0.015100862169638277 0.0027323394861360571 0.0061217723648345178 -0.0021599669962328069 -0.0063220364815649759
leaf_weight=20 21 55 38 29 22 20 22 21 464 70 1687 78 27 6685 40 20 20 22 20 20 24 36 23 89 20 20 21 72 27 42
leaf_count=20 21 55 38 29 22 20 22 21 464 70 1687 78 27 6685 40 20 20 22 20 20 24 36 23 89 20 20 21 72 27 42
internal_value=0 -0.000437806 -0.00161809 -0.00420595 -0.00597242 -0.0125278 -0.00303091 -0.0197507 -0.000169498 -0.00130016 7.96395e-05 -0.00302558 0.000156082 0.000178962 0.0014956 0.000468891 -0.00801341 0.00133004 0.00189461 -0.00218227 0.00302166 0.00851732 0.00166529 0.00275746 0.00145441 0.00892216 -0.00209365 0.00169625 0.00386312 -0.00263512
internal_weight=0 2569 783 281 226 70 156 41 502 134 1786 99 7206 7179 494 434 40 394 374 81 293 58 235 211 61 60 41 188 99 112
internal_count=9775 2569 783 281 226 70 156 41 502 134 1786 99 7206 7179 494 434 40 394 374 81 293 58 235 211 61 60 41 188 99 112
is_linear=0
shrinkage=0.2


Tree=29
num_leaves=31
num_cat=0
split_feature=0 6 6 6 8 4 7 1 0 4 8 7 9 1 6 7 0 8 5 1 10 8 9 1 5 10 1 10 9 1
split_gain=0.014569 0.0783703 0.0625957 0.013483 0.0337033 0.0487802 0.0786459 0.0374781 0.0312729 0.028097 0.0277461 0.094018 0.0791174 0.0967169 0.04313 0.0291109 0.0298254 0.0284544 0.0632052 0.0279984 0.0274157 0.0209648 0.0528838 0.0836177 0.063854 0.0513321 0.0631814 0.0318449 0.0730679 0.0307104
threshold=0.2106060606060606 0.55075075075075086 0.77542542542542547 0.47062062062062077 0.17179487179487182 0.86150000000000004 0.98050000000000004 0.96850000000000003 0.97060606060606036 0.86350000000000005 0.041838649155722267 0.90150000000000008 0.56050000000000011 0.74650000000000016 0.05830830830830832 0.9405 0.6627272727272725 0.049843652282676683 0.76350000000000018 0.33250000000000007 0.75000000000000011 0.26472795497185747 0.12049999999995001 0.14549999999999999 0.68450000000000022 0.30555555555555564 0.61150000000000004 0.19444444444444445 0.44749999999995005 0.48249999999999998
decision_type=2 2 2 2 2 2 2 2 2 2 2 2 2 2 2 2 2 2 2 2 2 2 2 2 2 2 2 2 2 2
left_child=1 -1 -3 10 5 6 -5 8 9 -7 11 -2 14 15 -13 -14 -17 18 -12 -16 -21 22 23 -19 -25 -26 -27 28 29 -24
right_child=3 2 -4 4 -6 7 -8 -9 -10 -11 17 12 13 -15 19 16 -18 21 -20 20 -22 -23 27 24 25 26 -28 -29 -30 -31
leaf_value=0.0035816424740271659 0.0066645716332614695 -0.016808444201014936 -0.0013487619855864481 0.0022044978050963552 -6.0029569736767845e-05 -0.006417368827969768 0.01270201319061658 -0.0055092691419980468 -0.004689415763714351 0.0011508365066869885 0.012178554609029864 -0.015336254630237817 0.010020799417711366 -0.009387033610363249 -0.00063793391131588986 0.0068351304446834897 -0.0038241596737255655 0.0051256791011176327 -0.00099990793969482192 -0.0096563952986813972 -0.0017537285760045051 0.00016102302398178511 -0.014284146398616335 0.00070330098032860499 -0.016512921341229232 -0.0011265675475200018 -0.012282973955813292 5.2891433675489961e-06 0.00079257593380235554 -0.004612378756804713
leaf_weight=41 41 20 22 178 3823 20 34 39 40 1037 24 20 26 27 36 21 21 33 37 59 25 2729 24 41 25 45 37 1149 72 29
leaf_count=41 41 20 22 178 3823 20 34 39 40 1037 24 20 26 27 36 21 21 33 37 59 25 2729 24 41 25 45 37 1149 72 29
internal_value=0 -0.00263849 -0.00871052 2.25954e-05 0.000243165 0.00110304 0.00388806 0.000583303 0.000799903 0.00100763 -0.000229687 -0.0021728 -0.00371464 0.000740224 -0.00673758 0.00476134 0.00150549 -0.00010335 0.00418506 -0.00530447 -0.00730441 -0.000165872 -0.000778998 -0.00397793 -0.00600779 -0.00857933 -0.00616056 -0.000324518 -0.0033561 -0.00899205
internal_weight=0 83 42 9692 5171 1348 212 1136 1097 1057 4521 276 235 95 140 68 42 4245 61 120 84 4184 1455 181 148 107 82 1274 125 53
internal_count=9775 83 42 9692 5171 1348 212 1136 1097 1057 4521 276 235 95 140 68 42 4245 61 120 84 4184 1455 181 148 107 82 1274 125 53
is_linear=0
shrinkage=0.2


Tree=30
num_leaves=31
num_cat=0
split_feature=11 2 10 3 9 7 9 8 4 8 7 1 5 6 9 8 1 8 4 5 4 1 6 8 3 7 7 6 7 9
split_gain=0.0108457 0.0183174 0.0215365 0.0211574 0.0160982 0.0220858 0.0159365 0.0115608 0.0111343 0.0980503 0.0270307 0.0194585 0.0203348 0.0262479 0.0143342 0.0112812 0.0420422 0.0118254 0.0548918 0.0437275 0.0422108 0.0354804 0.0473902 0.0283069 0.0268706 0.047389 0.0435159 0.0298459 0.0234309 0.0557995
threshold=0.93750000000000011 0.59150000000000003 0.19444444444444445 0.55650000000000022 0.0055000000000000005 0.91950000000000032 0.12049999999995001 0.088742964352720347 0.8135 0.94077548467792382 0.9425 0.40350000000000008 0.73550000000000015 0.44789789789789791 0.31450000000000006 0.0056910569105690445 0.43350000000000005 0.049843652282676683 0.85750000000000004 0.81850000000000012 0.99150000000000016 0.80350000000000021 0.26531531531531538 0.023202001250781677 0.82350000000000023 0.94349999999999989 0.93750000000000011 0.18813813813813818 0.90450000000000019 0.57849999999995017
decision_type=2 2 2 2 2 2 2 2 2 2 2 2 2 2 2 2 2 2 2 2 2 2 2 2 2 2 2 2 2 2
left_child=4 2 3 -2 5 -1 -3 -8 9 10 11 12 13 -6 -12 16 -10 18 19 -17 21 24 -23 -22 26 -26 28 -28 -20 -30
right_child=1 6 -4 -5 8 -7 7 -9 15 -11 14 -13 -14 -15 -16 17 -18 -19 20 -21 23 22 -24 -25 25 -27 27 -29 29 -31
leaf_value=0.00042810237500816588 -0.010542746647261084 0.005956962053841424 -0.0010790463961546023 -0.0013433124125003814 -0.00069657126108982738 -0.0084532208208526888 0.0037096415362846587 -0.00049585157479570816 0.0027731275018595628 -0.013659506467545568 0.0076607457076897844 0.00041635129947237493 -0.00044363490480463951 -0.009915743329717468 0.0014908313516004499 0.011001992578668572 -0.0072568735320653237 7.6337244597935599e-05 0.0031765886000426208 0.00041641017521248653 -0.011196473892778159 -0.0090802120355268322 0.00029022844565742011 -0.00080028431998057812 0.0030442514275718069 -0.0077186336989204093 0.010723994711380719 0.0035624330936748863 -0.0067866013146830606 0.0038983279051642648
leaf_weight=24 20 21 406 20 21 21 31 167 32 23 20 126 50 30 61 37 35 8089 53 27 20 30 77 22 36 30 28 138 46 34
leaf_count=24 20 21 406 20 21 21 31 167 32 23 20 126 50 30 61 37 35 8089 53 27 20 30 77 22 36 30 28 138 46 34
internal_value=0 -0.000779739 -0.00151528 -0.00594303 5.69183e-05 -0.00371652 0.000718209 0.000162584 7.56502e-05 -0.00106295 -0.000122293 -0.00124151 -0.00330972 -0.00611961 0.00301427 0.000118801 -0.00246643 0.000138786 0.00101274 0.0065362 0.000324992 0.000865639 -0.002337 -0.00575085 0.00180449 -0.00184797 0.00261072 0.00477041 -8.48219e-05 -0.00224551
internal_weight=0 665 446 40 9110 45 219 198 9065 331 308 227 101 51 81 8734 67 8667 578 64 514 472 107 42 365 66 299 166 133 80
internal_count=9775 665 446 40 9110 45 219 198 9065 331 308 227 101 51 81 8734 67 8667 578 64 514 472 107 42 365 66 299 166 133 80
is_linear=0
shrinkage=0.2


Tree=31
num_leaves=31
num_cat=0
split_feature=6 9 8 9 0 7 2 3 1 6 8 6 8 3 1 11 9 9 1 6 4 8 7 8 3 8 9 7 0 2
split_gain=0.0104503 0.0371263 0.026969 0.0107898 0.0506919 0.04984 0.0428397 0.0385271 0.036241 0.039346 0.0360262 0.0500265 0.0322094 0.0287229 0.0281307 0.0398701 0.0554078 0.0347013 0.0477586 0.0609165 0.0504028 0.0439453 0.0420398 0.0492902 0.0273645 0.0510898 0.026327 0.0237042 0.0220281 0.0321118
threshold=0.023373373373373325 0.11149999999995001 0.055597248280175114 0.12049999999995001 0.97909090909090912 0.81050000000000033 0.44650000000000001 0.94750000000000001 0.87550000000000006 0.49324324324324331 0.36954346466541593 0.82362362362362374 0.22539086929330823 0.10450000000000001 0.54350000000000021 0.31249999999999994 0.036499999999999998 0.059500000000000004 0.22250000000000003 0.67742742742742756 0.90050000000000019 0.14202626641651028 0.88850000000000018 0.41969981238273929 0.42550000000000004 0.18130081300813011 0.12450000000000001 0.9385 0.65303030303030285 0.37950000000000006
decision_type=2 2 2 2 2 2 2 2 2 2 2 2 2 2 2 2 2 2 2 2 2 2 2 2 2 2 2 2 2 2
left_child=1 -1 -3 4 5 -2 7 10 14 -10 11 28 -13 -12 17 -16 -17 18 19 20 -8 -20 -23 -24 25 -19 -5 -11 -7 -30
right_child=3 2 -4 26 -6 6 8 -9 9 27 13 12 -14 -15 15 16 -18 24 21 -21 -22 22 23 -25 -26 -27 -28 -29 29 -31
leaf_value=-0.0091372342653233893 0.010313290449557826 -0.007145670366431163 0.00024513173189784468 -0.0052976085366313597 0.009906974874193902 -0.0066507485802643571 0.005666308907980454 0.0065833569839596753 -0.0097506011328236629 0.0043213952224635125 -0.0057474646465852861 0.0055411199294030673 -0.0041315563754843812 0.0014971626126597667 -0.00068691510743662423 0.013137178763281555 0.0035520255805749912 0.01472221224103123 -0.0119648935228941 0.01140960739804027 -0.0080321206240279771 -0.0093071873033685349 -0.0048246555263176567 0.0069397407230632063 0.00090553432134637512 0.0022338885131926202 -2.1394542804435326e-05 -0.0040649800991209659 -0.0006707544471802456 -0.0072805545647584265
leaf_weight=22 20 22 193 38 23 91 21 25 22 28 25 40 21 176 51 32 98 20 21 23 22 21 28 29 85 38 8374 26 98 42
leaf_count=22 20 22 193 38 23 91 21 25 22 28 25 40 21 176 51 32 98 20 21 23 22 21 28 29 85 38 8374 26 98 42
internal_value=0 -0.00131187 -0.000511136 3.25973e-05 0.000614015 0.000420236 0.000237539 -0.00107617 0.00144196 -0.0026211 -0.00146458 -0.00288306 0.00221118 0.00059609 0.00207344 0.00405224 0.00591145 0.000910577 -0.00106573 0.00310162 -0.00134219 -0.00384396 -0.00165755 0.00116074 0.00319093 0.00654021 -4.52291e-05 0.000283511 -0.00422829 -0.00265369
internal_weight=0 237 215 9538 1126 1103 1083 518 565 76 493 292 61 201 489 181 130 308 165 66 43 99 78 57 143 58 8412 54 231 140
internal_count=9775 237 215 9538 1126 1103 1083 518 565 76 493 292 61 201 489 181 130 308 165 66 43 99 78 57 143 58 8412 54 231 140
is_linear=0
shrinkage=0.2


Tree=32
num_leaves=31
num_cat=0
split_feature=10 9 11 9 9 4 0 8 7 0 9 11 4 6 0 11 8 5 8 6 0 2 0 9 3 10 2 8 6 4
split_gain=0.00967166 0.0246525 0.042582 0.0616065 0.0412169 0.0432034 0.0153035 0.0596015 0.0148881 0.0140367 0.0131688 0.0369891 0.0710314 0.0381265 0.0291629 0.023623 0.0113355 0.0265941 0.0170092 0.0219216 0.0122662 0.0109778 0.0280041 0.024238 0.0361976 0.0294049 0.021978 0.0175579 0.0413123 0.0150012
threshold=0.80555555555555569 0.12450000000000001 0.56250000000000011 0.024500000000000004 0.036499999999999998 0.9235000000000001 0.2106060606060606 0.49111944965603499 0.95350000000000013 0.69909090909090887 0.020500000000000001 0.68750000000000011 0.87650000000000017 0.49734734734734748 0.6360606060606061 0.31249999999999994 0.049843652282676683 0.6805000000000001 0.012632895559724768 0.2181681681681682 0.2166666666666667 0.34950000000000003 0.27787878787878795 0.10750000000000001 0.68150000000000022 0.30555555555555564 0.30650000000000005 0.036647904940587811 0.47062062062062077 0.99250000000000027
decision_type=2 2 2 2 2 2 2 2 2 2 2 2 2 2 2 2 2 2 2 2 2 2 2 2 2 2 2 2 2 2
left_child=6 2 4 -4 5 -2 7 -1 9 -5 11 12 -8 -13 -14 -16 17 -3 -19 -20 -18 22 -12 24 25 -24 -27 28 -25 -23
right_child=1 16 3 8 -6 -7 10 -9 -10 -11 21 13 14 -15 15 -17 20 18 19 -21 -22 29 23 27 -26 26 -28 -29 -30 -31
leaf_value=0.0027304032845704845 0.00061783662227832758 0.0076495656510815026 0.013833527281880378 0.0014362695817059529 0.0021335068056793477 -0.012092123329639435 -0.010067199696786704 -0.0094822659547771186 -0.0008465386141324416 0.0075543770754787458 -0.0061772862428744494 -0.0013411939410226687 -0.0012660564078638952 -0.01233089531812331 0.0021226344211027026 0.01184333982411772 0.0049162762425839909 -0.0047445147018879662 0.0075216036755591633 -7.8506006280400079e-05 -6.5196533705235907e-05 0.00015378991453310678 -0.010174092082306744 -0.0078967973539555408 0.0021211316422900051 0.00056190829663568082 -0.0065519759729795631 2.1634429393562302e-05 0.0013754285013419577 -0.0014777182180501344
leaf_weight=33 23 26 25 30 98 20 20 31 32 30 34 28 30 23 20 20 20 20 20 63 1736 5534 30 37 41 38 32 1406 40 235
leaf_count=33 23 26 25 30 98 20 20 31 32 30 34 28 30 23 20 20 20 20 20 63 1736 5534 30 37 41 38 32 1406 40 235
internal_value=0 0.000375431 0.00220899 0.00502964 -0.00013155 -0.00529377 -0.000105418 -0.00318511 0.00263728 0.00449532 -7.93739e-05 -0.00199412 0.000444376 -0.00629733 0.00344768 0.00698299 0.000124472 0.00193399 0.000491222 0.00175285 -8.45994e-06 -4.3023e-05 -0.000496587 -0.000377656 -0.00288345 -0.00493533 -0.00269015 -0.000139411 -0.00308006 8.73305e-05
internal_weight=0 2143 258 117 141 43 7632 64 92 60 7568 141 90 51 70 40 1885 129 103 83 1756 7427 1658 1624 141 100 70 1483 77 5769
internal_count=9775 2143 258 117 141 43 7632 64 92 60 7568 141 90 51 70 40 1885 129 103 83 1756 7427 1658 1624 141 100 70 1483 77 5769
is_linear=0
shrinkage=0.2


Tree=33
num_leaves=31
num_cat=0
split_feature=5 8 4 10 7 8 4 4 10 7 4 9 8 9 4 5 8 1 1 9 7 6 4 4 9 3 7 11 10 10
split_gain=0.00969547 0.0814664 0.207371 0.0322096 0.0193894 0.031575 0.0603987 0.0250002 0.0173024 0.015344 0.0335944 0.0333256 0.0317264 0.0342362 0.0339703 0.0310973 0.044994 0.0642099 0.0896504 0.0425391 0.0746275 0.0679511 0.0414201 0.0595193 0.0359165 0.0374225 0.0460466 0.0312546 0.0297782 0.028933
threshold=0.60350000000000004 0.9135084427767356 0.84950000000000003 0.13888888888888892 0.86350000000000005 0.64953095684803008 0.85450000000000015 0.82950000000000002 0.36111111111111116 0.90450000000000019 0.86050000000000015 0.093500000000000014 0.16929330831769859 0.46749999999995001 0.92650000000000021 0.80149999999999999 0.088742964352720347 0.18950000000000003 0.25550000000000006 0.78549999999995013 0.94650000000000001 0.2181681681681682 0.90150000000000008 0.93050000000000033 0.040500000000000015 0.32450000000000001 0.95350000000000013 0.18750000000000003 0.13888888888888892 0.58333333333333348
decision_type=2 2 2 2 2 2 2 2 2 2 2 2 2 2 2 2 2 2 2 2 2 2 2 2 2 2 2 2 2 2
left_child=1 3 -3 -1 5 -5 -7 -6 -4 12 11 -11 13 14 -2 -12 17 -17 -19 20 27 -22 -23 -24 25 -18 -27 -20 -14 -16
right_child=9 2 8 4 7 6 -8 -9 -10 10 15 -13 28 -15 29 16 24 18 19 -21 21 22 23 -25 -26 26 -28 -29 -30 -31
leaf_value=-0.0079516893997788433 0.006485029699100745 -0.024298426108434797 -0.0052422127117796877 0.0001766298054481575 0.0043950833413965891 -0.013468459434807302 -0.0012176780540661034 0.00034112184335877756 0.0012934148481161725 0.0051465626522848341 0.00019899772543503812 0.00070046005655584808 0.0043826593920731774 0.0005146421571038919 -0.0035919137808377855 0.0023378356392387044 -0.010665211432541793 -0.015056129810042108 -0.0065269522529480791 0.0014052865567476783 -0.015992699926397926 -0.011714368856822451 0.0051441071764342129 -0.006737284890308122 -0.00022936343919559887 0.0033302546172801935 -0.0070040209653705141 0.00089805711249937306 2.680896194566289e-05 0.0050535305418695012
leaf_weight=20 106 20 26 194 69 22 60 515 43 74 2869 760 65 219 32 86 26 26 29 73 29 27 26 48 2271 35 34 104 1837 30
leaf_count=20 106 20 26 194 69 22 60 515 43 74 2869 760 65 219 32 86 26 26 29 73 29 27 26 48 2271 35 34 104 1837 30
internal_value=0 -0.000600459 -0.00636685 -1.72681e-05 0.000167253 -0.00121413 -0.00450447 0.0008201 -0.00116929 6.60737e-05 -9.03883e-05 0.00109496 0.000511536 0.00216223 0.00430999 -0.000264342 -0.000736738 -0.0025746 -0.00374165 -0.00286612 -0.00405172 -0.00745938 -0.00500922 -0.00256274 -0.00038874 -0.00419867 -0.001762 -0.00072093 0.000175668 0.000591366
internal_weight=0 969 89 880 860 276 82 584 69 8806 6517 834 2289 387 168 5683 2814 448 362 336 263 130 101 74 2366 95 69 133 1902 62
internal_count=9775 969 89 880 860 276 82 584 69 8806 6517 834 2289 387 168 5683 2814 448 362 336 263 130 101 74 2366 95 69 133 1902 62
is_linear=0
shrinkage=0.2


Tree=34
num_leaves=31
num_cat=0
split_feature=0 5 5 8 7 7 1 0 0 7 10 8 6 1 1 5 1 7 3 8 8 7 6 8 1 6 1 6 8 8
split_gain=0.00921895 0.0258058 0.0246628 0.0677045 0.130108 0.0301324 0.0265495 0.03302 0.0229144 0.0223977 0.0328776 0.0483568 0.047256 0.0546883 0.0402754 0.0606109 0.0226335 0.0260721 0.0218104 0.0199254 0.0194852 0.0190702 0.0167112 0.0429763 0.0524605 0.0180097 0.0159442 0.0122635 0.0120175 0.0125754
threshold=0.81424242424242432 0.70450000000000002 0.60350000000000004 0.85972482801751116 0.83450000000000013 0.92750000000000021 0.44450000000000006 0.26878787878787885 0.47393939393939394 0.89650000000000019 0.47222222222222227 0.20281425891181984 0.43148148148148147 0.87150000000000027 0.64450000000000007 0.82650000000000012 0.17450000000000002 0.97650000000000003 0.92050000000000021 0.25159474671669801 0.15803627267041906 0.9425 0.20205205205205209 0.12601626016260162 0.5525000000000001 0.1327827827827828 0.43750000000000006 0.12342342342342344 0.017948717948717951 0.058536585365853606
decision_type=2 2 2 2 2 2 2 2 2 2 2 2 2 2 2 2 2 2 2 2 2 2 2 2 2 2 2 2 2 2
left_child=2 -2 3 6 -5 8 7 -1 -6 20 11 12 14 16 15 -11 -14 26 27 21 -3 -8 23 24 -12 -25 -18 -9 -24 -30
right_child=1 9 -4 4 5 -7 19 18 -10 10 22 -13 13 -15 -16 -17 17 -19 -20 -21 -22 -23 28 25 -26 -27 -28 -29 29 -31
